tree
version=v4
num_class=1
num_tree_per_iteration=1
label_index=0
max_feature_idx=21
objective=regression
feature_names=Cement Blast_Furnace_Slag Fly_Ash Water Superplasticizer Coarse_Aggregate Fine_Aggregate Age Binder W_B_ratio GGBS_ratio FlyAsh_ratio SCM_ratio Total_Aggregate Fine_Agg_ratio Agg_Binder_ratio SP_per_binder log_Age sqrt_Age Age_very_early Age_early Age_standard
feature_infos=[102:540] [0:359.39999999999998] [0:174.69999999999999] [121.8:228] [0:32.200000000000003] [822:1134.3] [594:992.60000000000002] [1:14] [200:640] [0.23507335380416242:0.90000000000000002] [0:0.60060060060060061] [0:0.4957498482088647] [0:0.61231203007518797] [1521:1970] [0.34784108549416431:0.53808207296579391] [2.3765624999999999:9.8499999999999996] [0:0.054930058000682361] [0.69314718055994529:2.7080502011022101] [1:3.7416573867739413] [0:1] [0:1] [0:1]
tree_sizes=1579 1895 1772 1728 1682 2032 2123 2048 2297 2173 2096 2231 2432 2351 2187 2341 2565 2411 2247 2266 2528 2331 2458 2766 2465 2438 2645 2809 2701 2390 2344 2549 2564 2562 2703 2479 2447 2590 2485 2562 2228 2478 2314 2473 2517 2789 2556 2542 2552 2506 2448 2526 2392 2413 2424 2560 2488 2524 2564 2259 2530 2460 2555 2584 2472 2656 2698 2686 2431 2439 2294 2507 2294 2532 2529 2434 2593 2399 2541 2356 2445 2746 2310 2463 2570 2458 2687 2419 2546 2466 2443 2405 2711 2429 2653 2575 2526 2580 2385 2291 2544 2633 2449 2472 2229 2529 2534 2553 2470 2597 2234 2504 2576 2423 2332 2315 2526 2223 2581 2352 2455 2485 2593 2377 2415 2363 2557 2169 2697 2364 2404 2458 2548 2199 2650 2299 2153 2440 2555 2421 2387 2300 2462 2491 2651 2645 2516 2166 2268 2376 2338 2329 2497 2622 2259 2195 2329 2273 2516 2386 2561 2339 2362 2477 2533 2285 2573 2405 2496 2346 2440 2504 2477 2318 2445 2482 2374 2045 2431 2795 2325 2561 2453 2478 2529 2585 2477 2505 2393 2401 2613 2471 2521 2214 2134 2170 2481 2169 2293 2404 2253 2473 2521 2358 1916 2125 2193 2258 2265 2344 2574 2143 2569 2097 2591 2578 2191 2006 2516 2373 1981 1868 2079 1963 1916 2163 2291 2532 2057 2630 2803 2454 2147 1614 1770 1640 1912 2055 1941 2125 2114 1843 2033 2083 1638 1783 1802 1510 1707 1876 2475 2782 2675 2353 2411 2287 2309 1583 1888 1890 1607 1531 1923 1851 1597 1336 1706 1648 1687 1654 1744 1535 1527 1424 1757 1721 1501 1464 1452 1499 1494 1280 1164 1758 1539 1446 2648 2552 2355 2306 1578 1780 1426 1237 1547 1500 1575 1427 1532 1677 1719 1407 1462 1284 1459 1392 1280 1769 1478 1484 1211 1505 1368 1417 1688 1488 1406 1565 1062 1500 1034 881 1331 1299 1426 1623 1294 1191 930 1049 691

Tree=0
num_leaves=16
num_cat=0
split_feature=9 0 7 7 7 0 9 0 8 11 6 9 8 0 14
split_gain=18902.8 5882.53 3214.64 2422.96 2199.86 920.444 834.749 353.379 231.416 205.405 174.467 107.718 50.0921 22.8914 2.96552
threshold=0.48155844155844157 311.65000000000003 10.500000000000002 10.500000000000002 5.0000000000000009 290.30000000000001 0.32273408368219986 216.55000000000004 528.80000000000007 0.35558878436008673 763.65000000000009 0.40511829250122394 327.10000000000008 236.75000000000003 0.42556309957480537
decision_type=2 2 2 2 2 2 2 2 2 2 2 2 2 2 2
left_child=1 2 7 5 8 -2 -6 14 -3 -4 -7 -9 -5 -14 -1
right_child=3 4 9 12 6 10 -8 11 -10 -11 -12 -13 13 -15 -16
leaf_value=21.973025889075046 21.379221400364813 23.471977578547747 24.762558282180386 22.806097375143999 26.031551862049149 22.746454413584257 24.429608537311108 23.161646445908222 24.301961785834646 23.743744525545495 22.063349915736097 22.630958862827882 22.990932299612997 23.275140109188026 22.441632562458523
leaf_weight=12.000000000000002 84 13.999999999999998 15.000000000000002 12.999999999999998 30 11.999999999999998 14.999999999999998 13.000000000000002 21 10.999999999999998 31 13.999999999999998 10.000000000000002 9.9999999999999982 9.9999999999999982
leaf_count=12 84 14 15 13 30 12 15 13 21 11 31 14 10 10 10
internal_value=22.9983 24.1005 23.1939 21.9301 24.9271 21.6541 25.5735 22.5233 24.0103 24.4087 22.2353 22.8824 23.0052 23.1419 22.1264
internal_weight=315 155 75 160 80 127 45 49 35 26 43 27 33 20 22
internal_count=315 155 75 160 80 127 45 49 35 26 43 27 33 20 22
is_linear=0
shrinkage=1


Tree=1
num_leaves=19
num_cat=0
split_feature=9 0 7 7 7 0 9 0 9 8 7 13 11 12 3 12 9 14
split_gain=14187.5 4529.43 2212.87 1806.82 1647.56 672.987 492.569 443.853 289.237 209.014 179.471 316.554 153.607 45.1535 43.16 60.224 42.6346 1.28081
threshold=0.48155844155844157 322.85000000000008 10.500000000000002 10.500000000000002 5.0000000000000009 290.30000000000001 0.32273408368219986 216.55000000000004 0.37195782509820141 528.80000000000007 5.0000000000000009 1802.3500000000001 0.35558878436008673 0.34336280770700295 192.45000000000002 0.36310337054895597 0.54659366825290823 0.42556309957480537
decision_type=2 2 2 2 2 2 2 2 2 2 2 2 2 2 2 2 2 2
left_child=1 2 7 5 9 16 -6 17 -9 -3 -7 -12 -4 -10 15 -5 -2 -1
right_child=3 4 12 14 6 10 -8 8 13 -11 11 -13 -14 -15 -16 -17 -18 -19
leaf_value=-0.8995253850935585 -1.0388648281487163 0.4145058062409594 1.5421598591810233 0.29703854599571317 2.6924118281883138 -1.0257602460087079 1.3303016370177096 0.60449752360385101 -0.013674729036420251 1.2070020208268171 0.20908222430961815 -0.73902501076934024 0.6551011434789854 -0.41438123293299534 -0.2147459111343685 -0.13188279240424267 -1.5191771475841687 -0.49010919650658519
leaf_weight=12.000000000000002 26 13.999999999999998 15.000000000000002 13.000000000000002 28 15.999999999999998 13.999999999999998 9.9999999999999982 10.000000000000002 19 10.000000000000002 17 10.999999999999998 11.999999999999998 9.9999999999999982 9.9999999999999982 58 9.9999999999999982
leaf_count=12 26 14 15 13 28 16 14 10 10 19 10 17 11 12 10 10 58 10
internal_value=0.00321488 0.95827 0.21082 -0.922074 1.73153 -1.16037 2.31212 -0.305034 0.0342775 0.910613 -0.662285 -0.395074 1.23467 -0.248867 0.00616483 0.112618 -1.39574 -0.766078
internal_weight=315 155 80 160 75 127 42 54 32 33 43 27 26 22 33 23 84 22
internal_count=315 155 80 160 75 127 42 54 32 33 43 27 26 22 33 23 84 22
is_linear=0
shrinkage=0.140864


Tree=2
num_leaves=18
num_cat=0
split_feature=9 7 8 7 9 12 12 2 2 10 8 7 9 8 1 7 15
split_gain=10793.6 3845.62 1215.76 1108.91 1090.05 727.763 415.401 296.335 295.802 279.171 237.997 114.204 57.6511 37.83 23.1856 19.5432 116.061
threshold=0.37195782509820141 10.500000000000002 370.80000000000001 5.0000000000000009 0.45827002833326497 0.34154337419008712 0.34336280770700295 51.750000000000007 51.750000000000007 0.39944524677349108 397.05000000000007 5.0000000000000009 0.51134263551669468 327.10000000000008 141.90000000000003 5.0000000000000009 6.2042043345013571
decision_type=2 2 2 2 2 2 2 2 2 2 2 2 2 2 2 2 2
left_child=3 2 9 7 -3 8 10 14 -5 15 -4 -8 -6 -14 -1 -2 -17
right_child=1 4 6 5 12 -7 11 -9 -10 -11 -12 -13 13 -15 -16 16 -18
leaf_value=1.3593531233913723 -0.99283544597230733 1.2649488280603687 -0.23843249935740574 2.7788560538639531 0.27863998862457429 0.87317383768572177 -0.84504712364757562 0.23924962220949786 1.3975342834894311 -1.4701351592243941 0.50111653093513353 -0.29715286885398645 -0.26176822134198102 0.065234479048278171 0.69517725429688892 -0.35521598696972251 -0.93876758431051099
leaf_weight=10.000000000000002 50 22 19 17.000000000000004 10.999999999999998 12.999999999999998 19 13.999999999999998 11.999999999999998 29 12.999999999999998 17 11.000000000000002 13.999999999999998 9.9999999999999982 15.999999999999998 18
leaf_count=10 50 22 19 17 11 13 19 14 12 29 13 17 11 14 10 16 18
internal_value=0.00467591 -0.461235 -0.779504 1.44742 0.524835 1.92905 -0.297177 0.784669 2.32286 -1.06022 0.0712372 -0.613781 0.0329592 -0.0847734 1.11349 -0.890544 -0.696838
internal_weight=315 239 181 76 58 42 68 34 29 113 32 36 36 25 20 84 34
internal_count=315 239 181 76 58 42 68 34 29 113 32 36 36 25 20 84 34
is_linear=0
shrinkage=0.140864


Tree=3
num_leaves=18
num_cat=0
split_feature=9 7 15 9 7 12 7 12 2 2 12 15 3 9 2 7 15
split_gain=8333.09 2843.48 1449.02 864.132 844.481 546.222 415.673 258.884 134.226 117.494 77.2507 53.4375 94.5403 44.5203 43.0495 27.295 25.5813
threshold=0.32273408368219986 10.500000000000002 4.8102739157875769 0.45827002833326497 5.0000000000000009 0.39811491364581703 5.0000000000000009 0.39971332019657585 125.30000000000003 51.750000000000007 0.58731878711444307 5.9922423694882818 187.20000000000002 0.51134263551669468 51.750000000000007 5.0000000000000009 5.7381729200652538
decision_type=2 2 2 2 2 2 2 2 2 2 2 2 2 2 2 2 2
left_child=4 2 5 8 9 6 -2 11 -3 -1 15 12 -4 -5 -6 -7 -15
right_child=1 3 7 13 14 10 -8 -9 -10 -11 -12 -13 -14 16 -16 -17 -18
leaf_value=1.0553156345091914 -0.20948895304228432 1.3600392050042467 -0.32573927677787878 0.24486581834455537 2.2154779935818163 -0.40911404919243805 0.6858775354562775 -1.2367685724584701 0.53273531643198113 0.37183420768156406 -0.70963106940847853 -0.9322965465925207 -0.76198942339258546 0.040592948735715687 1.2522815226629223 -0.074762014344547767 -0.23091738986383531
leaf_weight=17.000000000000004 19 15.000000000000002 21 10.999999999999998 21 11 19 38 9.9999999999999982 10.999999999999998 17 28 31 15.000000000000002 10.999999999999998 10 9.9999999999999982
leaf_count=17 19 15 21 11 21 11 19 38 10 11 17 28 31 15 11 10 10
internal_value=0.00725295 -0.346034 -0.608778 0.482398 1.47611 -0.123825 0.247713 -0.91424 1.08835 0.826702 -0.490973 -0.736844 -0.603314 0.0288624 1.96934 -0.270242 -0.0744326
internal_weight=315 255 194 61 60 76 38 118 25 28 38 80 52 36 32 21 25
internal_count=315 255 194 61 60 76 38 118 25 28 38 80 52 36 32 21 25
is_linear=0
shrinkage=0.140864


Tree=4
num_leaves=17
num_cat=0
split_feature=9 0 7 7 7 16 9 10 15 10 14 7 6 13 2 2
split_gain=6404.18 1771.49 987.003 802.626 738.501 598.415 543.004 245.644 221.606 174.238 170.857 107.778 103.796 65.85 27.2966 14.2571
threshold=0.43546829594613545 360.80000000000007 5.0000000000000009 5.0000000000000009 5.0000000000000009 0.01579907216673113 0.63954171562867235 0.39944524677349108 4.8471733838247237 0.3999394685657508 0.44377390868973282 10.500000000000002 782.00000000000011 1837.7000000000003 125.30000000000003 109.00000000000001
decision_type=2 2 2 2 2 2 2 2 2 2 2 2 2 2 2 2
left_child=1 3 9 12 10 -5 7 8 -4 -2 -3 13 -1 -10 -7 -13
right_child=2 4 6 5 -6 14 -8 -9 11 -11 -12 15 -14 -15 -16 -17
leaf_value=-0.45225922305188221 -0.77523957482210304 0.21720446053926559 0.44398024525749524 -0.0038526020952608761 1.7571011998642332 1.2835195239856998 -0.8344808462505845 -0.53450916947120009 -0.072329640582419655 -1.4017754700458975 0.96141221260506293 0.14410357029713866 0.046447006412496071 -0.5617290224224456 0.66084198408970152 -0.036900617552576127
leaf_weight=19 55 11.000000000000002 17 15.999999999999998 32 14.000000000000002 24 18 11.000000000000002 14.999999999999998 18 15.000000000000002 12.999999999999998 10.999999999999998 9.9999999999999982 15.999999999999998
leaf_count=19 55 11 17 16 32 14 24 18 11 15 18 15 13 11 10 16
internal_value=0.0084856 0.74609 -0.532291 0.26109 1.29413 0.669572 -0.265296 -0.0960568 0.0265244 -0.941634 0.709566 -0.116629 -0.256537 -0.342745 1.08952 0.0523488
internal_weight=315 133 182 72 61 40 112 88 70 70 29 53 32 22 24 31
internal_count=315 133 182 72 61 40 112 88 70 70 29 53 32 22 24 31
is_linear=0
shrinkage=0.140864


Tree=5
num_leaves=20
num_cat=0
split_feature=8 17 0 15 17 8 12 0 8 16 2 2 4 4 17 13 12 4 12
split_gain=4512.19 1565 684.547 674.428 436.991 396.829 287.008 212.707 185.85 151.44 93.6501 93.0999 66.7084 63.4418 58.8841 108.637 54.6635 39.0079 38.1411
threshold=486.4500000000001 2.3937458713910233 360.80000000000007 4.8471733838247237 1.7328679513998633 350.55000000000007 0.31413717209652364 190.50000000000003 397.05000000000007 0.022728002995137216 51.750000000000007 51.750000000000007 9.1500000000000021 6.8000000000000016 1.7328679513998633 1832.2500000000002 0.58731878711444307 6.8000000000000016 0.40002067397146995
decision_type=2 2 2 2 2 2 2 2 2 2 2 2 2 2 2 2 2 2 2
left_child=1 3 12 6 10 17 8 -5 -1 -7 -4 -6 -2 14 -9 -16 18 -3 -8
right_child=2 5 4 7 11 9 16 13 -10 -11 -12 -13 -14 -15 15 -17 -18 -19 -20
leaf_value=-0.14297077084721502 -0.019703212157886178 -0.16694541988763567 0.90542954096815909 -1.0186185877261982 1.8198663870300238 0.30454949599500919 -0.37300639189692503 -0.78211855024459864 0.53461909441688271 1.0057823462560733 0.27881314858815726 0.91251801074523153 0.45065143736816887 -0.23585351726003156 -0.13344062910180238 -0.63127942137601489 -0.60953340837822922 0.13223335186961233 -0.0057704514647374744
leaf_weight=15.000000000000002 10.000000000000002 16.000000000000004 15.000000000000002 32 19.000000000000004 14.000000000000002 12.000000000000002 30 13.999999999999998 13.999999999999998 9.9999999999999982 9.9999999999999982 11.999999999999998 13.999999999999998 14.999999999999998 25 12.999999999999998 14.999999999999998 9.9999999999999982
leaf_count=15 10 16 15 32 19 14 12 30 14 14 10 10 12 14 15 25 13 15 10
internal_value=0.00791665 -0.293299 0.940761 -0.498649 1.20459 0.32868 -0.125778 -0.698959 0.194665 0.69595 0.691764 1.57949 0.249468 -0.557999 -0.614324 -0.45936 -0.389108 -0.021455 -0.220973
internal_weight=315 239 76 180 54 59 64 116 29 28 25 29 22 84 70 40 35 31 22
internal_count=315 239 76 180 54 59 64 116 29 28 25 29 22 84 70 40 35 31 22
is_linear=0
shrinkage=0.140864


Tree=6
num_leaves=22
num_cat=0
split_feature=9 7 9 9 7 12 0 0 15 0 7 13 0 9 5 7 19 3 0 0 13
split_gain=3907.31 1284.29 603.001 400.591 399.068 256.081 195.482 161.622 113.224 98.961 79.0206 118.175 76.1985 71.3596 60.0601 89.4046 36.8221 32.7028 36.0904 2.98128 0.24962
threshold=0.32273408368219986 10.500000000000002 0.48155844155844157 0.43789132379248669 5.0000000000000009 0.34336280770700295 255.25000000000003 387.80000000000007 3.4445833333333336 213.60000000000002 5.0000000000000009 1802.3500000000001 387.80000000000007 0.59584203598725194 1006.35 5.0000000000000009 1.0000000180025095e-35 192.45000000000002 207.10000000000002 212.55000000000004 1849.7500000000002
decision_type=2 2 2 2 2 2 2 2 2 2 2 2 2 2 2 2 2 2 2 2 2
left_child=4 2 5 9 7 8 13 -1 -2 -3 -8 -12 -6 16 15 -7 -4 18 -5 -18 -13
right_child=1 3 6 17 12 14 10 -9 -10 -11 11 20 -14 -15 -16 -17 19 -19 -20 -21 -22
leaf_value=0.16405163825108127 0.5901047613543583 0.33453581056659376 -0.32267536214788167 -0.090238209223068883 0.89850939068209834 -0.39993576271614528 -0.56653495028307477 0.85913973197191351 0.023135821219861619 1.0109969235912746 0.18845034426255156 -0.23458942997904461 1.6294098942334039 -0.93141081204523946 -0.48110584805593243 0.13054540178060556 -0.76617104480938159 -0.16574590404498332 0.2235626509080767 -0.46277278053190068 -0.44553024893780518
leaf_weight=13.000000000000002 10.000000000000002 10.000000000000002 14.999999999999998 10.000000000000002 14.999999999999998 10 18 14.999999999999998 18 12.999999999999998 10.000000000000002 10.000000000000002 17 29 17 12 20 9.9999999999999982 18 14.999999999999998 9.9999999999999982
leaf_count=13 10 10 15 10 15 10 18 15 18 13 10 10 17 29 17 12 20 10 18 15 10
internal_value=0.00850472 -0.233384 -0.409994 0.323248 1.01434 -0.0646462 -0.588408 0.56712 0.250387 0.763987 -0.34244 -0.182284 1.35369 -0.726425 -0.293014 -0.120551 -0.578656 0.0330319 0.111248 -0.666142 -0.370022
internal_weight=315 255 194 61 60 67 127 28 28 23 48 30 32 79 39 22 50 38 28 35 20
internal_count=315 255 194 61 60 67 127 28 28 23 48 30 32 79 39 22 50 38 28 35 20
is_linear=0
shrinkage=0.140864


Tree=7
num_leaves=21
num_cat=0
split_feature=8 7 3 0 8 2 12 8 1 4 7 6 3 0 7 12 12 4 7 14
split_gain=2592.81 897.702 538.606 473.298 413.189 306.995 276.519 240.927 150.993 94.4754 83.3829 82.9167 64.0601 55.4206 48.2773 44.3316 29.5493 27.9098 25.9551 2.09644
threshold=486.4500000000001 10.500000000000002 199.00000000000003 387.80000000000007 385.80000000000001 51.750000000000007 0.34336280770700295 350.55000000000007 34.050000000000004 7.8500000000000005 5.0000000000000009 757.85000000000014 160.65000000000001 196.65000000000001 5.0000000000000009 0.58731878711444307 0.40002067397146995 6.8000000000000016 5.0000000000000009 0.42424572275648653
decision_type=2 2 2 2 2 2 2 2 2 2 2 2 2 2 2 2 2 2 2 2
left_child=1 4 3 10 8 -5 14 17 11 -9 -2 -1 -13 18 -6 16 -8 -3 -10 -14
right_child=2 7 -4 5 6 -7 15 9 13 -11 -12 12 19 -15 -16 -17 -18 -19 -20 -21
leaf_value=-0.011100756967167669 0.13506553810424687 -0.14447982468577969 -0.13116186901326982 1.51502065122191 0.099646645826783883 0.46518677674587794 -0.2918777528468981 0.17054020661716154 -1.0773322370884835 0.73303127276060753 0.62346316269023805 -0.089516632607726396 -0.33427756680701931 -0.3686297921735972 0.53702991552599233 -0.48599949497186995 0.029002501311579897 0.10851029933155519 -0.5720677618464467 -0.52912281674662343
leaf_weight=9.9999999999999982 13.000000000000002 16.000000000000004 11.999999999999998 23 11 9.9999999999999982 10.000000000000002 11.000000000000002 13 17 18 9.9999999999999982 15.999999999999998 9.9999999999999982 10 12.999999999999998 9.9999999999999982 14.999999999999998 13 54
leaf_count=10 13 16 12 23 11 10 10 11 13 17 18 10 16 10 10 13 10 15 13 54
internal_value=0.00822659 -0.220084 0.715379 0.87406 -0.375643 1.23838 -0.0463957 0.250842 -0.513771 0.537049 0.43855 -0.400781 -0.447623 -0.762769 0.335686 -0.295611 -0.14008 -0.0214135 -0.879303 -0.494642
internal_weight=315 239 76 64 180 33 54 59 126 28 31 90 80 36 21 33 20 31 26 70
internal_count=315 239 76 64 180 33 54 59 126 28 31 90 80 36 21 33 20 31 26 70
is_linear=0
shrinkage=0.140864


Tree=8
num_leaves=23
num_cat=0
split_feature=9 7 0 7 9 15 9 0 2 2 0 7 5 14 9 0 7 9 15 14 0 2
split_gain=2317.98 760.309 355.007 281.775 240.723 163.796 113.232 79.1307 73.0583 71.3506 77.2018 57.4434 52.3717 37.8992 48.443 39.0974 35.3661 32.5471 24.7133 13.6997 11.1609 5.12069
threshold=0.32273408368219986 10.500000000000002 255.25000000000003 5.0000000000000009 0.43789132379248669 3.4335584291187744 0.56806771497379238 387.80000000000007 125.30000000000003 51.750000000000007 387.80000000000007 5.0000000000000009 1055.8000000000002 0.42426439572143576 0.43789132379248669 207.10000000000002 5.0000000000000009 0.48155844155844157 5.9032963042085038 0.42426439572143576 368.30000000000007 97.050000000000026
decision_type=2 2 2 2 2 2 2 2 2 2 2 2 2 2 2 2 2 2 2 2 2 2
left_child=3 2 6 7 8 -4 13 -1 -3 10 -5 17 20 15 -15 -2 -8 -7 19 -6 -13 -16
right_child=1 4 5 9 18 11 16 -9 -10 -11 -12 12 -14 14 21 -17 -18 -19 -20 -21 -22 -23
leaf_value=0.12733758816455293 -0.66682995410079793 0.79938511493587172 0.3361466696549838 0.72027305271647468 -0.028312195383027317 -0.11917162670152594 -0.83535778499720037 0.61811791219700196 0.23597360484934385 0.59547600868292938 1.5471523708801997 -0.015390849481701278 -0.26445174909911939 -0.045430303012530482 -0.21098750696029725 -0.26859310253203994 -0.4766324221452295 -0.43506423808116046 -0.13865404987377203 0.16798008221941854 0.16154919803485326 -0.44733254726080518
leaf_weight=13.000000000000002 12.000000000000002 13.000000000000002 12.999999999999998 10.000000000000002 10.000000000000002 13.000000000000002 19 14.999999999999998 9.9999999999999982 10.999999999999998 10.999999999999998 16.000000000000004 13.999999999999998 17 10.000000000000002 14.999999999999998 25 18 10.999999999999998 17 9.9999999999999982 11.999999999999998
leaf_count=13 12 13 13 10 10 13 19 15 10 11 11 16 14 17 10 15 25 18 11 17 10 12
internal_value=0.00732881 -0.17895 -0.314864 0.782072 0.24923 -0.0931378 -0.479581 0.413077 0.590897 1.06472 1.24264 -0.178685 -0.0608869 -0.345058 -0.235333 -0.477544 -0.659053 -0.317692 0.0240507 0.0964259 0.0570033 -0.365723
internal_weight=315 255 194 60 61 84 110 28 23 32 21 71 40 66 39 27 44 31 38 27 26 22
internal_count=315 255 194 60 61 84 110 28 23 32 21 71 40 66 39 27 44 31 38 27 26 22
is_linear=0
shrinkage=0.140864


Tree=9
num_leaves=22
num_cat=0
split_feature=9 7 0 7 9 6 7 9 3 2 0 2 0 0 3 7 3 3 0 7 5
split_gain=1784.13 581.463 272.874 219.427 185.768 125.777 126.204 87.5781 66.4543 64.7848 56.6802 54.8854 58.3498 39.5547 32.6337 36.1208 28.1243 22.5748 24.6777 5.82288 4.12076
threshold=0.32273408368219986 10.500000000000002 275.05000000000007 5.0000000000000009 0.43789132379248669 758.95000000000016 5.0000000000000009 0.59584203598725194 185.35000000000002 51.750000000000007 213.60000000000002 51.750000000000007 387.80000000000007 169.60000000000005 159.25000000000003 5.0000000000000009 188.75000000000003 192.45000000000002 207.10000000000002 5.0000000000000009 1006.1000000000001
decision_type=2 2 2 2 2 2 2 2 2 2 2 2 2 2 2 2 2 2 2 2 2
left_child=3 2 7 9 10 6 -4 13 -7 -1 -3 12 -5 -2 -15 20 -8 18 -6 -9 -16
right_child=1 4 5 11 17 8 16 19 -10 -11 -12 -13 -14 14 15 -17 -18 -19 -20 -21 -22
leaf_value=0.5215322759872939 -0.51043026918694001 0.20559246931747552 -0.23124688070685678 0.63416951706145419 -0.0797680689018338 0.060345275458684254 0.13656002816300086 -0.79238523705117703 -0.30936616169967518 0.072064805252234146 0.70209695347274781 0.52329788918007059 1.3596208220525576 -0.038035472939159432 -0.49032274957179889 -0.13006822609819851 0.48126091264382614 -0.14424886522758168 0.17900404731593667 -0.46806996318936928 -0.28463636350758925
leaf_weight=17.000000000000004 19 10.000000000000002 10.999999999999998 10.000000000000002 10.000000000000002 11.999999999999998 12.000000000000002 11.000000000000002 36 10.999999999999998 12.999999999999998 10.999999999999998 10.999999999999998 11.999999999999998 13.999999999999998 19 9.9999999999999982 9.9999999999999982 18 19 19
leaf_count=17 19 10 11 10 10 12 12 11 36 11 13 11 11 12 14 19 10 10 18 19 19
internal_value=0.00729072 -0.156122 -0.274995 0.687001 0.218269 -0.0745046 0.132163 -0.414916 -0.21716 0.361396 0.518419 0.936418 1.09288 -0.326426 -0.25874 -0.305863 0.319524 0.0203423 0.085793 -0.626231 -0.393892
internal_weight=315 255 194 60 61 81 33 113 48 28 23 32 21 83 64 52 22 38 28 30 33
internal_count=315 255 194 60 61 81 33 113 48 28 23 32 21 83 64 52 22 38 28 30 33
is_linear=0
shrinkage=0.140864


Tree=10
num_leaves=21
num_cat=0
split_feature=9 17 0 17 8 0 9 0 17 13 4 10 2 0 10 0 5 6 5 13
split_gain=1371.44 443.415 215.027 171.257 166.069 120.889 93.1292 63.0326 58.4848 77.9191 50.1098 47.9123 42.1724 44.0137 41.4637 19.8972 13.5358 8.12682 5.76561 0.791811
threshold=0.32273408368219986 2.3937458713910233 387.80000000000007 1.7328679513998633 374.20000000000005 169.60000000000005 0.48155844155844157 387.80000000000007 1.7328679513998633 1799.0500000000004 6.8000000000000016 0.3999394685657508 51.750000000000007 387.80000000000007 0.037277645884943582 247.95000000000002 992.90000000000009 783.50000000000011 957.55000000000007 1863.8500000000001
decision_type=2 2 2 2 2 2 2 2 2 2 2 2 2 2 2 2 2 2 2 2
left_child=3 2 5 7 10 -2 11 -1 16 -10 15 14 13 -5 -7 -3 18 -11 -8 -19
right_child=1 4 -4 12 -6 6 8 -9 9 17 -12 -13 -14 -15 -16 -17 -18 19 -20 -21
leaf_value=0.068375927342821455 -0.54848767491276695 -0.23142147875331354 0.19478038655124219 0.55835902597068376 0.49462944717534157 -0.081782919235878146 -0.2977144301790548 0.49727613305328017 0.063995864769309213 -0.15900242721448235 0.18209725763200232 -0.22551406266788382 0.45986853872580774 1.1948200867954539 0.25095857555255896 0.022217134041416047 -0.28946982895399487 -0.21961965146346163 -0.58362022197685681 -0.4172556050151619
leaf_weight=13.000000000000002 29 12.000000000000002 19 10.000000000000002 21 16.000000000000004 10.000000000000002 14.999999999999998 15.999999999999998 11.999999999999998 18 18 10.999999999999998 10.999999999999998 10.999999999999998 9.9999999999999982 24 10.000000000000002 15.999999999999998 12.999999999999998
leaf_count=13 29 12 19 10 21 16 10 15 16 12 18 18 11 11 11 10 24 10 16 13
internal_value=0.00735112 -0.135908 -0.23973 0.603297 0.190975 -0.288656 -0.230737 0.315714 -0.304963 -0.186728 0.0161431 -0.0578776 0.823614 0.961206 0.0593251 -0.12117 -0.414087 -0.300144 -0.501489 -0.355179
internal_weight=315 255 194 60 61 175 146 28 101 51 40 45 32 21 27 22 50 35 26 23
internal_count=315 255 194 60 61 175 146 28 101 51 40 45 32 21 27 22 50 35 26 23
is_linear=0
shrinkage=0.140864


Tree=11
num_leaves=22
num_cat=0
split_feature=9 7 9 10 12 7 14 9 9 2 5 6 5 3 12 9 3 13 9 16 16
split_gain=1056.11 349.265 257.144 173.329 136.794 133.315 103.703 95.4396 64.1057 50.8341 46.0629 39.8895 37.3013 31.1504 26.2829 23.507 20.6075 22.9213 4.27251 6.17811 15.2428
threshold=0.32273408368219986 5.0000000000000009 0.48370503841708035 0.3999394685657508 0.39994821023864513 5.0000000000000009 0.42426439572143576 0.7367703913248469 0.45827002833326497 51.750000000000007 1054.3000000000002 782.00000000000011 942.35000000000014 185.35000000000002 0.39998117824204787 0.40511829250122394 189.15000000000003 1773.9000000000003 0.58152092395380239 0.023320695012420654 0.01579907216673113
decision_type=2 2 2 2 2 2 2 2 2 2 2 2 2 2 2 2 2 2 2 2 2
left_child=5 3 4 8 15 9 -6 10 11 -1 14 -2 -7 -12 16 -3 -4 -18 19 20 -10
right_child=1 2 7 -5 6 12 -8 -9 18 -11 13 -13 -14 -15 -16 -17 17 -19 -20 -21 -22
leaf_value=0.41737746991952757 -0.18091453887605438 0.62857551493331065 0.19725012712980203 -0.68647886686992432 -0.21973245881159972 0.50282075199908183 0.28309239586690427 -0.48539393111177265 -0.27097995573484857 0.026685144606360678 -0.061745664129075763 0.12185744081224849 0.9454798648845143 -0.35366317666894836 -0.14280221496186049 0.2972018324658337 0.14303556647233512 -0.11312430444538193 -0.43383456761238487 -0.38134089714260938 -0.046183274046595876
leaf_weight=17.000000000000004 19 11.000000000000002 13.999999999999998 19 15.000000000000002 19 13.999999999999998 10.999999999999998 21.000000000000004 10.999999999999998 17.000000000000004 12.999999999999998 12.999999999999998 12.999999999999998 13.999999999999998 18 10.000000000000002 14.999999999999998 10.999999999999998 9.9999999999999982 9.9999999999999982
leaf_count=17 19 11 14 19 15 19 14 11 21 11 17 13 13 13 14 18 10 15 11 10 10
internal_value=0.00705597 -0.118645 0.0172716 -0.316541 0.246583 0.530035 0.0238487 -0.125694 -0.219793 0.276231 -0.0682697 -0.0566073 0.724439 -0.202443 0.0109532 0.453532 0.0711108 -0.00623495 -0.31415 -0.264213 -0.206331
internal_weight=315 255 152 103 58 60 29 94 84 28 83 32 32 30 53 29 39 25 52 41 31
internal_count=315 255 152 103 58 60 29 94 84 28 83 32 32 30 53 29 39 25 52 41 31
is_linear=0
shrinkage=0.140864


Tree=12
num_leaves=24
num_cat=0
split_feature=9 7 9 10 0 2 12 14 9 13 4 0 13 16 0 4 9 15 13 6 6 15 6
split_gain=807.209 266.83 197.655 130.625 108.457 144.607 104.973 79.3446 73.7655 55.9306 52.855 47.0906 30.5796 32.3104 30.7083 29.1953 18.4974 7.50704 10.1692 6.34677 7.91023 10.8938 5.43304
threshold=0.32273408368219986 5.0000000000000009 0.48370503841708035 0.3999394685657508 368.30000000000007 51.750000000000007 0.39994821023864513 0.42426439572143576 0.7367703913248469 1738.6000000000001 6.4500000000000011 216.55000000000004 1786.6000000000001 0.013434103820429913 223.70000000000002 8.1500000000000004 0.40511829250122394 6.237543252595156 1834.8500000000001 757.85000000000014 803.85000000000014 5.456119806576063 803.85000000000014
decision_type=2 2 2 2 2 2 2 2 2 2 2 2 2 2 2 2 2 2 2 2 2 2 2
left_child=4 3 6 10 -1 9 16 -8 12 -6 19 15 14 17 -4 -12 -3 18 -14 -2 -21 -22 -15
right_child=1 2 8 -5 5 -7 7 -9 -10 -11 11 -13 13 22 -16 -17 -18 -19 -20 20 21 -23 -24
leaf_value=0.12729178984935299 -0.15537869062987342 0.55238536674721372 -0.11589970180729368 -0.59807700123266461 1.0049123219617853 0.23144971914844462 -0.19206929176031265 0.24772103119976283 -0.42655894464666289 0.45943956407816122 -0.016231225765969803 0.11156805778792254 -0.10743323004863053 -0.042438385011981765 0.17757822849722968 -0.33675043483062628 0.25911102112996337 -0.071590686172531434 -0.31370454325760727 -0.44189569367902137 -0.095259091558490647 -0.32281461202891459 0.092080412182706281
leaf_weight=15.999999999999998 11.999999999999998 11.000000000000002 10.000000000000002 19 13.000000000000002 18 15.000000000000002 13.999999999999998 10.999999999999998 12.999999999999998 11.000000000000002 15.999999999999998 12.000000000000002 10.000000000000002 15.999999999999998 10.999999999999998 18 10.999999999999998 13.999999999999998 11.999999999999998 10.000000000000002 11.999999999999998 9.9999999999999982
leaf_count=16 12 11 10 19 13 18 15 14 11 13 11 16 12 10 16 11 18 11 14 12 10 12 10
internal_value=0.0061489 -0.103727 0.0150362 -0.276703 0.463383 0.57487 0.216114 0.0207951 -0.110265 0.78084 -0.192549 -0.0635511 -0.0597107 -0.11661 0.0628464 -0.191667 0.397412 -0.191826 -0.233172 -0.291797 -0.32851 -0.236222 0.024734
internal_weight=315 255 152 103 60 44 58 29 94 26 84 38 83 57 26 22 29 37 26 46 34 22 20
internal_count=315 255 152 103 60 44 58 29 94 26 84 38 83 57 26 22 29 37 26 46 34 22 20
is_linear=0
shrinkage=0.140864


Tree=13
num_leaves=23
num_cat=0
split_feature=0 16 17 17 3 2 13 9 5 13 0 14 8 6 8 3 2 16 13 15 5 5
split_gain=635.549 253.771 135.325 132.634 116.068 92.3465 102.498 82.2372 68.7235 64.2667 42.571 31.4165 69.5167 29.1624 27.5134 24.2647 23.1566 17.1912 9.56028 9.25617 6.99856 5.41498
threshold=386.00000000000006 0.015364567954493818 1.7328679513998633 1.7328679513998633 191.40000000000003 51.750000000000007 1738.6000000000001 0.43789132379248669 978.20000000000016 1724.8000000000004 247.95000000000002 0.4242669487835557 315.80000000000007 782.00000000000011 370.80000000000001 159.45000000000002 99.350000000000009 0.023320695012420654 1662.5000000000002 5.1536641445873332 1042.1000000000001 1055.8000000000002
decision_type=2 2 2 2 2 2 2 2 2 2 2 2 2 2 2 2 2 2 2 2 2 2
left_child=1 2 8 14 5 6 -2 16 -1 18 11 -11 -13 19 17 -16 -5 -3 -4 -12 -9 -15
right_child=4 3 9 7 -6 -7 -8 20 -10 10 13 12 -14 21 15 -17 -18 -19 -20 -21 -22 -23
leaf_value=-0.48860960600477804 0.94349864310787723 -0.045900701126236017 0.18490679181719374 0.52486731439901524 0.076585520978109181 0.22383324424439233 0.32844047457786762 0.10530851442109773 -0.11233328975733495 -0.46651052557144068 -0.041571359738583891 -0.37476384126625323 0.086165861630413315 -0.086144696886829658 -0.12213899160707747 0.12982196893438061 0.22234849537508122 -0.2866017556805861 0 0.12765132576634833 -0.036415612205268344 -0.25177916232863667
leaf_weight=37 14.000000000000002 12.000000000000002 11.000000000000002 13.000000000000002 15.999999999999998 15.999999999999998 12.999999999999998 11.000000000000002 14.999999999999998 10.999999999999998 11.000000000000002 12.000000000000002 10.999999999999998 12.000000000000002 12.000000000000002 14.999999999999998 15.999999999999998 12.999999999999998 9.9999999999999982 10.999999999999998 12.999999999999998 9.9999999999999982
leaf_count=37 14 12 11 13 16 16 13 11 15 11 11 12 11 12 12 15 16 13 10 11 13 10
internal_value=0.00520186 -0.0912948 -0.207361 0.0758633 0.415052 0.531896 0.687665 0.229404 -0.388251 -0.106701 -0.165121 -0.280233 -0.16212 -0.0677098 -0.0821901 0.0156061 0.382013 -0.183539 0.1042 0.0443266 0.0295421 -0.17661
internal_weight=315 256 151 105 59 43 27 53 52 99 78 34 23 44 52 27 29 25 21 22 24 22
internal_count=315 256 151 105 59 43 27 53 52 99 78 34 23 44 52 27 29 25 21 22 24 22
is_linear=0
shrinkage=0.140864


Tree=14
num_leaves=22
num_cat=0
split_feature=0 4 7 7 7 8 14 13 3 14 15 11 3 1 6 13 9 13 3 14 8
split_gain=486.081 254.838 108.714 105.057 98.1189 66.5201 47.2958 45.0551 52.9802 44.1977 34.0388 27.3057 29.0047 24.8514 23.7612 18.3898 15.6407 12.9572 8.98586 8.62258 16.7649
threshold=386.00000000000006 6.4500000000000011 5.0000000000000009 5.0000000000000009 5.0000000000000009 350.55000000000007 0.42455351094255933 1786.6000000000001 185.85000000000002 0.44377390868973282 3.4335584291187744 0.34009997850050366 159.45000000000002 14.300000000000002 736.65000000000009 1775.6000000000001 0.7367703913248469 1836.2 195.35000000000002 0.43493459928152256 339.10000000000008
decision_type=2 2 2 2 2 2 2 2 2 2 2 2 2 2 2 2 2 2 2 2 2
left_child=1 4 11 9 13 -4 -7 8 -6 -2 -5 12 -3 17 -10 -8 19 -1 -16 20 -9
right_child=3 2 5 10 7 6 15 16 14 -11 -12 -13 -14 -15 18 -17 -18 -19 -20 -21 -22
leaf_value=-0.29003077086918366 -0.080762890615608873 -0.10785915842041785 0.0070457248749861501 0.64068704667107745 -0.20352784585444716 0.59992719425780028 0.05030230320278474 -0.066043644096278428 0.26436929661364905 0.27152470184457284 0.25793003489551164 -0.18289338647311945 0.15422876344223693 -0.44886602937885467 0.097100806307167553 0.31857252017322762 -0.33194355386254304 -0.080160757516446385 -0.069490461886866667 -0.049780946613499806 -0.29327049996381649
leaf_weight=22 10.000000000000002 14.000000000000002 15.999999999999998 21 14.999999999999998 9.9999999999999982 10.000000000000002 15.000000000000002 9.9999999999999982 17 10.999999999999998 17 15.999999999999998 24 11.000000000000002 11.999999999999998 10.999999999999998 10.999999999999998 10.999999999999998 18 12.999999999999998
leaf_count=22 10 14 16 21 15 10 10 15 10 17 11 17 16 24 11 12 11 11 11 18 13
internal_value=0.00496125 -0.0794127 0.102039 0.363406 -0.186709 0.247409 0.359507 -0.101703 0.000124704 0.142524 0.531044 -0.0490955 0.0312794 -0.333229 0.102659 0.211489 -0.183909 -0.229099 0.0128994 -0.136474 -0.184337
internal_weight=315 256 95 59 161 48 32 104 47 27 32 47 30 57 32 22 57 33 22 46 28
internal_count=315 256 95 59 161 48 32 104 47 27 32 47 30 57 32 22 57 33 22 46 28
is_linear=0
shrinkage=0.140864


Tree=15
num_leaves=23
num_cat=0
split_feature=9 7 8 3 7 4 5 10 9 0 12 13 0 6 14 3 5 0 0 4 15 5
split_gain=377.204 121.44 90.3851 77.2465 74.683 69.1692 40.8515 38.3761 37.1598 31.3202 29.1918 28.1078 25.7284 24.5102 22.6107 18.0588 17.3521 11.4716 8.04947 9.54421 4.67281 4.30883
threshold=0.32273408368219986 5.0000000000000009 397.05000000000007 192.45000000000002 5.0000000000000009 6.8000000000000016 942.35000000000014 0.29166047916704235 0.43789132379248669 219.85000000000005 0.38362811010977765 1787.6000000000001 387.80000000000007 782.00000000000011 0.43515498864050933 191.40000000000003 1090.7000000000003 349.50000000000006 190.50000000000003 6.8000000000000016 3.4978718213768869 972.20000000000016
decision_type=2 2 2 2 2 2 2 2 2 2 2 2 2 2 2 2 2 2 2 2 2 2
left_child=4 3 5 8 12 9 -6 -4 13 14 -7 17 -1 -2 -3 16 -13 -11 -10 21 -9 -20
right_child=1 2 7 -5 6 10 -8 20 18 11 -12 15 -14 -15 -16 -17 -18 -19 19 -21 -22 -23
leaf_value=-0.0099018976203500298 -0.088464191964331806 -0.3794300469560698 0.34159849231492628 -0.41303848157113116 0.28044908839294153 0.2504270706810981 0.6547068644243329 0.11299685784872805 -0.28389072690143879 0.17327775517760702 -0.033430676440825459 0.063223524230508019 0.24953707851279233 0.16161238905414219 -0.10464415036771914 -0.22776811854171264 -0.15723974117353343 -0.024709884123617895 -0.23933347748510705 -0.019299226991903173 -0.012420983882398472 -0.095936743209745448
leaf_weight=13.000000000000002 18.000000000000004 11.000000000000002 17 22 19 16.000000000000004 12.999999999999998 10.000000000000002 13.999999999999998 10.000000000000002 10.999999999999998 14.000000000000002 14.999999999999998 10.999999999999998 15.999999999999998 15.999999999999998 10.999999999999998 9.9999999999999982 14.000000000000002 10.999999999999998 9.9999999999999982 12.999999999999998
leaf_count=13 18 11 17 22 19 16 13 10 14 10 11 14 15 11 16 16 11 10 14 11 10 13
internal_value=0.0045633 -0.0705022 0.00953111 -0.187202 0.317164 -0.0521451 0.460396 0.196 -0.117729 -0.112669 0.138272 -0.0527537 0.134154 0.00876052 -0.234772 -0.118333 -0.0360679 0.0782468 -0.18708 -0.139125 0.0522861 -0.182117
internal_weight=315 255 152 103 60 115 32 37 81 88 27 61 28 29 27 41 25 20 52 38 20 27
internal_count=315 255 152 103 60 115 32 37 81 88 27 61 28 29 27 41 25 20 52 38 20 27
is_linear=0
shrinkage=0.140864


Tree=16
num_leaves=25
num_cat=0
split_feature=0 4 3 2 13 8 7 7 4 14 5 13 12 13 13 16 5 5 0 9 8 9 14 9
split_gain=299.975 150.532 67.8351 70.0727 81.497 64.0578 55.9767 52.4209 40.7119 38.8462 31.48 28.3101 23.5733 16.4182 15.6147 13.4014 8.18446 8.85268 16.1254 5.21239 13.7094 3.44774 19.4039 3.07895
threshold=386.00000000000006 6.4500000000000011 191.40000000000003 51.750000000000007 1738.6000000000001 350.55000000000007 5.0000000000000009 5.0000000000000009 8.1500000000000004 0.42455351094255933 978.20000000000016 1827.0000000000002 0.59584272785236247 1829.4500000000003 1775.6000000000001 0.021471666467996298 969.00000000000011 978.20000000000016 288.50000000000006 0.57627800060904666 306.75000000000006 0.7367703913248469 0.4242669487835557 0.57627800060904666
decision_type=2 2 2 2 2 2 2 2 2 2 2 2 2 2 2 2 2 2 2 2 2 2 2 2
left_child=1 6 3 4 -2 8 10 13 -3 -9 19 12 16 15 -11 -7 23 -18 -19 -1 -21 22 -13 -8
right_child=2 5 -4 -5 -6 7 11 9 -10 14 -12 21 -14 -15 -16 -17 17 18 -20 20 -22 -23 -24 -25
leaf_value=-0.41912491505060318 0.7301354447592393 0.072571528364941934 0.029924669543112115 0.11881429622302581 0.20631866444236133 0.054744002032827685 0.13934649721327402 0.49401278073181454 -0.22959116637804805 0.010088237398835399 -0.092265514114743818 -0.22815462754779944 -0.16902401147237248 0.15788378570846057 0.248292265976158 -0.15331629172519282 -0.12091857373541082 -0.075486674669549919 0.14852439934197267 -0.34000236531225464 -0.097626650653740113 -0.25829799536589082 0.0023580102870054253 0.021573592115503255
leaf_weight=14.999999999999998 14.000000000000002 15.999999999999998 15.999999999999998 15.999999999999998 12.999999999999998 11.000000000000005 10.000000000000002 9.9999999999999982 15.999999999999998 10.000000000000002 19 15.000000000000002 14.999999999999998 9.9999999999999982 11.999999999999998 9.9999999999999982 9.9999999999999982 12.000000000000002 9.9999999999999982 12.000000000000002 10.999999999999998 9.9999999999999982 11.999999999999998 9.9999999999999982
leaf_count=15 14 16 16 16 13 11 10 10 16 10 19 15 15 10 12 10 10 12 10 12 11 10 12 10
internal_value=0.00395461 -0.0622963 0.285569 0.374681 0.507944 0.0771023 -0.144777 0.15829 -0.0812882 0.279864 -0.255598 -0.080317 -0.0234013 0.0229885 0.150835 -0.0465521 0.021959 -0.0211695 0.0278977 -0.328307 -0.241314 -0.176374 -0.130303 0.0891672
internal_weight=315 256 59 43 27 95 161 63 32 32 57 104 67 31 22 21 52 32 22 38 23 37 27 20
internal_count=315 256 59 43 27 95 161 63 32 32 57 104 67 31 22 21 52 32 22 38 23 37 27 20
is_linear=0
shrinkage=0.140864


Tree=17
num_leaves=24
num_cat=0
split_feature=0 4 17 17 17 9 14 3 6 5 1 2 15 12 3 12 15 6 9 4 3 9 9
split_gain=229.824 116.282 62.1483 52.4253 42.9699 39.9738 26.9317 24.4148 45.0744 24.2115 20.6032 19.8012 47.0179 16.7742 20.9702 12.8098 12.2117 12.0123 8.64694 8.01685 4.98744 3.60821 10.4095
threshold=386.00000000000006 6.4500000000000011 1.7328679513998633 1.7328679513998633 1.7328679513998633 0.4022613386531399 0.44377390868973282 185.85000000000002 783.50000000000011 978.20000000000016 34.050000000000004 51.750000000000007 3.2758953714541499 0.35662364775099648 159.45000000000002 0.38362811010977765 6.1016148020629446 736.65000000000009 0.60797604547300055 9.5500000000000025 192.45000000000002 0.57627800060904666 0.63954171562867235
decision_type=2 2 2 2 2 2 2 2 2 2 2 2 2 2 2 2 2 2 2 2 2 2 2
left_child=1 4 6 13 9 -5 -2 10 17 21 16 12 -4 14 -3 -7 -6 -9 -10 -15 -19 -1 -23
right_child=2 3 11 5 7 15 -8 8 18 -11 -12 -13 -14 19 -16 -17 -18 20 -20 -21 -22 22 -24
leaf_value=-0.36635927994831674 -0.08856124656695602 -0.089764353763127261 0.66657137788684517 0.31935975938535066 0.054255816283536235 0.12585762715118889 0.18415709427886665 0.2162057506031759 -0.038283203068413228 -0.080383949913762034 -0.26032735233071225 0.16346406824065868 0.21157468133621579 -0.019388639575975603 0.16609251194516944 -0.055196529688282495 -0.14447451862496996 0.089840283284954109 -0.19060050617710694 -0.18254722337378132 -0.0342728637751945 -0.08579324478910727 -0.29830560710221021
leaf_weight=14.999999999999998 10.000000000000002 10.000000000000002 10.000000000000002 19 10.000000000000002 18.000000000000004 17 9.9999999999999982 14.999999999999998 19 18 9.9999999999999982 11.999999999999998 12.000000000000002 11.999999999999998 10.999999999999998 10.999999999999998 12.000000000000002 18 12.999999999999998 9.9999999999999982 11.000000000000002 11.999999999999998
leaf_count=15 10 10 10 19 10 18 17 10 15 19 18 10 12 12 12 11 11 12 18 13 10 11 12
internal_value=0.00363749 -0.0543342 0.250149 0.0681424 -0.126841 0.169167 0.0823176 -0.0702859 -0.0154402 -0.223982 -0.155891 0.378568 0.45481 -0.0364981 0.0498427 0.0564632 -0.0509756 0.100112 -0.128206 -0.112461 0.0331446 -0.287797 -0.212021
internal_weight=315 256 59 95 161 48 27 104 65 57 39 32 22 47 22 29 21 32 33 25 22 38 23
internal_count=315 256 59 95 161 48 27 104 65 57 39 32 22 47 22 29 21 32 33 25 22 38 23
is_linear=0
shrinkage=0.140864


Tree=18
num_leaves=23
num_cat=0
split_feature=9 7 2 0 0 15 15 3 16 0 4 9 13 3 13 7 6 4 0 5 0 13
split_gain=177.877 61.1313 48.9964 66.1819 40.4096 38.8141 29.8058 20.9731 25.4655 16.4072 19.073 15.3138 20.0626 33.7244 14.1552 13.6767 10.1193 6.00493 5.92173 3.26767 2.93847 2.60671
threshold=0.32273408368219986 10.500000000000002 51.750000000000007 387.80000000000007 169.60000000000005 4.6737747664510838 3.3936699181117542 165.25000000000003 0.030091507761809796 192.75000000000003 6.8000000000000016 0.48827960532337494 1797.4000000000003 192.45000000000002 1724.8000000000004 5.0000000000000009 843.80000000000007 15.100000000000003 379.75000000000006 1086.1000000000001 322.85000000000008 1773.9000000000003
decision_type=2 2 2 2 2 2 2 2 2 2 2 2 2 2 2 2 2 2 2 2 2 2
left_child=2 4 3 -1 21 -3 -6 8 -8 -7 -11 14 13 -13 -9 -4 19 -5 -16 20 -14 -2
right_child=1 5 15 17 6 9 7 11 -10 10 -12 12 16 -15 18 -17 -18 -19 -20 -21 -22 -23
leaf_value=0.097357887189415418 -0.13836432911114926 0.26405016144925347 -0.06110659753008333 0.59138092216684146 0.10471862927760747 -0.13744076041290301 0.17184948378773415 -0.045540638987042983 -0.10998747780057311 -0.043209251976563688 0.15002119816821757 0.1576249819115034 -0.12806118171068889 -0.13003279222144293 -0.12257018144598632 0.14467768844948661 -0.19531704936579278 0.2893569315219609 -0.30690224255267967 0 -0.028830500344481383 -0.28298013255151727
leaf_weight=18 12.000000000000002 13.999999999999998 11 10.000000000000002 18 9.9999999999999982 12.000000000000002 12.999999999999998 9.9999999999999982 19 18 16.000000000000004 16.000000000000004 12.999999999999998 11.000000000000002 11 19 9.9999999999999982 12.999999999999998 10.999999999999998 12.999999999999998 17
leaf_count=18 12 14 11 10 18 10 12 13 10 19 18 16 16 13 11 11 19 10 13 11 13 17
internal_value=0.00323114 -0.0482712 0.217938 0.311602 -0.0868984 0.0728193 -0.0581497 -0.0794193 0.0431596 0.00733931 0.0521805 -0.101661 -0.0665289 0.0271125 -0.177126 0.042978 -0.11276 0.478544 -0.23853 -0.0657778 -0.0893259 -0.236123
internal_weight=315 255 60 38 194 61 165 147 22 47 37 125 88 29 37 22 59 20 24 40 29 29
internal_count=315 255 60 38 194 61 165 147 22 47 37 125 88 29 37 22 59 20 24 40 29 29
is_linear=0
shrinkage=0.140864


Tree=19
num_leaves=23
num_cat=0
split_feature=0 4 2 9 18 18 13 12 5 14 13 8 13 13 14 0 6 3 6 15 9 11
split_gain=142.455 70.8993 61.6007 61.6883 44.8399 27.6875 23.5779 23.7962 22.3048 25.444 18.7702 17.4196 25.6723 24.4757 16.4728 13.0479 7.47577 6.08106 6.07471 5.03641 6.89664 2.84413
threshold=386.00000000000006 6.8000000000000016 95.950000000000017 0.30044828268178531 2.1889010593167346 2.1889010593167346 1838.7500000000002 0.59584272785236247 978.20000000000016 0.42556309957480537 1738.6000000000001 350.55000000000007 1831.0500000000002 1877.9500000000003 0.44377390868973282 236.75000000000003 799.75000000000011 185.85000000000002 754.15000000000009 4.8736201528446088 0.60797604547300055 0.30828220259033462
decision_type=2 2 2 2 2 2 2 2 2 2 2 2 2 2 2 2 2 2 2 2 2 2
left_child=1 5 3 -3 14 8 7 16 19 -10 -6 13 21 -4 -2 -8 17 -7 -19 -1 -21 -13
right_child=4 2 11 -5 10 6 15 -9 9 -11 -12 12 -14 -15 -16 -17 -18 18 -20 20 -22 -23
leaf_value=-0.32707573564074938 -0.07692972154750348 -0.026041953785163021 -0.23847190569245399 0.39069314915336689 0.38298228888935187 0 -0.27643979169000049 -0.148878792046966 -0.20120494446307186 0.080666814485120558 0.12202327242342428 -0.09272171643720227 0.19625421167365251 0.020875582865824818 0.13562097364268577 -0.072247818783674644 -0.037763686085248424 0.18482134607528938 0.036020355854771903 -0.073374545327864721 -0.23932206368025633 0
leaf_weight=11.999999999999998 10.000000000000002 11.000000000000002 12.000000000000002 15.999999999999998 21 18 10.000000000000002 17 10.000000000000002 11.999999999999998 10.999999999999998 10.000000000000002 11.999999999999998 13.999999999999998 17 19 19 10.000000000000002 13.999999999999998 12.000000000000002 13.999999999999998 13.999999999999998
leaf_count=12 10 11 12 16 21 18 10 17 10 12 11 10 12 14 17 19 19 10 14 12 14 14
internal_value=0.00286483 -0.0427452 0.0577286 0.228215 0.196973 -0.0966088 -0.0515836 -0.00952708 -0.172349 -0.0509961 0.305822 -0.0200972 0.0419045 -0.104786 0.0554057 -0.156096 0.0316995 0.0644359 0.108307 -0.23601 -0.17402 -0.0417172
internal_weight=315 256 89 27 59 167 107 78 60 22 32 62 36 26 27 29 61 42 24 38 26 24
internal_count=315 256 89 27 59 167 107 78 60 22 32 62 36 26 27 29 61 42 24 38 26 24
is_linear=0
shrinkage=0.140864


Tree=20
num_leaves=25
num_cat=0
split_feature=9 7 3 4 9 3 6 16 13 11 8 6 3 5 6 8 3 13 9 15 8 3 0 0
split_gain=111.125 43.4727 42.2363 59.7262 44.7808 38.3908 34.9743 35.0887 23.5715 22.63 20.9938 18.1965 20.4864 17.887 16.1583 13.298 11.7394 16.5717 9.55811 6.6023 13.0796 6.27197 3.90788 1.74353
threshold=0.32273408368219986 5.0000000000000009 149.40000000000003 14.250000000000002 0.30044828268178531 199.00000000000003 669.30000000000007 0.0072682633677298323 1653.4000000000003 0.28233220234470802 390.95000000000005 843.80000000000007 185.85000000000002 949.40000000000009 797.55000000000007 315.80000000000007 200.50000000000003 1802.3500000000001 0.49045477520444802 5.5431780225554048 353.35000000000008 189.15000000000003 247.95000000000002 213.75000000000003
decision_type=2 2 2 2 2 2 2 2 2 2 2 2 2 2 2 2 2 2 2 2 2 2 2 2
left_child=2 5 -1 4 -4 10 -3 11 -6 -9 14 12 22 -12 18 -16 17 -14 -2 20 -11 -17 -8 -22
right_child=1 6 3 -5 8 -7 7 9 -10 19 13 -13 16 -15 15 21 -18 -19 -20 -21 23 -23 -24 -25
leaf_value=0.38309286429186168 -0.29306472928299465 0.23255203301030453 -0.0043227285742889658 -0.18065922852074706 0.12110217920435025 -0.31286058862180161 -0.17815978694708076 0.23479474240250758 0.43901011127957179 -0.13103548775550428 -0.088446330484806268 -0.20883304860385649 0.16012289292791915 0.14395885237086858 -0.13873449938782598 0.085493676359364557 -0.078019912527330759 -0.036433281676157447 -0.084896774752337076 0.10846173474705018 0.0039101542158931886 -0.046794410927165332 -0.062988882693200382 0.089968270270265827
leaf_weight=12.999999999999998 11.000000000000002 10.999999999999998 14.999999999999998 9.9999999999999982 11.000000000000002 13.999999999999998 13.000000000000002 11.999999999999998 10.999999999999998 10.000000000000002 10.000000000000002 12.999999999999998 17.000000000000004 12.999999999999998 19 11 12.999999999999998 13.999999999999998 10.999999999999998 10.999999999999998 10.000000000000002 14 18 9.9999999999999982
leaf_count=13 11 11 15 10 11 14 13 12 11 10 10 13 17 13 19 11 13 14 11 11 10 14 18 10
internal_value=0.00219286 -0.0384819 0.171928 0.100704 0.18275 -0.108331 0.00925725 -0.0105269 0.302999 0.0780768 -0.0701348 -0.0648956 -0.0350738 0.0419571 -0.109954 -0.0552396 0.0259239 0.0727946 -0.205094 0.0232531 -0.0108708 0.0115058 -0.11976 0.0529017
internal_weight=315 255 60 47 37 103 152 141 22 53 89 88 75 23 66 44 44 31 22 41 30 25 31 20
internal_count=315 255 60 47 37 103 152 141 22 53 89 88 75 23 66 44 44 31 22 41 30 25 31 20
is_linear=0
shrinkage=0.140864


Tree=21
num_leaves=23
num_cat=0
split_feature=0 7 3 2 13 3 0 10 1 3 6 6 13 14 0 0 5 3 6 12 3 9
split_gain=88.787 34.2541 33.8417 32.1145 49.1744 31.4055 31.3523 23.5113 19.1093 16.0226 20.5235 12.9716 10.2521 10.1333 9.46017 9.37568 8.58302 7.89913 5.8157 5.63392 2.79308 2.26589
threshold=386.00000000000006 5.0000000000000009 191.40000000000003 51.750000000000007 1738.6000000000001 183.90000000000003 252.15000000000003 0.3999394685657508 48.800000000000004 185.85000000000002 783.50000000000011 803.85000000000014 1838.7500000000002 0.47366975665333005 207.10000000000002 251.60000000000005 960.20000000000016 191.40000000000003 736.65000000000009 0.27163280360894554 192.45000000000002 0.49045477520444802
decision_type=2 2 2 2 2 2 2 2 2 2 2 2 2 2 2 2 2 2 2 2 2 2
left_child=1 7 3 4 -2 6 12 8 11 15 18 21 -3 17 -14 -7 -8 -13 -11 -12 -20 -1
right_child=2 5 -4 -5 -6 9 16 -9 -10 10 19 13 14 -15 -16 -17 -18 -19 20 -21 -22 -23
leaf_value=-0.19662064776588609 0.47694129703582333 0.096436475956217821 -0.016252983483520077 0.048609747524741502 0.086867383408016641 -0.20831394898844838 0.10070731748243544 -0.21713595398352611 0.065242225859075756 0.15759993083956256 -0.1304476256284873 0.10594741872674487 -0.13428202816351345 -0.12272756527270721 0.033801974091019531 -0.039402786945911615 0.30981894364135237 -0.053338566971054532 0.070657992546064197 -0.013466641625013863 -0.021741199392624456 -0.08627217856537564
leaf_weight=17.000000000000004 14.000000000000002 13.999999999999998 15.999999999999998 15.999999999999998 12.999999999999998 13.000000000000002 11.000000000000002 23 18 9.9999999999999982 17 11.000000000000002 11.000000000000002 11.999999999999998 11.999999999999998 14.999999999999998 9.9999999999999982 9.9999999999999982 12.000000000000002 17 9.9999999999999982 12.999999999999998
leaf_count=17 14 14 16 16 13 13 11 23 18 10 17 11 11 12 12 15 10 10 12 17 10 13
internal_value=0.00192654 -0.0340486 0.1552 0.218134 0.307752 0.00841495 0.0886853 -0.0956426 -0.0566519 -0.0413607 -0.00189431 -0.0930288 0.00699832 -0.0277647 -0.0486018 -0.127154 0.218769 0.029833 0.0762152 -0.0768339 0.0282365 -0.15778
internal_weight=315 256 59 43 27 152 58 104 81 94 66 63 37 33 23 28 21 21 32 34 22 30
internal_count=315 256 59 43 27 152 58 104 81 94 66 63 37 33 23 28 21 21 32 34 22 30
is_linear=0
shrinkage=0.140864


Tree=22
num_leaves=24
num_cat=0
split_feature=0 4 2 14 7 9 9 3 10 3 4 5 9 0 3 13 16 3 14 2 14 13 8
split_gain=67.8937 36.2663 35.2953 46.4688 29.3025 17.2961 17.6526 37.0673 13.7221 12.375 12.5848 12.045 16.0936 14.3564 17.7784 10.4013 9.45339 7.99946 6.94448 5.61702 3.34471 2.18463 0.900356
threshold=386.00000000000006 6.8000000000000016 95.950000000000017 0.44377390868973282 5.0000000000000009 0.7367703913248469 0.41174386681366487 179.95000000000002 0.042170423497267767 157.45000000000002 8.1500000000000004 941.80000000000007 0.48715538283466181 219.85000000000005 191.40000000000003 1787.6000000000001 0.022934425715965465 185.85000000000002 0.43515498864050933 121.75000000000001 0.44171039187517774 1841.0500000000004 481.85000000000008
decision_type=2 2 2 2 2 2 2 2 2 2 2 2 2 2 2 2 2 2 2 2 2 2 2
left_child=1 5 3 -3 16 6 22 -8 20 -4 -11 -9 -13 18 17 -16 -2 -15 -14 -12 -6 -17 -1
right_child=4 2 9 -5 8 -7 7 11 -10 10 19 12 13 14 15 21 -18 -19 -20 -21 -22 -23 -24
leaf_value=-0.21243971639809428 -0.038715521282935692 0.3865552645256834 0.076110743750952559 0.017514210058617512 0.18419932260835706 -0.1973156987619383 0.18816529180422717 0.059736647248154334 0.34043377797808344 0.038087028749863507 -0.036916733453097567 -0.21622824092023593 -0.20660207737227324 -0.012304974385252531 0.016774617160001906 -0.16674830070397414 0.12172845561230898 0.13694662575824024 -0.055363935231175276 -0.17113414772256436 0.050801543484004986 -0.055348678307990076 -0.096361034372389312
leaf_weight=10.000000000000002 17.000000000000004 10.000000000000002 18 17 10.000000000000002 17 11.999999999999998 13.999999999999998 11.999999999999998 15.999999999999998 14.000000000000002 11.999999999999998 12.000000000000002 11.000000000000002 14.999999999999998 13.000000000000002 9.9999999999999982 14.999999999999998 15.999999999999998 13.999999999999998 9.9999999999999982 9.9999999999999982 9.9999999999999982
leaf_count=10 17 10 18 17 10 17 12 14 12 16 14 12 12 11 15 13 10 15 16 14 10 10 10
internal_value=0.00186205 -0.0295792 0.0421819 0.171283 0.135909 -0.0681383 -0.0510474 -0.0304822 0.223596 -0.0165333 -0.0569301 -0.0555736 -0.072278 -0.0492545 -0.0105596 -0.0712807 0.022965 0.0754038 -0.130221 -0.111805 0.12924 -0.127645 -0.169162
internal_weight=315 256 89 27 59 167 150 130 32 62 44 118 104 92 64 38 27 26 28 28 20 23 20
internal_count=315 256 89 27 59 167 150 130 32 62 44 118 104 92 64 38 27 26 28 28 20 23 20
is_linear=0
shrinkage=0.140864


Tree=23
num_leaves=27
num_cat=0
split_feature=0 4 14 1 3 8 2 5 0 3 7 13 3 11 9 16 5 6 9 7 20 0 14 0 0 13
split_gain=52.5978 28.0984 27.9601 36.2306 26.3877 24.5767 39.5031 28.3935 16.1021 20.5338 8.39377 16.5519 9.81112 7.41476 13.4829 8.33609 6.1286 6.11641 5.07775 4.58937 3.96048 3.81589 3.66275 3.6273 2.42087 1.71697
threshold=386.00000000000006 6.8000000000000016 0.42440081847974082 96.050000000000011 199.00000000000003 486.4500000000001 51.750000000000007 942.35000000000014 169.60000000000005 179.95000000000002 5.0000000000000009 1846.8500000000001 185.85000000000002 0.28366350225088871 0.30044828268178531 0.030091507761809796 1072.1000000000001 754.15000000000009 0.54119708991211801 10.500000000000002 1.0000000180025095e-35 275.05000000000007 0.41521064113097705 331.75000000000006 255.25000000000003 1803.7500000000002
decision_type=2 2 2 2 2 2 2 2 2 2 2 2 2 2 2 2 2 2 2 2 2 2 2 2 2 2
left_child=1 8 3 16 5 -2 7 -7 20 -10 18 12 24 14 -4 19 -3 -14 -11 -15 -1 -20 -13 25 -12 -19
right_child=4 2 13 -5 -6 6 -8 -9 9 10 11 22 17 15 -16 -17 -18 23 21 -21 -22 -23 -24 -25 -26 -27
leaf_value=-0.2016276040466034 -0.027648774065253783 -0.047558072257142286 -0.063731881904713655 0.34034532602419609 -0.075418121817113326 0.14745595379809204 0.030988046152118774 0.48875634558479703 0.13932132241062137 -0.17720618916687481 -0.11347257194678916 -0.051888104950160774 0.12398845505693157 -0.066803573165184968 0.12309045307262929 -0.14816496405337271 0.095406025950986739 -0.051699996607385973 -0.10899884459904327 0.057292214363972215 -0.071074013693706181 -0.0049930050233998879 -0.18370765147223919 0.074572414708274859 -0.01103045866519096 0.019171615113911415
leaf_weight=15.999999999999998 9.9999999999999982 10.000000000000005 13.000000000000002 9.9999999999999982 9.9999999999999982 13.000000000000002 15.999999999999998 9.9999999999999982 9.9999999999999982 12.999999999999998 10.000000000000002 11.000000000000002 11.999999999999998 10 13.999999999999998 11.999999999999998 9.9999999999999982 13.000000000000002 15.000000000000002 10 12.000000000000002 13.999999999999998 10.999999999999998 9.9999999999999982 9.9999999999999982 9.9999999999999982
leaf_count=16 10 10 13 10 10 13 16 10 10 13 10 11 12 10 14 12 10 13 15 10 12 14 11 10 10 10
internal_value=0.00169944 -0.025957 0.0371702 0.14392 0.1197 0.16168 0.210443 0.322205 -0.0599104 -0.0387421 -0.0546102 -0.0278844 0.00802707 -0.0189804 0.0331598 -0.0637683 0.0237635 0.0447913 -0.105525 -0.00302577 -0.154833 -0.0634872 -0.128573 0.00978419 -0.0694678 -0.0198613
internal_weight=315 256 89 30 59 49 39 23 167 139 129 87 65 59 27 32 20 45 42 20 28 29 22 33 20 23
internal_count=315 256 89 30 59 49 39 23 167 139 129 87 65 59 27 32 20 45 42 20 28 29 22 33 20 23
is_linear=0
shrinkage=0.140864


Tree=24
num_leaves=24
num_cat=0
split_feature=16 7 14 16 3 4 0 2 9 9 6 5 3 3 3 5 5 14 12 3 9 15 16
split_gain=45.4829 37.6947 55.6633 24.5092 22.6621 18.3078 20.936 15.3849 14.265 9.24756 18.4924 9.7977 18.5372 8.44007 9.7002 7.33598 7.07216 6.31187 9.58694 5.67496 4.76306 4.60326 3.78946
threshold=0.037397645503353526 5.0000000000000009 0.41279356372631765 0.0072682633677298323 199.00000000000003 11.950000000000001 386.00000000000006 94.050000000000011 0.30044828268178531 0.48715538283466181 843.80000000000007 1054.3000000000002 200.50000000000003 170.15000000000001 159.45000000000002 1012.2000000000002 1086.1000000000001 0.4242669487835557 0.28612219465102456 186.35000000000002 0.60797604547300055 5.3072803462488283 0.020217080468962978
decision_type=2 2 2 2 2 2 2 2 2 2 2 2 2 2 2 2 2 2 2 2 2 2 2
left_child=1 4 -3 9 5 6 13 8 -5 15 11 12 -11 14 -1 -4 -13 -9 -19 -15 21 -21 -20
right_child=-2 2 3 7 -6 -7 -8 17 -10 10 -12 16 -14 19 -16 -17 -18 18 22 20 -22 -23 -24
leaf_value=-0.063606900855955287 0.27322115382130724 0.26211363894928558 -0.030645011101966487 0.026491349037546113 -0.22121383712944639 -0.20990244181053114 0.12117729551542489 -0.060552723412895665 0.26224519406559588 0.1618282596622789 -0.15162233979448567 -0.11496990836489236 -0.05187756194335591 -0.14232885553569238 0.089915221080147351 -0.18519493240021417 0.035957328050802088 -0.059754258139908104 0.1467623957021115 -0.059388621116939835 -0.11151198937324074 0.051686596206244433 0.036608208176043149
leaf_weight=15.000000000000002 9.9999999999999982 17 14.000000000000002 10.000000000000002 14.999999999999998 9.9999999999999982 14.999999999999998 11.999999999999998 10.999999999999998 18.000000000000004 12.999999999999998 11.000000000000002 11.999999999999998 19 13.999999999999998 11.999999999999998 9.9999999999999982 9.9999999999999982 12.000000000000002 14.000000000000002 11.999999999999998 11.999999999999998 17
leaf_count=15 10 17 14 10 15 10 15 12 11 18 13 11 12 19 14 12 10 10 12 14 12 12 17
internal_value=0.00152354 -0.00877075 0.0325044 0.00553572 -0.0674042 -0.0430401 -0.0227143 0.066174 0.16287 -0.0428151 -0.0121772 0.0264154 0.0767792 -0.0502897 0.00992304 -0.110947 -0.0438849 0.0213253 0.0491969 -0.0810812 -0.0442889 -0.00643448 0.0895513
internal_weight=315 305 179 162 126 111 101 72 21 90 64 51 30 86 29 26 21 51 39 57 38 26 29
internal_count=315 305 179 162 126 111 101 72 21 90 64 51 30 86 29 26 21 51 39 57 38 26 29
is_linear=0
shrinkage=0.140864


Tree=25
num_leaves=24
num_cat=0
split_feature=16 7 14 3 12 3 14 8 3 9 14 13 3 16 13 8 1 2 3 3 16 5 0
split_gain=35.2802 28.8242 42.4089 20.5572 19.7412 17.2479 14.3532 12.9557 10.6423 9.229 8.99254 16.5359 10.71 12.7831 13.5703 7.51783 7.229 8.14114 6.10294 5.68868 5.35269 2.59768 1.98611
threshold=0.037397645503353526 5.0000000000000009 0.41279356372631765 162.05000000000004 0.39996136337588289 199.00000000000003 0.47735156111607757 390.95000000000005 158.75000000000003 0.29797589874388403 0.41373727217831302 1851.3500000000001 200.50000000000003 0.020217080468962978 1784.3500000000001 381.70000000000005 34.050000000000004 124.2 173.50000000000003 186.35000000000002 0.013434103820429913 969.00000000000011 295.90000000000003
decision_type=2 2 2 2 2 2 2 2 2 2 2 2 2 2 2 2 2 2 2 2 2 2 2
left_child=1 5 -3 4 8 6 7 16 -4 -9 15 12 13 14 22 -5 17 19 -11 -1 -16 -21 -12
right_child=-2 2 3 10 -6 -7 -8 9 -10 18 11 -13 -14 -15 20 -17 -18 -19 -20 21 -22 -23 -24
leaf_value=-0.13486839076525986 0.24055949959938075 0.228697115903125 0.067562693709650234 -0.011402739862742636 -0.056661883805346876 -0.19336417249564386 -0.17298057351035229 -0.066494764623296509 0.26804666343536482 0.14632910509693725 0.075244884443968957 -0.1198798193810041 -0.074263987513413315 -0.08362282771545812 -0.033435184148688145 -0.15584195721315625 -0.15610481016412336 0.059908450938917168 0.018457419218506244 0.030249062635104955 0.079341689744682836 -0.058888545166607124 0.18619995628912131
leaf_weight=12.999999999999998 9.9999999999999982 17 14.000000000000002 15.000000000000002 9.9999999999999982 14.999999999999998 11.999999999999998 9.9999999999999982 9.9999999999999982 13.000000000000002 11.000000000000002 17 14.999999999999998 9.9999999999999982 19.000000000000004 13.999999999999998 10.999999999999998 11.999999999999998 18 10.000000000000002 11.999999999999998 11.999999999999998 14.999999999999998
leaf_count=13 10 17 14 15 10 15 12 10 10 13 11 17 15 10 19 14 11 12 18 10 12 12 15
internal_value=0.00125166 -0.00779696 0.0282752 0.00469996 0.0994101 -0.059083 -0.0377566 -0.0181366 0.165652 0.0407838 -0.0211221 0 0.0263507 0.0508891 0.0770942 -0.087621 -0.0605336 -0.03233 0.0785328 -0.0665811 0.0107537 -0.0172004 0.148763
internal_weight=315 305 179 162 34 126 111 99 24 41 128 99 82 67 57 29 58 47 31 35 31 22 26
internal_count=315 305 179 162 34 126 111 99 24 41 128 99 82 67 57 29 58 47 31 35 31 22 26
is_linear=0
shrinkage=0.140864


Tree=26
num_leaves=26
num_cat=0
split_feature=0 0 3 8 2 5 3 4 10 6 9 12 12 12 7 15 8 3 15 13 3 8 3 20 0
split_gain=25.3607 16.4161 16.0111 15.5103 27.8775 20.3164 13.6194 18.2339 11.9506 10.2442 15.5369 11.9486 15.2786 11.3592 8.2965 6.52298 6.67153 6.35213 7.4113 7.34535 4.20873 3.40172 2.95784 4.68996 0.542107
threshold=386.00000000000006 169.60000000000005 199.00000000000003 486.4500000000001 51.750000000000007 942.35000000000014 164.85000000000005 12.250000000000002 0.037277645884943582 762.70000000000016 0.54021110157646901 0.58731878711444307 0.40002067397146995 0.28330022341212119 10.500000000000002 4.4478904282115872 333.35000000000008 191.40000000000003 5.3352831341370033 1816.8000000000002 178.50000000000003 315.80000000000007 192.45000000000002 1.0000000180025095e-35 251.60000000000005
decision_type=2 2 2 2 2 2 2 2 2 2 2 2 2 2 2 2 2 2 2 2 2 2 2 2 2
left_child=1 15 3 -2 5 -5 7 8 14 11 20 12 13 -8 -3 -1 -17 21 -19 -20 -11 24 23 -15 -12
right_child=2 6 -4 4 -6 -7 9 -9 -10 10 17 -13 -14 22 -16 16 -18 18 19 -21 -22 -23 -24 -25 -26
leaf_value=-0.0013451937092079855 -0.032341158590339959 -0.019117148691475894 -0.067539427484433479 0.10436345204168336 0.0062707565633381979 0.38793090612010794 0.12716283968357933 -0.083207528270710443 0.2130661452609342 -0.068527639523875264 -0.027646300779747699 -0.10299408076426504 0.18311724966399609 0.060698002288523317 0.12624418754312336 -0.066167658649394695 -0.22410268910158632 0.019563203990481597 -0.01500113115595946 -0.15650551849210143 -0.21003310704647868 0.085196191134421687 -0.080398064573033626 -0.062455407742927738 0.013335154646145563
leaf_weight=9.9999999999999982 9.9999999999999982 15.999999999999998 9.9999999999999982 13.000000000000002 15.999999999999998 9.9999999999999982 9.9999999999999982 11.999999999999998 11.999999999999998 12.000000000000002 10.000000000000002 10.999999999999998 10.999999999999998 11 12.000000000000002 16.000000000000004 9.9999999999999982 17 15.000000000000002 14.999999999999998 10.999999999999998 10.999999999999998 12.999999999999998 10 10.999999999999998
leaf_count=10 10 16 10 13 16 10 10 12 12 12 10 11 11 11 12 16 10 17 15 15 11 11 13 10 11
internal_value=0.00107942 -0.0180793 0.0830593 0.115995 0.154913 0.248562 -0.00310555 0.0584542 0.103795 -0.0228456 -0.0506141 0.019591 0.047386 0.00663307 0.0454599 -0.103897 -0.13906 -0.0189525 -0.0514728 -0.092018 -0.148312 0.027641 -0.032098 0 -0.0047901
internal_weight=315 256 59 49 39 23 220 52 40 168 102 66 55 44 28 36 26 79 47 30 23 32 34 21 21
internal_count=315 256 59 49 39 23 220 52 40 168 102 66 55 44 28 36 26 79 47 30 23 32 34 21 21
is_linear=0
shrinkage=0.140864


Tree=27
num_leaves=27
num_cat=0
split_feature=16 4 4 12 12 15 12 4 3 5 8 14 5 16 0 0 5 0 5 2 5 8 5 9 6 5
split_gain=24.7855 23.9415 35.7964 26.5859 23.4629 21.5821 23.6426 14.652 11.5489 8.88857 24.9377 8.04378 9.7012 21.5883 18.1008 7.42612 4.77691 10.7841 5.44715 3.66349 3.35208 8.92914 2.88785 2.78098 2.19488 0.312662
threshold=0.037397645503353526 12.250000000000002 11.000000000000002 0.34154337419008712 0.20008030563194537 3.3344288466831826 0.23017870508982038 8.5500000000000025 192.45000000000002 1055.8000000000002 348.70000000000005 0.41373727217831302 1005.7000000000002 0.01719627209096232 306.15000000000003 201.00000000000003 960.20000000000016 290.30000000000001 911.50000000000011 95.100000000000009 1025.8000000000002 306.75000000000006 1072.1000000000001 0.41174386681366487 785.45000000000016 972.20000000000016
decision_type=2 2 2 2 2 2 2 2 2 2 2 2 2 2 2 2 2 2 2 2 2 2 2 2 2 2
left_child=1 2 5 4 -4 6 -1 -8 9 11 15 -7 16 14 -14 -11 18 -18 -13 24 21 -10 -17 -15 -20 -23
right_child=-2 -3 3 -5 -6 8 7 -9 20 10 -12 12 13 23 -16 22 17 -19 19 -21 -22 25 -24 -25 -26 -27
leaf_value=0.2386179449399379 0.20151581540478961 -0.1653332794925825 0.056863413866741951 -0.016752298213184805 0.36912208776766708 -0.1019570631923446 -0.076668449091287949 0.12576949275301816 -0.15893458078254954 -0.090706319018363596 -0.24530058938546706 -0.063366649514442638 0.27396758625698453 0.016667783961026132 0.02429611470457272 -0.021394332634499393 0.0084723746005591002 -0.16575012093932337 0.013704601024100115 -0.023324029104311316 -0.16810165972565203 0.0078509997132708391 0.067640034279003031 -0.071844279419300633 0.10951879736206796 -0.022450647539906585
leaf_weight=10.999999999999998 9.9999999999999982 15.999999999999998 10.000000000000002 12.999999999999998 9.9999999999999982 10.999999999999998 16.000000000000004 9.9999999999999982 10.999999999999998 12.999999999999998 9.9999999999999982 11.999999999999998 11.000000000000002 12.000000000000002 11.999999999999998 10.000000000000002 16.000000000000004 9.9999999999999982 10.000000000000002 9.9999999999999982 9.9999999999999982 10.000000000000002 15.999999999999998 11.999999999999998 11.999999999999998 10.999999999999998
leaf_count=11 10 16 10 13 10 11 16 10 11 13 10 12 11 12 12 10 16 10 10 10 10 10 16 12 12 11
internal_value=0.000911618 -0.00664842 0.00293836 0.13719 0.232551 -0.0150179 0.0817089 0.00260619 -0.0320971 -0.0155893 -0.0655107 0.00380324 0.0155168 0.0640135 0.15669 -0.00956718 -0.0171836 -0.0632134 0.0104104 0.041328 -0.0971424 -0.0658971 0.0325593 -0.0277061 0.0722017 -0.00650999
internal_weight=315 305 289 33 20 256 37 26 219 177 49 128 117 47 23 39 70 26 44 32 42 32 26 24 22 21
internal_count=315 305 289 33 20 256 37 26 219 177 49 128 117 47 23 39 70 26 44 32 42 32 26 24 22 21
is_linear=0
shrinkage=0.140864


Tree=28
num_leaves=26
num_cat=0
split_feature=7 8 13 14 14 1 3 4 4 13 4 0 4 13 14 14 14 12 3 15 14 14 8 13 6
split_gain=24.3071 26.7242 14.9014 18.9788 12.9244 13.6827 9.53803 12.1284 15.2234 8.77224 12.493 6.39589 7.11996 9.67802 5.8123 5.19774 5.94421 4.56173 3.15286 2.75838 4.30864 2.57037 2.50571 2.38545 1.27803
threshold=5.0000000000000009 397.05000000000007 1777.6000000000004 0.41365533145162087 0.42425500084529982 23.000000000000004 149.40000000000003 11.65 10.000000000000002 1724.8000000000004 8.8000000000000025 192.75000000000003 6.8000000000000016 1849.7500000000002 0.43515498864050933 0.47426708385240118 0.45507724934851174 0.33615912375638618 191.40000000000003 5.1536641445873332 0.45077773167002683 0.42424572275648653 390.95000000000005 1841.0500000000004 757.6500000000002
decision_type=2 2 2 2 2 2 2 2 2 2 2 2 2 2 2 2 2 2 2 2 2 2 2 2 2
left_child=4 11 3 -3 5 -1 -6 8 15 10 -5 14 13 19 -2 16 22 -14 -18 24 -21 -15 23 -8 -13
right_child=1 2 -4 9 6 -7 7 -9 -10 -11 -12 12 17 21 -16 -17 18 -19 -20 20 -22 -23 -24 -25 -26
leaf_value=-0.0099986044162859028 -0.12743861419404864 0.19226176778067849 0.25039345947931413 -0.018922813170736696 0.096829577086986363 -0.22385699560744471 -0.10971164940986816 -0.17157784509195312 0.13121366072634477 -0.060242396590057957 0.162572108762854 -0.047334882346603241 0.0020034939748463146 -0.028102628274690223 0.00070983688965943438 -0.10796863387354835 0.085537905294927372 0.13429909887920458 -0.014712675331783266 0.10441463273955477 -0.0013458601354361917 -0.13593595210861548 -0.0012169875509008025 -0.013801349159110967 0.015765495907594546
leaf_weight=11.000000000000002 13.000000000000002 15.999999999999998 9.9999999999999982 15.000000000000002 9.9999999999999982 12.999999999999998 15.000000000000002 9.9999999999999982 9.9999999999999982 15.999999999999998 11.999999999999998 10.000000000000002 10.000000000000002 11.000000000000002 11.999999999999998 15.999999999999998 11.000000000000002 10.999999999999998 9.9999999999999982 13.000000000000002 13.999999999999998 9.9999999999999982 14.999999999999998 9.9999999999999982 10.999999999999998
leaf_count=11 13 16 10 15 10 13 15 10 10 16 12 10 10 11 12 16 11 11 10 13 14 10 15 10 11
internal_value=0.000839004 0.0338719 0.102023 0.0695063 -0.0450424 -0.135101 -0.022534 -0.036833 -0.0176894 0.016961 0.0652131 -0.00755703 0.00979855 -0.0118825 -0.0682526 -0.0401462 -0.0190596 0.078416 0.0383586 0.0224969 0.0512867 -0.0880998 -0.0506596 -0.076545 -0.0136093
internal_weight=315 184 69 59 131 24 107 97 87 43 27 115 90 69 25 77 61 21 21 48 27 21 40 25 21
internal_count=315 184 69 59 131 24 107 97 87 43 27 115 90 69 25 77 61 21 21 48 27 21 40 25 21
is_linear=0
shrinkage=0.140864


Tree=29
num_leaves=24
num_cat=0
split_feature=7 4 2 4 14 1 13 7 3 9 3 4 3 5 3 9 6 5 14 5 5 14 11
split_gain=18.7104 20.8817 26.6376 43.3672 10.1034 10.2095 9.63697 11.3762 9.03894 7.55384 7.2668 9.58761 12.8121 10.4194 6.79104 5.93212 9.80268 7.48776 3.97546 3.51489 3.38308 2.74777 0.899514
threshold=5.0000000000000009 6.8000000000000016 94.050000000000011 11.500000000000002 0.42426439572143576 23.000000000000004 1838.7500000000002 10.500000000000002 192.45000000000002 0.57828828828828838 149.40000000000003 11.65 170.15000000000001 1006.35 165.25000000000003 0.47604513064133019 758.95000000000016 1012.2000000000002 0.47426708385240118 957.55000000000007 964.40000000000009 0.43807571862692724 0.32081803023758987
decision_type=2 2 2 2 2 2 2 2 2 2 2 2 2 2 2 2 2 2 2 2 2 2 2
left_child=4 6 3 -3 5 -1 7 15 -9 -8 -6 12 13 -12 22 17 -17 -2 19 -14 -18 -21 -4
right_child=1 2 14 -5 10 -7 9 8 -10 -11 11 -13 18 -15 -16 16 20 -19 -20 21 -22 -23 -24
leaf_value=-0.017861550819568285 0 0.40423377171816904 0.018294840077995436 0.043611896364747382 0.085254285356223161 -0.19612791486132197 -0.16190722368020941 0.16441340577343727 -0.0019937917912333783 -0.013737589513240759 0.1616348073812047 -0.1510669218122577 0.025069400110356441 -0.023344954280713471 -0.059561247406625009 0.091884822451302056 0.0073057794637542764 -0.14797191800308399 -0.10613130441367623 -0.0066398786199816087 -0.089455303768481792 -0.091053454383027158 0.086995660759997914
leaf_weight=13.000000000000002 15.000000000000002 10.000000000000002 10.000000000000002 17 9.9999999999999982 12.999999999999998 10.000000000000002 14.000000000000002 9.9999999999999982 19 11.000000000000002 9.9999999999999982 17 9.9999999999999982 13.999999999999998 19 14.000000000000002 9.9999999999999982 14.999999999999998 17 10.999999999999998 14.999999999999998 10.999999999999998
leaf_count=13 15 10 10 17 10 13 10 14 10 19 11 10 17 10 14 19 14 10 15 17 11 15 11
internal_value=0.000700525 0.0296997 0.0950471 0.195552 -0.0395353 -0.115525 -0.00402761 0.0178808 0.097945 -0.0727507 -0.0186713 -0.0314573 -0.0140381 0.076591 0.0105374 -0.0110816 0.0192525 -0.0639201 -0.0457479 -0.0232758 -0.0366673 -0.0502933 0.0603005
internal_weight=315 184 62 27 131 26 122 93 24 29 105 95 85 21 35 69 44 25 64 49 25 32 21
internal_count=315 184 62 27 131 26 122 93 24 29 105 95 85 21 35 69 44 25 64 49 25 32 21
is_linear=0
shrinkage=0.140864


Tree=30
num_leaves=23
num_cat=0
split_feature=7 8 13 14 3 10 10 4 4 1 10 9 1 14 3 13 0 15 1 15 8 11
split_gain=14.3921 17.2301 9.83609 13.6991 8.59259 7.35212 18.857 5.47813 11.497 6.06835 8.323 7.78813 5.433 17.9969 7.12155 5.3092 5.34861 3.99176 3.6635 2.86217 7.11526 2.55936
threshold=5.0000000000000009 397.05000000000007 1777.6000000000004 0.41365533145162087 199.00000000000003 0.33120937877871831 0.042170423497267767 12.250000000000002 11.250000000000002 14.300000000000002 0.23174507821032439 0.48155844155844157 34.050000000000004 0.42426439572143576 162.05000000000004 1863.8500000000001 295.90000000000003 5.1536641445873332 182.90000000000003 5.2418281747179645 330.20000000000005 0.28605612135522712
decision_type=2 2 2 2 2 2 2 2 2 2 2 2 2 2 2 2 2 2 2 2 2 2
left_child=4 12 3 -3 7 6 -5 8 9 11 -11 -1 14 -14 -2 16 21 -18 -12 -13 -21 -16
right_child=1 2 -4 5 -6 -7 -8 -9 -10 10 18 19 13 -15 15 -17 17 -19 -20 20 -22 -23
leaf_value=0.10044375436094886 0.093146604277560344 0.15843413187471464 0.20139151252323151 -0.071025411730407481 -0.12965782644892992 -0.054681297114338244 0.15931274784749291 -0.10079280881477266 0.10669883527397112 -0.15301223143793174 0.028526903365930223 -0.074874981752754463 -0.19565095469527058 0.022440122483407186 -0.073932088264390031 -0.06905874799734639 -0.0071362679264690447 0.095078621547733541 -0.0745646723645048 -0.048397182017906076 0.088602196814487416 0.010945375952519678
leaf_weight=10.999999999999998 14.999999999999998 15.999999999999998 9.9999999999999982 11.000000000000002 14.999999999999998 18 13.999999999999998 12.999999999999998 12.999999999999998 12.999999999999998 14.000000000000002 12.999999999999998 10.000000000000002 19 12.000000000000002 19 11.000000000000002 17 9.9999999999999982 19.000000000000004 9.9999999999999982 11.999999999999998
leaf_count=11 15 16 10 11 15 18 14 13 13 13 14 13 10 19 12 19 11 17 10 19 10 12
internal_value=0.000551122 0.0260027 0.0807449 0.0542274 -0.0347191 0.00965628 0.0582596 -0.0202731 -0.00812722 -0.0269673 -0.0693708 0.00308721 -0.00717878 -0.0582426 0.010348 -0.00836425 0.0145089 0.0553501 -0.014824 -0.0244095 0 -0.0318814
internal_weight=315 184 69 59 131 43 25 116 103 90 37 53 115 29 86 71 52 28 24 42 29 24
internal_count=315 184 69 59 131 43 25 116 103 90 37 53 115 29 86 71 52 28 24 42 29 24
is_linear=0
shrinkage=0.140864


Tree=31
num_leaves=25
num_cat=0
split_feature=16 14 5 12 8 0 0 5 13 6 13 16 16 0 3 0 11 16 13 3 8 10 5 12
split_gain=15.205 9.85016 7.74981 16.0069 9.28846 18.6245 6.65322 15.3433 11.2411 9.47723 6.0734 15.9311 5.69249 7.89124 5.41873 4.55612 6.04528 4.35828 5.76741 6.12395 4.09166 2.9456 2.58856 1.68509
threshold=0.037397645503353526 0.4750407782993315 955.45000000000016 0.19992470426985587 520.50000000000011 379.75000000000006 207.10000000000002 1058.6500000000003 1799.5000000000002 807.45000000000016 1841.0500000000004 0.020217080468962978 0.016675680214946659 238.15000000000001 168.85000000000002 290.30000000000001 0.28366350225088871 0.016675680214946659 1787.6000000000001 200.50000000000003 285.00000000000006 0.39996219570598107 1047.4000000000003 0.25445805650852288
decision_type=2 2 2 2 2 2 2 2 2 2 2 2 2 2 2 2 2 2 2 2 2 2 2 2
left_child=1 2 3 -1 5 6 7 8 21 10 17 -12 13 -5 -14 16 -11 18 19 -8 -3 -4 -19 -22
right_child=-2 20 4 12 -6 -7 9 -9 -10 15 11 -13 14 -15 -16 -17 -18 22 -20 -21 23 -23 -24 -25
leaf_value=0.18102469077682851 0.15759821809224425 -0.14216950732538799 0 0.039850553184009402 0.079679853092284647 -0.1611448114200861 0.14282263590551716 -0.15350865638921724 0.082579673746384211 0.069653818591259201 -0.0015206331451138736 0.20213979375993923 -0.0040085561827199285 -0.11339275507764622 0.11511895092385489 -0.10324469726387255 -0.072994445930234228 -0.07562868783687729 -0.039069706292083707 0 0.005514282804427382 -0.096375810568937709 0.013367498684751213 -0.067087832378401241
leaf_weight=11.999999999999998 9.9999999999999982 10.999999999999998 12.000000000000002 11.000000000000002 19 14.999999999999998 12.000000000000002 15.999999999999998 18 10.000000000000002 16.000000000000004 11.999999999999998 15.000000000000002 11.999999999999998 11.999999999999998 13.999999999999998 9.9999999999999982 12.000000000000002 9.9999999999999982 10.999999999999998 10.000000000000002 13.999999999999998 9.9999999999999982 10.999999999999998
leaf_count=12 10 11 12 11 19 15 12 16 18 10 16 12 15 12 12 14 10 12 10 11 10 14 10 11
internal_value=0.000442136 -0.00544632 0.00325008 0.0464244 -0.00950204 -0.0192177 -0.00544415 -0.0430731 0.000492662 0.0138211 0.0395928 0.0910905 0.00810647 -0.0406462 0.0511857 -0.0466397 0 0.0105251 0.0426227 0.0802595 -0.0772588 -0.0563282 -0.035266 -0.0327639
internal_weight=315 305 273 62 211 192 177 60 44 117 83 28 50 23 27 34 20 55 33 23 32 26 22 21
internal_count=315 305 273 62 211 192 177 60 44 117 83 28 50 23 27 34 20 55 33 23 32 26 22 21
is_linear=0
shrinkage=0.140864


Tree=32
num_leaves=25
num_cat=0
split_feature=16 4 9 12 9 9 7 8 6 3 2 5 0 9 5 6 5 13 14 8 8 3 13 3
split_gain=11.7866 16.4793 13.9203 13.9344 6.12001 7.60417 6.08735 8.72164 6.80091 12.5319 6.39952 5.92682 5.31189 4.21785 5.14577 4.31763 5.59253 4.47662 3.20219 6.75976 3.12568 4.32683 2.25428 2.01974
threshold=0.037397645503353526 14.250000000000002 0.32273408368219986 0.23017870508982038 0.35376167239301726 0.39866005838121626 5.0000000000000009 426.75000000000006 882.70000000000016 162.05000000000004 132.05000000000004 941.80000000000007 172.70000000000002 0.48715538283466181 1012.2000000000002 785.45000000000016 1055.8000000000002 1803.7500000000002 0.41371688263384276 348.10000000000008 385.80000000000001 186.35000000000002 1797.4000000000003 168.85000000000002
decision_type=2 2 2 2 2 2 2 2 2 2 2 2 2 2 2 2 2 2 2 2 2 2 2 2
left_child=1 2 3 -1 -4 -6 7 10 9 -8 12 -11 -7 14 -13 18 17 -17 -15 -20 21 -14 -23 -5
right_child=-2 -3 4 23 5 6 8 -9 -10 11 -12 13 20 15 -16 16 -18 -19 19 -21 -22 22 -24 -25
leaf_value=0.16262296114332378 0.13875846045804086 -0.1681838789894434 -0.1061102720669175 -0.038404824733851581 0.092010370092841284 -0.11731656230689082 0.15628423814007106 -0.15391884460401362 -0.079970303675435325 0.083475137628914564 0.073713273065092275 0.012252761425610395 -0.08290142636044151 -0.016331244606827968 -0.10249288437485354 -0.045569502294307888 -0.10210986583441951 0.076534077406842135 0.14212430073241425 0.0015284787722117405 0.046675157641658548 0.0417295139140023 -0.030225675465835589 0.037907270772202475
leaf_weight=18 9.9999999999999982 9.9999999999999982 10.999999999999998 11.000000000000002 12.999999999999998 11.999999999999998 9.9999999999999982 9.9999999999999982 13.999999999999998 13.999999999999998 9.9999999999999982 12.000000000000002 19 11.999999999999998 15.999999999999998 10.000000000000005 10.999999999999998 9.9999999999999982 11.000000000000002 15.999999999999998 9.9999999999999982 12.999999999999998 19 12.999999999999998
leaf_count=18 10 10 11 11 13 12 10 10 14 14 10 12 19 12 16 10 11 10 11 16 10 13 19 13
internal_value=0.000375377 -0.00479162 0.00156899 0.0750674 -0.0108912 -0.00562904 -0.0120402 -0.0395261 0.00668862 0.018015 -0.0222513 0.00300758 -0.037459 -0.00931173 -0.0539773 0.00880862 -0.0286868 0.0146306 0.0396958 0.0656695 -0.0181275 -0.0328563 0 0.00090322
internal_weight=315 305 295 42 253 242 229 93 136 122 83 112 73 98 28 70 31 20 39 27 61 51 32 24
internal_count=315 305 295 42 253 242 229 93 136 122 83 112 73 98 28 70 31 20 39 27 61 51 32 24
is_linear=0
shrinkage=0.140864


Tree=33
num_leaves=25
num_cat=0
split_feature=7 8 14 5 3 6 0 15 1 4 4 9 3 13 11 5 15 5 14 13 6 15 12 6
split_gain=9.92368 10.7953 8.29949 6.61736 8.96541 12.474 7.82008 9.19156 6.51806 5.3674 17.6304 4.18259 3.98636 4.5881 3.46071 4.07581 6.81769 4.98492 2.64663 2.21406 2.51724 5.17209 2.63545 2.4106
threshold=5.0000000000000009 397.05000000000007 0.42426439572143576 942.35000000000014 164.85000000000005 712.10000000000014 426.25000000000006 3.3344288466831826 23.000000000000004 12.250000000000002 11.000000000000002 0.46986597453471102 192.45000000000002 1784.3500000000001 0.07284079245252334 1055.8000000000002 6.2538927335640144 1007.5500000000001 0.42440081847974082 1856.4500000000003 755.05000000000007 4.5115084361621767 0.4495552542961781 849.50000000000011
decision_type=2 2 2 2 2 2 2 2 2 2 2 2 2 2 2 2 2 2 2 2 2 2 2 2
left_child=2 11 8 6 -5 -6 7 -3 -1 10 19 -2 13 -13 15 17 -17 -15 -16 20 -4 -22 23 -23
right_child=1 3 9 4 5 -7 -8 -9 -10 -11 -12 12 -14 14 18 16 -18 -19 -20 -21 21 22 -24 -25
leaf_value=-0.018073736185703924 -0.062261984140138775 -0.12395181877539872 0.015903258842200577 0.20869557984115669 0.12690116845897956 -0.049589922495035965 0.10498305689962155 0.051513624371703551 -0.16227629108162192 -0.092230024734162641 0.1494340798936549 0.10330385413389859 -0.047187623590869213 -0.035054007346380589 0.098297595436370525 -0.11672393806747276 0.020960005707434174 0.093746799687359078 0.00024682379383059508 0.033220590299527397 -0.12162200913573146 0.032783070296181729 -0.073960016587072852 -0.040191542005657117
leaf_weight=13.000000000000002 19 10.000000000000005 14.999999999999998 9.9999999999999982 17.000000000000004 11.999999999999998 9.9999999999999982 9.9999999999999982 12.999999999999998 11.999999999999998 11.999999999999998 9.9999999999999982 19 10.000000000000002 10.000000000000002 13.000000000000002 11.999999999999998 9.9999999999999982 11.999999999999998 9.9999999999999982 11.999999999999998 19 10.999999999999998 13.999999999999998
leaf_count=13 19 10 15 10 17 12 10 10 13 12 12 10 19 10 10 13 12 10 12 10 12 19 11 14
internal_value=0.000340011 0.0214997 -0.0289223 0.064831 0.101985 0.0537288 0.0120658 -0.0370653 -0.0976254 -0.0101314 0.00151113 -0.00469687 0.00715195 0.0219111 0.0067281 -0.0149394 -0.0519172 0.0296299 0.0507857 -0.0225931 -0.0317099 -0.0453596 -0.0196247 2.34999e-05
internal_weight=315 184 131 69 39 29 30 20 26 105 93 115 96 77 67 45 25 20 22 81 71 56 44 33
internal_count=315 184 131 69 39 29 30 20 26 105 93 115 96 77 67 45 25 20 22 81 71 56 44 33
is_linear=0
shrinkage=0.140864


Tree=34
num_leaves=26
num_cat=0
split_feature=16 4 9 14 3 9 3 9 4 11 9 9 5 0 13 12 14 3 6 14 14 0 7 0 6
split_gain=9.22488 11.452 9.64767 11.524 10.3469 5.15535 6.10665 9.557 8.80869 7.27307 6.07277 5.7013 5.1265 7.57761 5.12634 6.3215 5.10211 4.32708 1.54753 9.1187 3.06363 3.06115 1.14319 0.319953 0.0682094
threshold=0.037397645503353526 14.250000000000002 0.32273408368219986 0.47366975665333005 168.85000000000002 0.35376167239301726 192.45000000000002 0.4022613386531399 9.1500000000000021 0.36747273960638549 0.48827960532337494 0.46762909319899248 1025.8000000000002 236.75000000000003 1802.3500000000001 0.31413717209652364 0.43189492634048038 159.25000000000003 807.45000000000016 0.42426439572143576 0.41367701031298826 306.15000000000003 5.0000000000000009 335.45000000000005 800.05000000000007
decision_type=2 2 2 2 2 2 2 2 2 2 2 2 2 2 2 2 2 2 2 2 2 2 2 2 2
left_child=1 2 3 4 -1 -4 7 16 9 10 11 -9 13 24 15 -12 -7 -10 19 20 -16 22 -20 -15 -8
right_child=-2 -3 5 -5 -6 6 12 8 17 -11 14 -13 -14 23 18 -17 -18 -19 21 -21 -22 -23 -24 -25 -26
leaf_value=-0.066276968414330464 0.12280727889807028 -0.14039395290797696 -0.096629100573541876 0.16924327792727423 0.089825226098568481 0.13260921887623597 -0.042137370427855599 0.0034046414838204055 -0.14428309545801513 0.098736436924179299 0.14397189757572446 -0.11663664176659136 -0.13000474154526026 0.010663173095546289 0.01348141759693749 0.0043151331503360904 0.0039445712202063974 -0.023850658578255562 -0.029072550775627329 0.11770774930775989 -0.085206929095268946 -0.0844773058629881 0.023290209476642995 0.055544331588649035 -0.096238051956021864
leaf_weight=15.000000000000002 9.9999999999999982 9.9999999999999982 10.999999999999998 11.999999999999998 14.999999999999998 15.000000000000002 10.000000000000002 14.000000000000002 10.000000000000002 13.999999999999998 10.000000000000002 13.999999999999998 9.9999999999999982 10.000000000000002 11.000000000000005 15.999999999999998 10.999999999999998 15.999999999999998 13.000000000000002 9.9999999999999982 9.9999999999999982 9.9999999999999982 17 9.9999999999999982 10.999999999999998
leaf_count=15 10 10 11 12 15 15 10 14 10 14 10 14 10 10 11 16 11 16 13 10 10 10 17 10 11
internal_value=0.000368941 -0.00418558 0.00109207 0.0623065 0.0109823 -0.00925384 -0.00441496 0.00703428 -0.00551607 0.00855448 -0.00242868 -0.0584564 -0.0469569 -0.0210471 0.0140404 0.065485 0.0835835 -0.0781212 -0.00530731 0.0169389 -0.0344782 -0.0236401 0 0.0379335 -0.0778175
internal_weight=315 305 295 42 30 253 242 191 165 139 125 28 51 41 97 26 26 26 71 31 21 40 30 20 21
internal_count=315 305 295 42 30 253 242 191 165 139 125 28 51 41 97 26 26 26 71 31 21 40 30 20 21
is_linear=0
shrinkage=0.140864


Tree=35
num_leaves=24
num_cat=0
split_feature=7 4 15 13 11 1 10 13 14 3 1 3 13 4 4 7 9 0 14 14 4 5 9
split_gain=7.65773 8.78278 15.0574 12.5514 19.5458 5.88041 9.58608 6.5431 5.45693 4.98398 4.85621 4.07716 3.99239 3.93109 12.6623 3.73744 3.55351 3.42357 1.86305 3.11333 1.39254 1.38686 1.18384
threshold=5.0000000000000009 6.8000000000000016 3.0705688436091205 1781.5000000000002 0.28233220234470802 25.000000000000004 0.39944524677349108 1863.8500000000001 0.42426439572143576 191.40000000000003 23.000000000000004 192.45000000000002 1876.9000000000003 12.250000000000002 11.000000000000002 10.500000000000002 0.57337120824325061 379.75000000000006 0.47367995876736885 0.45955565961324291 7.5500000000000007 967.05000000000007 0.56102819004620075
decision_type=2 2 2 2 2 2 2 2 2 2 2 2 2 2 2 2 2 2 2 2 2 2 2
left_child=8 5 -3 -4 -5 7 -7 11 10 -8 -1 15 -6 14 18 17 -11 -2 19 20 21 -10 -23
right_child=1 2 3 4 12 6 9 -9 13 16 -12 -13 -14 -15 -16 -17 -18 -19 -20 -21 -22 22 -24
leaf_value=-0.012549338373984271 0.066532081087168682 0.19235558580268702 -0.073014895410586367 0.20313935278886944 -0.064962663533241635 -0.15218945807466525 -0.061323179555501241 -0.05644903360142859 -0.0383113156459245 0.092515487676650826 -0.1369474884628179 -0.013005681530701946 0.045885083486824324 -0.080235926291327489 0.12537030653435921 0.12476305166373822 -0.013993579091013671 -0.025333769979039456 -0.057340380498581485 0.048981449411397017 -0.057738633332389565 0.047624786874164812 -0.014112523505599309
leaf_weight=13.000000000000002 19.000000000000004 11.999999999999998 15.999999999999998 11.999999999999998 11.000000000000002 9.9999999999999982 15.999999999999998 14.999999999999998 13.999999999999998 10.000000000000002 12.999999999999998 17 10.999999999999998 11.999999999999998 11.999999999999998 12.999999999999998 10.999999999999998 10.999999999999998 19 12.999999999999998 14.999999999999998 10.000000000000002 9.9999999999999982
leaf_count=13 19 12 16 12 11 10 16 15 14 10 13 17 11 12 12 13 11 11 19 13 15 10 10
internal_value=0.000285421 0.0188905 0.0612852 0.023395 0.0714324 -0.00285405 -0.0413822 0.0210894 -0.0254019 -0.00462232 -0.0812085 0.0422912 -0.00831304 -0.0100252 0 0.064831 0.0379707 0.031864 -0.0204466 -0.00712934 -0.0241224 -0.00586289 0.0160088
internal_weight=315 184 62 50 34 122 47 75 131 37 26 60 22 105 93 43 21 30 81 62 49 34 20
internal_count=315 184 62 50 34 122 47 75 131 37 26 60 22 105 93 43 21 30 81 62 49 34 20
is_linear=0
shrinkage=0.140864


Tree=36
num_leaves=24
num_cat=0
split_feature=16 4 8 13 16 7 16 1 10 12 5 9 8 3 16 15 6 13 6 13 5 0 13
split_gain=6.67384 7.93735 6.14445 22.5539 5.35136 5.65096 7.53515 4.05456 7.2489 3.70309 5.36165 3.54421 3.3543 5.71691 8.12643 8.49185 4.89782 4.80914 4.78235 3.28132 1.82856 1.1983 0.434132
threshold=0.037397645503353526 14.250000000000002 397.05000000000007 1781.5000000000002 0.019164243198372094 5.0000000000000009 0.0072682633677298323 34.050000000000004 0.29166047916704235 0.19992470426985587 964.40000000000009 0.39866005838121626 381.70000000000005 191.40000000000003 0.01579907216673113 6.1016148020629446 797.55000000000007 1787.6000000000001 886.05000000000007 1799.0500000000004 1045.2500000000002 253.25000000000003 1758.7500000000002
decision_type=2 2 2 2 2 2 2 2 2 2 2 2 2 2 2 2 2 2 2 2 2 2 2
left_child=1 2 7 4 5 11 9 12 -9 -7 -11 -4 13 14 15 -1 -16 -15 -18 22 -14 -19 -10
right_child=-2 -3 3 -5 -6 6 -8 8 19 10 -12 -13 20 17 16 -17 18 21 -20 -21 -22 -23 -24
leaf_value=0.1554308505488512 0.10433947450415272 -0.1170741017374014 0.023602528610392765 0.18966317173226185 -0.057556869495836237 0.074642737303118462 0.13910331081840785 -0.13562398754787836 -0.019919587717663861 -0.089893298608530139 0.043737110624651895 -0.073334774487014948 -0.077376448680008869 0.030203171187081858 -0.087144893267148207 0.011760959666453035 0.068053020529446492 -0.097374550833757637 -0.041833599197702132 0.026964828297981622 0 -0.031348038153252142 -0.072827042648622081
leaf_weight=14.999999999999998 9.9999999999999982 9.9999999999999982 12.000000000000002 12.999999999999998 21 10.000000000000002 11.999999999999998 11.999999999999998 11.000000000000002 10.000000000000002 9.9999999999999982 13.999999999999998 14.000000000000002 15.999999999999998 9.9999999999999982 18 16.000000000000004 11.000000000000002 11.999999999999998 18 9.9999999999999982 20 9.9999999999999982
leaf_count=15 10 10 12 13 21 10 12 12 11 10 10 14 14 16 10 18 16 11 12 18 10 20 10
internal_value=0.000172625 -0.00367895 0.000689877 0.0285168 0.00120622 0.0210225 0.0525124 -0.013906 -0.0472665 0.0105612 -0.0228484 -0.0282898 -0.00116564 0.00844337 0.0336352 0.083014 -0.00988521 -0.0285044 0.0197237 -0.0142054 -0.0475164 -0.060208 -0.0508688
internal_weight=315 305 295 102 89 68 42 193 51 30 20 26 142 118 71 33 38 47 28 39 24 31 21
internal_count=315 305 295 102 89 68 42 193 51 30 20 26 142 118 71 33 38 47 28 39 24 31 21
is_linear=0
shrinkage=0.140864


Tree=37
num_leaves=25
num_cat=0
split_feature=16 4 0 3 2 16 14 8 9 9 1 3 0 16 9 15 14 5 9 6 14 8 1 5
split_gain=5.17969 6.56966 4.89656 9.35501 6.03295 4.1123 3.69874 14.4847 3.21078 2.47707 4.13933 3.40459 6.25397 2.71076 4.28073 2.3306 2.19915 2.12923 2.58432 1.35398 1.03169 1.01833 0.880249 0.200721
threshold=0.037397645503353526 12.250000000000002 169.60000000000005 161.95000000000002 99.350000000000009 0.025834045029430732 0.41279356372631765 520.50000000000011 0.48715538283466181 0.54021110157646901 118.00000000000001 187.20000000000002 213.60000000000002 0.01719627209096232 0.48370503841708035 5.6382482185273171 0.41447591619964957 946.90000000000009 0.60797604547300055 748.80000000000007 0.42427336651791037 341.10000000000008 21.000000000000004 1086.1000000000001
decision_type=2 2 2 2 2 2 2 2 2 2 2 2 2 2 2 2 2 2 2 2 2 2 2 2
left_child=1 2 8 4 -4 -6 7 -5 -1 10 13 12 -11 14 22 -10 -12 -13 21 -18 -15 -19 -8 -14
right_child=-2 -3 3 6 5 -7 9 -9 15 11 16 17 23 20 -16 -17 19 18 -20 -21 -22 -23 -24 -25
leaf_value=-0.10366821878453657 0.091866425914826216 -0.086448584985934163 0.14222821633023303 -0.043151482671180755 0.085804555161467538 -0.0136837551895323 -0.082925683672471773 0.16306990273622218 0.024691621987626138 -0.03986245125475802 -0.032193109239317778 0.037714662351778248 0.11044679325599233 -0.1033644003751425 0.038075053344058127 -0.055025921316083228 0.073327448898388506 0.022986239733196447 -0.069395647926130608 0.00012559613285788727 -0.033655308737573095 -0.023445012972644386 -0.01587082932363168 0.046804717312580825
leaf_weight=10.999999999999998 9.9999999999999982 15.999999999999998 12.999999999999998 14.000000000000002 12.000000000000002 18 11.000000000000002 9.9999999999999982 13.000000000000002 10.000000000000002 10.999999999999998 10.999999999999998 10.000000000000002 16.000000000000004 13.999999999999998 11.999999999999998 10.000000000000002 14.999999999999998 15.999999999999998 10.999999999999998 11.999999999999998 19 9.9999999999999982 9.9999999999999982
leaf_count=11 10 16 13 14 12 18 11 10 13 10 11 11 10 16 14 12 10 15 16 11 12 19 10 10
internal_value=7.8721e-05 -0.00329682 0.00164998 0.00880994 0.0673153 0.0272409 -0.00341777 0.04632 -0.0454873 -0.0104604 -0.0262468 0.00571015 0.0435213 -0.046934 -0.017566 -0.0129653 0.0134421 -0.0128583 -0.0257916 0.0400214 -0.0788436 -0.0015458 -0.0567632 0.0871827
internal_weight=315 305 289 253 43 30 210 24 36 186 95 91 30 63 35 25 32 61 50 21 28 34 21 20
internal_count=315 305 289 253 43 30 210 24 36 186 95 91 30 63 35 25 32 61 50 21 28 34 21 20
is_linear=0
shrinkage=0.140864


Tree=38
num_leaves=24
num_cat=0
split_feature=7 14 16 0 9 0 1 6 14 9 15 14 6 14 14 5 5 4 6 13 5 1 15
split_gain=4.65133 7.51663 6.30412 13.8169 5.63576 11.8271 4.03616 3.36355 3.94963 4.1921 3.73598 4.4003 3.43292 2.92369 3.9234 3.79813 4.5127 2.63068 2.18869 1.82537 1.46138 1.32176 0.803751
threshold=5.0000000000000009 0.41279356372631765 0.027329812424839766 252.15000000000003 0.33003327244258879 395.00000000000006 200.45000000000002 807.45000000000016 0.42425500084529982 0.57337120824325061 5.5891350674995364 0.41370021377468219 778.90000000000009 0.42427336651791037 0.47367995876736885 957.55000000000007 1000.8500000000001 7.5500000000000007 890.45000000000016 1816.8000000000002 1064.4000000000003 21.000000000000004 6.456808943089432
decision_type=2 2 2 2 2 2 2 2 2 2 2 2 2 2 2 2 2 2 2 2 2 2 2
left_child=6 -2 4 -4 5 -3 13 8 10 12 11 -6 -10 20 15 21 -17 -18 -16 -9 -1 -15 -21
right_child=1 2 3 -5 7 -7 -8 19 9 -11 -12 -13 -14 14 18 16 17 -19 -20 22 -22 -23 -24
leaf_value=-0.077801798950725615 0.099293184176461657 -0.15552638867088983 -0.030602434493892737 0.17350356687142721 0.023605609367405612 0.03325460373387519 -0.095706010990062373 0.0080734717723378001 0.032708819217585651 -0.013714524492601387 0.051789579591731409 -0.074414589980218063 0.13777910603346122 0.018112269853307984 -0.073374937399409271 -0.053633360584993302 0.080198174212015028 -0.0037097708437935661 0.0024031535324165127 -0.082132822339774245 -0.0073207591564224727 0.097976246477995271 -0.017733215092553201
leaf_weight=15.000000000000002 17 12.000000000000002 12.000000000000002 10.999999999999998 13.999999999999998 10.999999999999998 10.999999999999998 12.999999999999998 18.000000000000004 11.999999999999998 12.999999999999998 19 10.999999999999998 10.000000000000002 16.000000000000004 19 11.000000000000002 14.999999999999998 10.999999999999998 10.000000000000002 11.999999999999998 10.999999999999998 10.999999999999998
leaf_count=15 17 12 12 11 14 11 11 13 18 12 13 19 11 10 16 19 11 15 11 10 12 11 11
internal_value=0.000133208 0.0146658 0.00481929 0.070612 -0.00610793 -0.0674814 -0.0198541 0.00599289 0.0209177 0.0518744 -0.00661427 -0.0324249 0.0797364 -0.0112221 0.000422322 0.0193878 -0.00324338 0.0329976 -0.0426626 -0.0300461 -0.0504755 0.0663671 -0.0544549
internal_weight=315 184 167 23 144 23 131 121 87 41 46 33 29 120 93 66 45 26 27 34 27 21 21
internal_count=315 184 167 23 144 23 131 121 87 41 46 33 29 120 93 66 45 26 27 34 27 21 21
is_linear=0
shrinkage=0.140864


Tree=39
num_leaves=25
num_cat=0
split_feature=14 5 12 17 0 0 4 15 14 0 14 14 1 3 8 0 13 13 8 15 14 6 14 13
split_gain=4.14072 4.95009 5.94707 5.34504 8.87066 6.58339 4.23975 3.3747 4.02013 3.26167 5.7781 5.24353 2.9098 2.46908 2.12101 2.11151 2.37409 2.10289 1.99074 1.81809 1.52716 1.35793 1.81396 1.35451
threshold=0.4750407782993315 946.90000000000009 0.19992470426985587 2.3937458713910233 252.15000000000003 379.75000000000006 10.000000000000002 5.5431780225554048 0.4242669487835557 207.10000000000002 0.43352674071926617 0.42515290936484257 175.00000000000003 185.85000000000002 285.00000000000006 247.95000000000002 1823.7500000000002 1775.6000000000001 370.80000000000001 3.3936699181117542 0.4982866595769822 774.50000000000011 0.42426439572143576 1799.5000000000002
decision_type=2 2 2 2 2 2 2 2 2 2 2 2 2 2 2 2 2 2 2 2 2 2 2 2
left_child=1 2 -1 5 7 9 19 8 -5 11 17 -3 -8 -7 -2 -12 -17 -11 -10 -4 -16 -19 -23 -13
right_child=14 3 6 4 -6 13 12 -9 18 10 15 23 -14 -15 20 16 -18 21 -20 -21 -22 22 -24 -25
leaf_value=0.12456686098544317 -0.090707571564815223 -0.090186642553546775 -0.063374875034971537 -0.089391571498371347 0.11273425315056987 -0.027654310633101989 0.0021980501994430879 0.055897809171212252 -0.031572099417855132 0.078530748190524066 0.019904385151990632 -0.02169837662134972 0.10330543955807028 -0.12872958248897509 0.0092266015298285917 -0.090368670118692179 -0.0075075419508479598 -0.0097999723514605834 0.047978875836363385 0.012052278794367315 -0.053493930389223766 -0.0012136514642382969 0.073142112159387471 0.040308317001215871
leaf_weight=11.999999999999998 10.999999999999998 18 11.000000000000002 10.999999999999998 17 12.000000000000002 12.000000000000002 11.999999999999998 10.000000000000002 17 9.9999999999999982 13.000000000000002 10.999999999999998 10.999999999999998 16.000000000000004 13.000000000000002 15.999999999999998 17 10.999999999999998 9.9999999999999982 10.999999999999998 10.000000000000002 11.999999999999998 10.999999999999998
leaf_count=12 11 18 11 11 17 12 12 12 10 17 10 13 11 11 16 13 16 17 11 10 11 10 12 11
internal_value=0.000151834 0.0063619 0.0431278 -0.00301782 0.0316419 -0.0167203 0.0159214 -0.00185213 -0.0266826 -0.00422201 0.00989423 -0.0363083 0.056371 -0.0836427 -0.0422116 -0.0302803 -0.0492356 0.0387429 0.0085651 -0.0272992 -0.0164537 0.0175916 0.0398465 0.00575324
internal_weight=315 277 56 221 61 160 44 44 32 137 95 42 23 23 38 39 29 56 21 21 27 39 22 24
internal_count=315 277 56 221 61 160 44 44 32 137 95 42 23 23 38 39 29 56 21 21 27 39 22 24
is_linear=0
shrinkage=0.140864


Tree=40
num_leaves=22
num_cat=0
split_feature=5 8 7 4 14 8 0 3 9 0 14 0 12 14 2 5 11 14 15 14 8
split_gain=3.4053 4.22088 5.50687 5.21853 3.88671 4.23529 2.91915 2.83391 3.80837 2.37962 2.2574 2.17717 3.41522 1.77473 2.12634 1.89602 3.09807 1.92315 1.71273 1.67483 1.29665
threshold=865.55000000000007 397.05000000000007 5.0000000000000009 10.250000000000002 0.44445405072363658 486.4500000000001 169.60000000000005 157.45000000000002 0.46986597453471102 424.50000000000006 0.43515498864050933 238.15000000000001 0.19992470426985587 0.42424572275648653 118.25000000000001 946.90000000000009 0.07284079245252334 0.47365669407488681 5.3160772520371387 0.41373727217831302 309.30000000000007
decision_type=2 2 2 2 2 2 2 2 2 2 2 2 2 2 2 2 2 2 2 2 2
left_child=9 6 4 11 5 -3 10 -8 -9 -1 -2 -4 -13 19 15 -15 18 -18 -17 -10 -20
right_child=1 2 3 -5 -6 -7 7 8 13 -11 -12 12 -14 14 -16 16 17 -19 20 -21 -22
leaf_value=-0.092523387144894581 -0.097053739193717931 0.013882109867456815 0.064589305704656694 0.11532084079486496 0.050605479120301063 -0.087212644225656069 0.052869616390181166 -0.067863318559982344 -0.0017027771834358526 0 -0.012465077051962804 0.053245004892501446 -0.043339983640443829 0.049160832928900583 -0.052363504894934812 0.0050344171217342444 0.074390823434911463 -0.0019969773825211719 -0.010224564762237837 0.055967554300315359 -0.071559587753500839
leaf_weight=11.000000000000002 10.000000000000002 14.000000000000002 13.999999999999998 18 11.999999999999998 14.999999999999998 15.999999999999998 15.999999999999998 17 9.9999999999999982 18 11.000000000000002 14.999999999999998 11.999999999999998 15.999999999999998 18 10.000000000000002 11.999999999999998 14.999999999999998 18 17
leaf_count=11 10 14 14 18 12 15 16 16 17 10 18 11 15 12 16 18 10 12 15 18 17
internal_value=6.88841e-05 0.00425508 0.0277763 0.0552047 -0.0106297 -0.038932 -0.00759539 -7.1526e-05 -0.00653505 -0.0522567 -0.0482282 0.0232798 -2.06087e-05 0.00118609 -0.00806304 0.000750256 -0.00768581 0.0337585 -0.0273475 0.0279768 -0.046233
internal_weight=315 294 99 58 41 29 195 167 151 21 28 40 26 135 100 84 72 22 50 35 32
internal_count=315 294 99 58 41 29 195 167 151 21 28 40 26 135 100 84 72 22 50 35 32
is_linear=0
shrinkage=0.140864


Tree=41
num_leaves=24
num_cat=0
split_feature=3 14 3 0 14 9 1 10 5 6 4 4 15 5 3 4 6 15 9 6 4 1 2
split_gain=2.94578 8.9615 8.42224 4.45384 3.96514 10.4023 4.07614 9.33002 7.8857 4.87413 3.91352 6.05748 2.76051 3.39899 2.57858 1.93771 2.86834 1.48072 1.1206 1.12426 0.767103 0.678441 0.59986
threshold=199.00000000000003 0.41279356372631765 203.25000000000003 207.10000000000002 0.42426439572143576 0.33003327244258879 94.250000000000014 0.33120937877871831 942.35000000000014 774.50000000000011 12.250000000000002 11.500000000000002 5.5891350674995364 1039.0000000000002 191.40000000000003 7.5500000000000007 800.95000000000016 4.7112119467585716 0.60797604547300055 839.85000000000014 4.9500000000000002 168.55000000000004 1.0000000180025095e-35
decision_type=2 2 2 2 2 2 2 2 2 2 2 2 2 2 2 2 2 2 2 2 2 2 2
left_child=1 -1 -2 -4 5 -3 9 8 -8 -6 11 15 13 -7 -9 16 -11 -17 19 -18 -21 -16 -15
right_child=2 4 3 -5 6 12 7 14 -10 10 -12 -13 -14 22 21 17 18 -19 -20 20 -22 -23 -24
leaf_value=0.11207776250367414 -0.13575882936450431 -0.15027617779358057 -0.048553837268142983 0.055459135204720275 -0.0652365251102167 0.019840363013203018 0.0088012564531114185 -0.059781652430948323 0.16607318780754232 0.075326148716788513 -0.057471776422156319 0.11279339397715227 0.041987703454665043 -0.027209737271514788 -0.0035154001635321198 0.011882858848534277 -0.012482138408167228 -0.051180772559937811 -0.023043066651756573 0.060450546395120076 0.0024691685056833878 0.038893942461271314 -0.08456507049135488
leaf_weight=12.999999999999998 9.9999999999999982 9.9999999999999982 14.000000000000002 14.999999999999998 20 18 12.000000000000002 10.999999999999998 13.999999999999998 11.999999999999998 13.999999999999998 9.9999999999999982 15.999999999999998 14.000000000000002 12.000000000000002 10.000000000000002 11.999999999999998 15.999999999999998 19 11.000000000000002 9.9999999999999982 11.999999999999998 9.9999999999999982
