{"learner":{"attributes":{"scikit_learn":"{\"_estimator_type\": \"regressor\"}"},"feature_names":["Cement","Blast_Furnace_Slag","Fly_Ash","Water","Superplasticizer","Coarse_Aggregate","Fine_Aggregate","Age","Binder","W_B_ratio","GGBS_ratio","FlyAsh_ratio","SCM_ratio","Total_Aggregate","Fine_Agg_ratio","Agg_Binder_ratio","SP_per_binder","log_Age","sqrt_Age","Age_very_early","Age_early","Age_standard"],"feature_types":["float","float","float","float","float","float","float","int","float","float","float","float","float","float","float","float","float","float","float","int","int","int"],"gradient_booster":{"model":{"cats":{"enc":[],"feature_segments":[],"sorted_idx":[]},"gbtree_model_param":{"num_parallel_tree":"1","num_trees":"844"},"iteration_indptr":[0,1,2,3,4,5,6,7,8,9,10,11,12,13,14,15,16,17,18,19,20,21,22,23,24,25,26,27,28,29,30,31,32,33,34,35,36,37,38,39,40,41,42,43,44,45,46,47,48,49,50,51,52,53,54,55,56,57,58,59,60,61,62,63,64,65,66,67,68,69,70,71,72,73,74,75,76,77,78,79,80,81,82,83,84,85,86,87,88,89,90,91,92,93,94,95,96,97,98,99,100,101,102,103,104,105,106,107,108,109,110,111,112,113,114,115,116,117,118,119,120,121,122,123,124,125,126,127,128,129,130,131,132,133,134,135,136,137,138,139,140,141,142,143,144,145,146,147,148,149,150,151,152,153,154,155,156,157,158,159,160,161,162,163,164,165,166,167,168,169,170,171,172,173,174,175,176,177,178,179,180,181,182,183,184,185,186,187,188,189,190,191,192,193,194,195,196,197,198,199,200,201,202,203,204,205,206,207,208,209,210,211,212,213,214,215,216,217,218,219,220,221,222,223,224,225,226,227,228,229,230,231,232,233,234,235,236,237,238,239,240,241,242,243,244,245,246,247,248,249,250,251,252,253,254,255,256,257,258,259,260,261,262,263,264,265,266,267,268,269,270,271,272,273,274,275,276,277,278,279,280,281,282,283,284,285,286,287,288,289,290,291,292,293,294,295,296,297,298,299,300,301,302,303,304,305,306,307,308,309,310,311,312,313,314,315,316,317,318,319,320,321,322,323,324,325,326,327,328,329,330,331,332,333,334,335,336,337,338,339,340,341,342,343,344,345,346,347,348,349,350,351,352,353,354,355,356,357,358,359,360,361,362,363,364,365,366,367,368,369,370,371,372,373,374,375,376,377,378,379,380,381,382,383,384,385,386,387,388,389,390,391,392,393,394,395,396,397,398,399,400,401,402,403,404,405,406,407,408,409,410,411,412,413,414,415,416,417,418,419,420,421,422,423,424,425,426,427,428,429,430,431,432,433,434,435,436,437,438,439,440,441,442,443,444,445,446,447,448,449,450,451,452,453,454,455,456,457,458,459,460,461,462,463,464,465,466,467,468,469,470,471,472,473,474,475,476,477,478,479,480,481,482,483,484,485,486,487,488,489,490,491,492,493,494,495,496,497,498,499,500,501,502,503,504,505,506,507,508,509,510,511,512,513,514,515,516,517,518,519,520,521,522,523,524,525,526,527,528,529,530,531,532,533,534,535,536,537,538,539,540,541,542,543,544,545,546,547,548,549,550,551,552,553,554,555,556,557,558,559,560,561,562,563,564,565,566,567,568,569,570,571,572,573,574,575,576,577,578,579,580,581,582,583,584,585,586,587,588,589,590,591,592,593,594,595,596,597,598,599,600,601,602,603,604,605,606,607,608,609,610,611,612,613,614,615,616,617,618,619,620,621,622,623,624,625,626,627,628,629,630,631,632,633,634,635,636,637,638,639,640,641,642,643,644,645,646,647,648,649,650,651,652,653,654,655,656,657,658,659,660,661,662,663,664,665,666,667,668,669,670,671,672,673,674,675,676,677,678,679,680,681,682,683,684,685,686,687,688,689,690,691,692,693,694,695,696,697,698,699,700,701,702,703,704,705,706,707,708,709,710,711,712,713,714,715,716,717,718,719,720,721,722,723,724,725,726,727,728,729,730,731,732,733,734,735,736,737,738,739,740,741,742,743,744,745,746,747,748,749,750,751,752,753,754,755,756,757,758,759,760,761,762,763,764,765,766,767,768,769,770,771,772,773,774,775,776,777,778,779,780,781,782,783,784,785,786,787,788,789,790,791,792,793,794,795,796,797,798,799,800,801,802,803,804,805,806,807,808,809,810,811,812,813,814,815,816,817,818,819,820,821,822,823,824,825,826,827,828,829,830,831,832,833,834,835,836,837,838,839,840,841,842,843,844],"tree_info":[0,0,0,0,0,0,0,0,0,0,0,0,0,0,0,0,0,0,0,0,0,0,0,0,0,0,0,0,0,0,0,0,0,0,0,0,0,0,0,0,0,0,0,0,0,0,0,0,0,0,0,0,0,0,0,0,0,0,0,0,0,0,0,0,0,0,0,0,0,0,0,0,0,0,0,0,0,0,0,0,0,0,0,0,0,0,0,0,0,0,0,0,0,0,0,0,0,0,0,0,0,0,0,0,0,0,0,0,0,0,0,0,0,0,0,0,0,0,0,0,0,0,0,0,0,0,0,0,0,0,0,0,0,0,0,0,0,0,0,0,0,0,0,0,0,0,0,0,0,0,0,0,0,0,0,0,0,0,0,0,0,0,0,0,0,0,0,0,0,0,0,0,0,0,0,0,0,0,0,0,0,0,0,0,0,0,0,0,0,0,0,0,0,0,0,0,0,0,0,0,0,0,0,0,0,0,0,0,0,0,0,0,0,0,0,0,0,0,0,0,0,0,0,0,0,0,0,0,0,0,0,0,0,0,0,0,0,0,0,0,0,0,0,0,0,0,0,0,0,0,0,0,0,0,0,0,0,0,0,0,0,0,0,0,0,0,0,0,0,0,0,0,0,0,0,0,0,0,0,0,0,0,0,0,0,0,0,0,0,0,0,0,0,0,0,0,0,0,0,0,0,0,0,0,0,0,0,0,0,0,0,0,0,0,0,0,0,0,0,0,0,0,0,0,0,0,0,0,0,0,0,0,0,0,0,0,0,0,0,0,0,0,0,0,0,0,0,0,0,0,0,0,0,0,0,0,0,0,0,0,0,0,0,0,0,0,0,0,0,0,0,0,0,0,0,0,0,0,0,0,0,0,0,0,0,0,0,0,0,0,0,0,0,0,0,0,0,0,0,0,0,0,0,0,0,0,0,0,0,0,0,0,0,0,0,0,0,0,0,0,0,0,0,0,0,0,0,0,0,0,0,0,0,0,0,0,0,0,0,0,0,0,0,0,0,0,0,0,0,0,0,0,0,0,0,0,0,0,0,0,0,0,0,0,0,0,0,0,0,0,0,0,0,0,0,0,0,0,0,0,0,0,0,0,0,0,0,0,0,0,0,0,0,0,0,0,0,0,0,0,0,0,0,0,0,0,0,0,0,0,0,0,0,0,0,0,0,0,0,0,0,0,0,0,0,0,0,0,0,0,0,0,0,0,0,0,0,0,0,0,0,0,0,0,0,0,0,0,0,0,0,0,0,0,0,0,0,0,0,0,0,0,0,0,0,0,0,0,0,0,0,0,0,0,0,0,0,0,0,0,0,0,0,0,0,0,0,0,0,0,0,0,0,0,0,0,0,0,0,0,0,0,0,0,0,0,0,0,0,0,0,0,0,0,0,0,0,0,0,0,0,0,0,0,0,0,0,0,0,0,0,0,0,0,0,0,0,0,0,0,0,0,0,0,0,0,0,0,0,0,0,0,0,0,0,0,0,0,0,0,0,0,0,0,0,0,0,0,0,0,0,0,0,0,0,0,0,0,0,0,0,0,0,0,0,0,0,0,0,0,0,0,0,0,0,0,0,0,0,0,0,0,0,0,0,0,0,0,0,0,0,0,0,0,0,0,0,0,0,0,0,0,0,0,0,0,0,0,0,0,0,0,0,0,0,0,0,0,0,0,0,0,0,0,0,0,0,0,0,0,0,0,0,0,0,0,0,0,0,0,0,0,0,0,0,0,0,0,0,0,0,0,0,0,0,0,0,0,0,0,0,0,0,0,0,0,0,0,0,0,0,0,0,0,0,0,0,0,0,0,0,0,0,0,0,0,0,0,0,0,0,0,0,0,0,0,0,0,0,0,0,0,0,0,0,0,0,0,0,0,0,0,0,0,0,0,0,0,0,0,0,0,0,0],"trees":[{"base_weights":[-1.2380845E-1,1.08354025E1,-4.199973E0,-4.001072E-2,1.1466358E1,1.1133276E0,-6.4136586E0,9.1167994E-2,2.1433307E-1,3.792744E-2,-4.744573E-2,-8.317381E-2,-1.6409558E-1],"categories":[],"categories_nodes":[],"categories_segments":[],"categories_sizes":[],"default_left":[0,0,0,0,0,0,0,0,0,0,0,0,0],"id":0,"left_children":[1,3,5,-1,7,9,11,-1,-1,-1,-1,-1,-1],"loss_changes":[5.7386265E3,3.80458E2,1.1301849E3,0E0,7.541699E1,1.575081E2,1.655459E2,0E0,0E0,0E0,0E0,0E0,0E0],"parents":[2147483647,0,0,1,1,2,2,4,4,5,5,6,6],"right_children":[2,4,6,-1,8,10,12,-1,-1,-1,-1,-1,-1],"split_conditions":[3.983615E-1,1.689E2,4.5444092E-1,-4.001072E-2,3.626E2,3.0500117E-1,3.9994338E-1,9.1167994E-2,2.1433307E-1,3.792744E-2,-4.744573E-2,-8.317381E-2,-1.6409558E-1],"split_indices":[9,0,9,0,0,10,10,0,0,0,0,0,0],"split_type":[0,0,0,0,0,0,0,0,0,0,0,0,0],"sum_hessian":[1.23E2,3.2E1,9.1E1,1E0,3.1E1,2.7E1,6.4E1,9E0,2.2E1,2.2E1,5E0,5.1E1,1.3E1],"tree_param":{"num_deleted":"0","num_feature":"22","num_nodes":"13","size_leaf_vector":"1"}},{"base_weights":[1.1733722E-1,1.1090135E1,-4.3904114E0,-3.983657E-2,1.167549E1,3.799846E-1,-6.521003E0,9.001757E-2,2.1674743E-1,-5.272741E-2,2.140916E-2,-7.918586E-2,-1.4593655E-1],"categories":[],"categories_nodes":[],"categories_segments":[],"categories_sizes":[],"default_left":[0,0,0,0,0,0,0,0,0,0,0,0,0],"id":1,"left_children":[1,3,5,-1,7,9,11,-1,-1,-1,-1,-1,-1],"loss_changes":[6.417055E3,3.8946143E2,9.4797253E2,0E0,1.0292529E2,1.0948465E2,1.18583984E2,0E0,0E0,0E0,0E0,0E0,0E0],"parents":[2147483647,0,0,1,1,2,2,4,4,5,5,6,6],"right_children":[2,4,6,-1,8,10,12,-1,-1,-1,-1,-1,-1],"split_conditions":[3.983615E-1,1.689E2,4.7197378E-1,-3.983657E-2,3.626E2,1.6484E3,1.1E1,9.001757E-2,2.1674743E-1,-5.272741E-2,2.140916E-2,-7.918586E-2,-1.4593655E-1],"split_indices":[9,0,9,0,0,13,1,0,0,0,0,0,0],"split_type":[0,0,0,0,0,0,0,0,0,0,0,0,0],"sum_hessian":[1.24E2,3.5E1,8.9E1,1E0,3.4E1,2.8E1,6.1E1,9E0,2.5E1,4E0,2.4E1,4E1,2.1E1],"tree_param":{"num_deleted":"0","num_feature":"22","num_nodes":"13","size_leaf_vector":"1"}},{"base_weights":[5.0470126E-3,1.1182544E1,-4.1878843E0,-8.3631337E-1,1.2052948E1,6.4282686E-1,-6.426667E0,-3.9663177E-2,1.6528502E-2,8.960631E-2,2.1944773E-1,-2.3133028E-2,4.0146396E-2,-7.8965954E-2,-1.6036752E-1],"categories":[],"categories_nodes":[],"categories_segments":[],"categories_sizes":[],"default_left":[0,0,0,0,0,0,0,0,0,0,0,0,0,0,0],"id":2,"left_children":[1,3,5,7,9,11,13,-1,-1,-1,-1,-1,-1,-1,-1],"loss_changes":[5.8018374E3,3.9642432E2,9.902866E2,2.2277905E1,2.978418E1,1.2294717E2,1.8545996E2,0E0,0E0,0E0,0E0,0E0,0E0,0E0,0E0],"parents":[2147483647,0,0,1,1,2,2,3,3,4,4,5,5,6,6],"right_children":[2,4,6,8,10,12,14,-1,-1,-1,-1,-1,-1,-1,-1],"split_conditions":[3.983615E-1,3.745E2,4.6209913E-1,1.689E2,3.626E2,2.5E2,3.9994338E-1,-3.9663177E-2,1.6528502E-2,8.960631E-2,2.1944773E-1,-2.3133028E-2,4.0146396E-2,-7.8965954E-2,-1.6036752E-1],"split_indices":[9,8,9,0,0,0,10,0,0,0,0,0,0,0,0],"split_type":[0,0,0,0,0,0,0,0,0,0,0,0,0,0,0],"sum_hessian":[1.18E2,3.1E1,8.7E1,2E0,2.9E1,2.8E1,5.9E1,1E0,1E0,7E0,2.2E1,1.3E1,1.5E1,4.4E1,1.5E1],"tree_param":{"num_deleted":"0","num_feature":"22","num_nodes":"15","size_leaf_vector":"1"}},{"base_weights":[1.4134139E-1,1.09035635E1,-3.9408588E0,-3.949054E-2,1.1497838E1,8.797441E-1,-5.9573975E0,8.742766E-2,2.1025711E-1,5.996874E-2,-2.2219012E-2,-7.278633E-2,-1.438336E-1],"categories":[],"categories_nodes":[],"categories_segments":[],"categories_sizes":[],"default_left":[0,0,0,0,0,0,0,0,0,0,0,0,0],"id":3,"left_children":[1,3,5,-1,7,9,11,-1,-1,-1,-1,-1,-1],"loss_changes":[5.876009E3,3.7937744E2,9.622832E2,0E0,5.749463E1,2.0447745E2,1.6915991E2,0E0,0E0,0E0,0E0,0E0,0E0],"parents":[2147483647,0,0,1,1,2,2,4,4,5,5,6,6],"right_children":[2,4,6,-1,8,10,12,-1,-1,-1,-1,-1,-1],"split_conditions":[3.983615E-1,1.689E2,4.5444092E-1,-3.949054E-2,3.626E2,3.0828518E-1,3.9994338E-1,8.742766E-2,2.1025711E-1,5.996874E-2,-2.2219012E-2,-7.278633E-2,-1.438336E-1],"split_indices":[9,0,9,0,0,12,12,0,0,0,0,0,0],"split_type":[0,0,0,0,0,0,0,0,0,0,0,0,0],"sum_hessian":[1.28E2,3.4E1,9.4E1,1E0,3.3E1,2.8E1,6.6E1,8E0,2.5E1,1.2E1,1.6E1,4.7E1,1.9E1],"tree_param":{"num_deleted":"0","num_feature":"22","num_nodes":"13","size_leaf_vector":"1"}},{"base_weights":[-1.155217E-2,1.0633741E1,-3.9617524E0,-3.9318655E-2,1.1236203E1,8.6792237E-1,-5.9815016E0,7.9922326E-2,2.0840688E-1,-5.2080885E-2,3.0523876E-2,-7.637864E-2,-1.5489288E-1],"categories":[],"categories_nodes":[],"categories_segments":[],"categories_sizes":[],"default_left":[0,0,0,0,0,0,0,0,0,0,0,0,0],"id":4,"left_children":[1,3,5,-1,7,9,11,-1,-1,-1,-1,-1,-1],"loss_changes":[5.567649E3,3.669287E2,9.654634E2,0E0,1.0985303E2,1.353823E2,1.7829175E2,0E0,0E0,0E0,0E0,0E0,0E0],"parents":[2147483647,0,0,1,1,2,2,4,4,5,5,6,6],"right_children":[2,4,6,-1,8,10,12,-1,-1,-1,-1,-1,-1],"split_conditions":[3.983615E-1,1.689E2,4.5444092E-1,-3.9318655E-2,3.626E2,1.6484E3,3.9994338E-1,7.9922326E-2,2.0840688E-1,-5.2080885E-2,3.0523876E-2,-7.637864E-2,-1.5489288E-1],"split_indices":[9,0,9,0,0,13,10,0,0,0,0,0,0],"split_type":[0,0,0,0,0,0,0,0,0,0,0,0,0],"sum_hessian":[1.27E2,3.3E1,9.4E1,1E0,3.2E1,2.8E1,6.6E1,8E0,2.4E1,4E0,2.4E1,5.2E1,1.4E1],"tree_param":{"num_deleted":"0","num_feature":"22","num_nodes":"13","size_leaf_vector":"1"}},{"base_weights":[2.6953462E-1,1.0286143E1,-3.5635436E0,-3.9147522E-2,1.0894982E1,8.5090256E-1,-5.590369E0,1.0646716E-1,2.1631263E-1,5.8754798E-2,-2.2045163E-2,-6.401525E-2,-1.3074248E-1],"categories":[],"categories_nodes":[],"categories_segments":[],"categories_sizes":[],"default_left":[0,0,0,0,0,0,0,0,0,0,0,0,0],"id":5,"left_children":[1,3,5,-1,7,9,11,-1,-1,-1,-1,-1,-1],"loss_changes":[4.826328E3,3.5137598E2,8.31916E2,0E0,6.735889E1,1.9769508E2,1.4893286E2,0E0,0E0,0E0,0E0,0E0,0E0],"parents":[2147483647,0,0,1,1,2,2,4,4,5,5,6,6],"right_children":[2,4,6,-1,8,10,12,-1,-1,-1,-1,-1,-1],"split_conditions":[3.983615E-1,1.689E2,4.5444092E-1,-3.9147522E-2,3.899E2,3.0828518E-1,3.9683044E-1,1.0646716E-1,2.1631263E-1,5.8754798E-2,-2.2045163E-2,-6.401525E-2,-1.3074248E-1],"split_indices":[9,0,9,0,0,12,12,0,0,0,0,0,0],"split_type":[0,0,0,0,0,0,0,0,0,0,0,0,0],"sum_hessian":[1.2E2,3.2E1,8.8E1,1E0,3.1E1,2.8E1,6E1,1.4E1,1.7E1,1.2E1,1.6E1,3.9E1,2.1E1],"tree_param":{"num_deleted":"0","num_feature":"22","num_nodes":"13","size_leaf_vector":"1"}},{"base_weights":[-1.1127078E-1,1.1340927E1,-3.7703907E0,1.1726641E1,3.407318E-2,5.371078E-1,-6.0387125E0,1.8776946E-2,1.975506E-1,2.225786E-2,-4.6049707E-2,-7.528841E-2,-1.454071E-1],"categories":[],"categories_nodes":[],"categories_segments":[],"categories_sizes":[],"default_left":[0,0,0,0,0,0,0,0,0,0,0,0,0],"id":6,"left_children":[1,3,5,7,-1,9,11,-1,-1,-1,-1,-1,-1],"loss_changes":[5.507385E3,2.8286377E1,9.9137695E2,1.2052246E1,0E0,1.0734953E2,1.3992627E2,0E0,0E0,0E0,0E0,0E0,0E0],"parents":[2147483647,0,0,1,1,2,2,3,3,5,5,6,6],"right_children":[2,4,6,8,-1,10,12,-1,-1,-1,-1,-1,-1],"split_conditions":[3.2575554E-1,1.321E2,4.831169E-1,2.88E2,3.407318E-2,1.299E2,1.02E2,1.8776946E-2,1.975506E-1,2.225786E-2,-4.6049707E-2,-7.528841E-2,-1.454071E-1],"split_indices":[9,2,9,0,0,1,1,0,0,0,0,0,0],"split_type":[0,0,0,0,0,0,0,0,0,0,0,0,0],"sum_hessian":[1.26E2,2.9E1,9.7E1,2.7E1,2E0,3.4E1,6.3E1,1E0,2.6E1,2.9E1,5E0,4.6E1,1.7E1],"tree_param":{"num_deleted":"0","num_feature":"22","num_nodes":"13","size_leaf_vector":"1"}},{"base_weights":[2.3812933E-1,1.0370336E1,-3.6223257E0,-3.9074007E-2,1.0963614E1,1.1405877E0,-5.614698E0,1.9180249E-1,5.6476623E-2,5.766802E-2,-1.51462825E-2,-6.628583E-2,-1.3834551E-1],"categories":[],"categories_nodes":[],"categories_segments":[],"categories_sizes":[],"default_left":[0,0,0,0,0,0,0,0,0,0,0,0,0],"id":7,"left_children":[1,3,5,-1,7,9,11,-1,-1,-1,-1,-1,-1],"loss_changes":[5.073846E3,3.5413745E2,9.1388574E2,0E0,3.465088E1,1.5592923E2,1.8521411E2,0E0,0E0,0E0,0E0,0E0,0E0],"parents":[2147483647,0,0,1,1,2,2,4,4,5,5,6,6],"right_children":[2,4,6,-1,8,10,12,-1,-1,-1,-1,-1,-1],"split_conditions":[3.983615E-1,1.266E2,4.5444092E-1,-3.9074007E-2,2.4431382E-1,3.0828518E-1,3.9994338E-1,1.9180249E-1,5.6476623E-2,5.766802E-2,-1.51462825E-2,-6.628583E-2,-1.3834551E-1],"split_indices":[9,3,9,0,11,12,12,0,0,0,0,0,0],"split_type":[0,0,0,0,0,0,0,0,0,0,0,0,0],"sum_hessian":[1.24E2,3.3E1,9.1E1,1E0,3.2E1,2.7E1,6.4E1,2.8E1,4E0,1.2E1,1.5E1,4.5E1,1.9E1],"tree_param":{"num_deleted":"0","num_feature":"22","num_nodes":"13","size_leaf_vector":"1"}},{"base_weights":[-2.1981078E-1,-3.9960127E0,8.794093E0,-6.4232893E0,-9.647753E-1,1.1011442E1,9.970485E-1,-1.2631844E-1,-3.8154624E-2,-4.9335796E-2,3.2063097E-2,7.4534476E-2,1.9966945E-1,-4.090982E-2,5.1530138E-2],"categories":[],"categories_nodes":[],"categories_segments":[],"categories_sizes":[],"default_left":[0,0,0,0,0,0,0,0,0,0,0,0,0,0,0],"id":8,"left_children":[1,3,5,7,9,11,13,-1,-1,-1,-1,-1,-1,-1,-1],"loss_changes":[4.476407E3,6.5583923E2,6.2446826E2,1.9101416E2,2.7980212E2,3.086499E1,1.09091156E2,0E0,0E0,0E0,0E0,0E0,0E0,0E0,0E0],"parents":[2147483647,0,0,1,1,2,2,3,3,4,4,5,5,6,6],"right_children":[2,4,6,8,10,12,14,-1,-1,-1,-1,-1,-1,-1,-1],"split_conditions":[4.688E2,1.5397924E-2,1.893E2,3.133E2,3.719E2,3.626E2,2.89E2,-1.2631844E-1,-3.8154624E-2,-4.9335796E-2,3.2063097E-2,7.4534476E-2,1.9966945E-1,-4.090982E-2,5.1530138E-2],"split_indices":[8,16,3,0,8,0,0,0,0,0,0,0,0,0,0],"split_type":[0,0,0,0,0,0,0,0,0,0,0,0,0,0,0],"sum_hessian":[1.26E2,9E1,3.6E1,4.8E1,4.2E1,2.7E1,9E0,3.5E1,1.3E1,2.5E1,1.7E1,6E0,2.1E1,3E0,6E0],"tree_param":{"num_deleted":"0","num_feature":"22","num_nodes":"15","size_leaf_vector":"1"}},{"base_weights":[7.561583E-2,9.857635E0,-3.7274148E0,-3.8354125E-2,1.0431429E1,3.9633852E-1,-5.67002E0,8.096473E-2,1.9494836E-1,4.5460228E-2,-2.2362946E-2,-6.751546E-2,-1.3362806E-1],"categories":[],"categories_nodes":[],"categories_segments":[],"categories_sizes":[],"default_left":[0,0,0,0,0,0,0,0,0,0,0,0,0],"id":9,"left_children":[1,3,5,-1,7,9,11,-1,-1,-1,-1,-1,-1],"loss_changes":[4.7536914E3,3.2840332E2,7.4855566E2,0E0,7.706543E1,1.428961E2,1.32073E2,0E0,0E0,0E0,0E0,0E0,0E0],"parents":[2147483647,0,0,1,1,2,2,4,4,5,5,6,6],"right_children":[2,4,6,-1,8,10,12,-1,-1,-1,-1,-1,-1],"split_conditions":[3.983615E-1,1.689E2,4.7197378E-1,-3.8354125E-2,3.626E2,3.0828518E-1,3.9994338E-1,8.096473E-2,1.9494836E-1,4.5460228E-2,-2.2362946E-2,-6.751546E-2,-1.3362806E-1],"split_indices":[9,0,9,0,0,12,12,0,0,0,0,0,0],"split_type":[0,0,0,0,0,0,0,0,0,0,0,0,0],"sum_hessian":[1.22E2,3.3E1,8.9E1,1E0,3.2E1,2.9E1,6E1,9E0,2.3E1,1.2E1,1.7E1,4.1E1,1.9E1],"tree_param":{"num_deleted":"0","num_feature":"22","num_nodes":"13","size_leaf_vector":"1"}},{"base_weights":[-0E0,9.408201E0,-3.6527305E0,-3.8187183E-2,9.952343E0,7.2587764E-1,-5.445543E0,7.994305E-2,1.839753E-1,5.5949386E-2,-2.5205147E-2,-6.580992E-2,-1.3192718E-1],"categories":[],"categories_nodes":[],"categories_segments":[],"categories_sizes":[],"default_left":[0,0,0,0,0,0,0,0,0,0,0,0,0],"id":10,"left_children":[1,3,5,-1,7,9,11,-1,-1,-1,-1,-1,-1],"loss_changes":[4.522351E3,3.0889917E2,7.614021E2,0E0,4.2578613E1,1.9483061E2,1.4725232E2,0E0,0E0,0E0,0E0,0E0,0E0],"parents":[2147483647,0,0,1,1,2,2,4,4,5,5,6,6],"right_children":[2,4,6,-1,8,10,12,-1,-1,-1,-1,-1,-1],"split_conditions":[3.983615E-1,1.689E2,4.5444092E-1,-3.8187183E-2,3.626E2,3.0828518E-1,3.9994338E-1,7.994305E-2,1.839753E-1,5.5949386E-2,-2.5205147E-2,-6.580992E-2,-1.3192718E-1],"split_indices":[9,0,9,0,0,12,12,0,0,0,0,0,0],"split_type":[0,0,0,0,0,0,0,0,0,0,0,0,0],"sum_hessian":[1.26E2,3.4E1,9.2E1,1E0,3.3E1,2.7E1,6.5E1,9E0,2.4E1,1.2E1,1.5E1,4.6E1,1.9E1],"tree_param":{"num_deleted":"0","num_feature":"22","num_nodes":"13","size_leaf_vector":"1"}},{"base_weights":[-4.3694083E-2,9.583848E0,-3.9360971E0,-3.802097E-2,1.011694E1,5.331142E-1,-5.784283E0,1.408213E-2,1.6998303E-1,4.890782E-2,-2.4689987E-2,-6.9548436E-2,-1.3388783E-1],"categories":[],"categories_nodes":[],"categories_segments":[],"categories_sizes":[],"default_left":[0,0,0,0,0,0,0,0,0,0,0,0,0],"id":11,"left_children":[1,3,5,-1,7,9,11,-1,-1,-1,-1,-1,-1],"loss_changes":[4.9250913E3,3.1472412E2,7.902584E2,0E0,1.4218506E1,1.6047585E2,1.324336E2,0E0,0E0,0E0,0E0,0E0,0E0],"parents":[2147483647,0,0,1,1,2,2,4,4,5,5,6,6],"right_children":[2,4,6,-1,8,10,12,-1,-1,-1,-1,-1,-1],"split_conditions":[3.983615E-1,1.266E2,4.7197378E-1,-3.802097E-2,3.739E2,3.0828518E-1,3.9994338E-1,1.408213E-2,1.6998303E-1,4.890782E-2,-2.4689987E-2,-6.9548436E-2,-1.3388783E-1],"split_indices":[9,3,9,0,8,12,12,0,0,0,0,0,0],"split_type":[0,0,0,0,0,0,0,0,0,0,0,0,0],"sum_hessian":[1.26E2,3.5E1,9.1E1,1E0,3.4E1,2.7E1,6.4E1,1E0,3.3E1,1.2E1,1.5E1,4.3E1,2.1E1],"tree_param":{"num_deleted":"0","num_feature":"22","num_nodes":"13","size_leaf_vector":"1"}},{"base_weights":[-2.328949E-1,9.278795E0,-3.6311224E0,-3.7855476E-2,9.866435E0,4.745577E-1,-5.4805264E0,7.7461995E-2,1.8131526E-1,4.682237E-2,-2.1302514E-2,-6.476004E-2,-1.3369924E-1],"categories":[],"categories_nodes":[],"categories_segments":[],"categories_sizes":[],"default_left":[0,0,0,0,0,0,0,0,0,0,0,0,0],"id":12,"left_children":[1,3,5,-1,7,9,11,-1,-1,-1,-1,-1,-1],"loss_changes":[4.153325E3,3.0283594E2,7.336261E2,0E0,2.1565186E1,1.4417644E2,1.6382092E2,0E0,0E0,0E0,0E0,0E0,0E0],"parents":[2147483647,0,0,1,1,2,2,4,4,5,5,6,6],"right_children":[2,4,6,-1,8,10,12,-1,-1,-1,-1,-1,-1],"split_conditions":[3.983615E-1,1.689E2,4.7197378E-1,-3.7855476E-2,3.626E2,3.0828518E-1,3.9994338E-1,7.7461995E-2,1.8131526E-1,4.682237E-2,-2.1302514E-2,-6.476004E-2,-1.3369924E-1],"split_indices":[9,0,9,0,0,12,12,0,0,0,0,0,0],"split_type":[0,0,0,0,0,0,0,0,0,0,0,0,0],"sum_hessian":[1.23E2,3.1E1,9.2E1,1E0,3E1,2.9E1,6.3E1,8E0,2.2E1,1.2E1,1.7E1,4.4E1,1.9E1],"tree_param":{"num_deleted":"0","num_feature":"22","num_nodes":"13","size_leaf_vector":"1"}},{"base_weights":[-2.4277268E-1,8.805764E0,-3.6307275E0,-3.7690714E-2,9.344954E0,8.2449925E-1,-5.3419394E0,7.6030426E-2,1.7295669E-1,5.4150417E-2,-1.8701931E-2,-6.259307E-2,-1.2998128E-1],"categories":[],"categories_nodes":[],"categories_segments":[],"categories_sizes":[],"default_left":[0,0,0,0,0,0,0,0,0,0,0,0,0],"id":13,"left_children":[1,3,5,-1,7,9,11,-1,-1,-1,-1,-1,-1],"loss_changes":[4.0313926E3,2.8277515E2,7.485857E2,0E0,2.8990234E1,1.5097162E2,1.751654E2,0E0,0E0,0E0,0E0,0E0,0E0],"parents":[2147483647,0,0,1,1,2,2,4,4,5,5,6,6],"right_children":[2,4,6,-1,8,10,12,-1,-1,-1,-1,-1,-1],"split_conditions":[3.983615E-1,1.689E2,4.5444092E-1,-3.7690714E-2,3.626E2,3.0828518E-1,3.9994338E-1,7.6030426E-2,1.7295669E-1,5.4150417E-2,-1.8701931E-2,-6.259307E-2,-1.2998128E-1],"split_indices":[9,0,9,0,0,12,12,0,0,0,0,0,0],"split_type":[0,0,0,0,0,0,0,0,0,0,0,0,0],"sum_hessian":[1.26E2,3.3E1,9.3E1,1E0,3.2E1,2.6E1,6.7E1,9E0,2.3E1,1.1E1,1.5E1,4.6E1,2.1E1],"tree_param":{"num_deleted":"0","num_feature":"22","num_nodes":"13","size_leaf_vector":"1"}},{"base_weights":[1.0456118E-1,9.240037E0,-3.3348122E0,9.790622E0,-3.7526656E-2,7.716473E-1,-5.1078568E0,1.6986893E-1,3.695138E-2,5.318821E-2,-1.981128E-2,-5.961657E-2,-1.2430416E-1],"categories":[],"categories_nodes":[],"categories_segments":[],"categories_sizes":[],"default_left":[0,0,0,0,0,0,0,0,0,0,0,0,0],"id":14,"left_children":[1,3,5,7,-1,9,11,-1,-1,-1,-1,-1,-1],"loss_changes":[4.109568E3,2.9882568E2,7.0692175E2,4.4549805E1,0E0,1.6154793E2,1.5145142E2,0E0,0E0,0E0,0E0,0E0,0E0],"parents":[2147483647,0,0,1,1,2,2,3,3,5,5,6,6],"right_children":[2,4,6,8,-1,10,12,-1,-1,-1,-1,-1,-1],"split_conditions":[3.983615E-1,1.436E2,4.5444092E-1,2.4431382E-1,-3.7526656E-2,3.0828518E-1,3.9994338E-1,1.6986893E-1,3.695138E-2,5.318821E-2,-1.981128E-2,-5.961657E-2,-1.2430416E-1],"split_indices":[9,2,9,11,0,12,12,0,0,0,0,0,0],"split_type":[0,0,0,0,0,0,0,0,0,0,0,0,0],"sum_hessian":[1.25E2,3.3E1,9.2E1,3.2E1,1E0,2.8E1,6.4E1,2.9E1,3E0,1.2E1,1.6E1,4.4E1,2E1],"tree_param":{"num_deleted":"0","num_feature":"22","num_nodes":"13","size_leaf_vector":"1"}},{"base_weights":[1.5030546E-1,9.02952E0,-3.4186118E0,9.543444E0,-3.736332E-2,5.2673846E-1,-4.9724736E0,1.8441279E-1,9.4339944E-2,4.9975906E-2,-1.9532308E-2,-5.738795E-2,-1.2340716E-1],"categories":[],"categories_nodes":[],"categories_segments":[],"categories_sizes":[],"default_left":[0,0,0,0,0,0,0,0,0,0,0,0,0],"id":15,"left_children":[1,3,5,7,-1,9,11,-1,-1,-1,-1,-1,-1],"loss_changes":[4.17539E3,2.89125E2,5.881687E2,2.6527344E1,0E0,1.3498413E2,1.6684192E2,0E0,0E0,0E0,0E0,0E0,0E0],"parents":[2147483647,0,0,1,1,2,2,3,3,5,5,6,6],"right_children":[2,4,6,8,-1,10,12,-1,-1,-1,-1,-1,-1],"split_conditions":[3.983615E-1,1.436E2,4.3828264E-1,2.45E1,-3.736332E-2,3.0828518E-1,3.9994338E-1,1.8441279E-1,9.4339944E-2,4.9975906E-2,-1.9532308E-2,-5.738795E-2,-1.2340716E-1],"split_indices":[9,2,9,2,0,12,12,0,0,0,0,0,0],"split_type":[0,0,0,0,0,0,0,0,0,0,0,0,0],"sum_hessian":[1.26E2,3.5E1,9.1E1,3.4E1,1E0,2.6E1,6.5E1,2E1,1.4E1,1E1,1.6E1,4.5E1,2E1],"tree_param":{"num_deleted":"0","num_feature":"22","num_nodes":"13","size_leaf_vector":"1"}},{"base_weights":[1.9537131E-1,9.017787E0,-3.411768E0,-3.7200693E-2,9.544693E0,1.055322E0,-5.105743E0,1.8666464E-1,9.303922E-2,5.2146215E-2,-1.4567083E-2,-5.445547E-2,-1.24290064E-1],"categories":[],"categories_nodes":[],"categories_segments":[],"categories_sizes":[],"default_left":[0,0,0,0,0,0,0,0,0,0,0,0,0],"id":16,"left_children":[1,3,5,-1,7,9,11,-1,-1,-1,-1,-1,-1],"loss_changes":[4.0333032E3,2.8805908E2,6.9990027E2,0E0,4.412207E1,1.1946887E2,2.0397656E2,0E0,0E0,0E0,0E0,0E0,0E0],"parents":[2147483647,0,0,1,1,2,2,4,4,5,5,6,6],"right_children":[2,4,6,-1,8,10,12,-1,-1,-1,-1,-1,-1],"split_conditions":[3.983615E-1,1.689E2,4.5444092E-1,-3.7200693E-2,6.1326656E-2,3.0828518E-1,3.9683044E-1,1.8666464E-1,9.303922E-2,5.2146215E-2,-1.4567083E-2,-5.445547E-2,-1.24290064E-1],"split_indices":[9,0,9,0,11,12,12,0,0,0,0,0,0],"split_type":[0,0,0,0,0,0,0,0,0,0,0,0,0],"sum_hessian":[1.21E2,3.4E1,8.7E1,1E0,3.3E1,2.4E1,6.3E1,1.9E1,1.4E1,1.1E1,1.3E1,4E1,2.3E1],"tree_param":{"num_deleted":"0","num_feature":"22","num_nodes":"13","size_leaf_vector":"1"}},{"base_weights":[1.1308904E-1,-3.4098387E0,7.804559E0,-5.4076157E0,-1.4003849E-1,9.64387E0,7.4488595E-2,-1.0407637E-1,-2.887817E-2,4.4220462E-2,-3.726728E-2,6.412288E-2,1.7767563E-1,-3.57317E-2,3.1034313E-2],"categories":[],"categories_nodes":[],"categories_segments":[],"categories_sizes":[],"default_left":[0,0,0,0,0,0,0,0,0,0,0,0,0,0,0],"id":17,"left_children":[1,3,5,7,9,11,13,-1,-1,-1,-1,-1,-1,-1,-1],"loss_changes":[3.516147E3,5.707505E2,5.654758E2,1.3586536E2,2.349372E2,7.141724E1,5.443727E1,0E0,0E0,0E0,0E0,0E0,0E0,0E0,0E0],"parents":[2147483647,0,0,1,1,2,2,3,3,4,4,5,5,6,6],"right_children":[2,4,6,8,10,12,14,-1,-1,-1,-1,-1,-1,-1,-1],"split_conditions":[4.4E2,6.5E0,1.893E2,3.133E2,3.1998917E-1,3.626E2,3.07E2,-1.0407637E-1,-2.887817E-2,4.4220462E-2,-3.726728E-2,6.412288E-2,1.7767563E-1,-3.57317E-2,3.1034313E-2],"split_indices":[8,4,3,0,11,0,0,0,0,0,0,0,0,0,0],"split_type":[0,0,0,0,0,0,0,0,0,0,0,0,0,0,0],"sum_hessian":[1.24E2,8.6E1,3.8E1,5.2E1,3.4E1,3E1,8E0,4E1,1.2E1,1.4E1,2E1,7E0,2.3E1,3E0,5E0],"tree_param":{"num_deleted":"0","num_feature":"22","num_nodes":"15","size_leaf_vector":"1"}},{"base_weights":[9.4621435E-2,-3.1176932E0,8.093083E0,-4.989606E0,-0E0,9.572706E0,2.3245301E-2,-8.9816615E-2,2.3377419E-2,-3.5711538E-2,4.6627045E-2,6.3365124E-2,1.7719503E-1,-3.6503524E-2,2.9428883E-2],"categories":[],"categories_nodes":[],"categories_segments":[],"categories_sizes":[],"default_left":[0,0,0,0,0,0,0,0,0,0,0,0,0,0,0],"id":18,"left_children":[1,3,5,7,9,11,13,-1,-1,-1,-1,-1,-1,-1,-1],"loss_changes":[3.3865288E3,5.521818E2,4.3826978E2,1.9175757E2,2.4756058E2,7.370337E1,4.4878E1,0E0,0E0,0E0,0E0,0E0,0E0,0E0,0E0],"parents":[2147483647,0,0,1,1,2,2,3,3,4,4,5,5,6,6],"right_children":[2,4,6,8,10,12,14,-1,-1,-1,-1,-1,-1,-1,-1],"split_conditions":[4.857E2,6.5E0,1.893E2,3.87E2,2.182E2,3.626E2,3.07E2,-8.9816615E-2,2.3377419E-2,-3.5711538E-2,4.6627045E-2,6.3365124E-2,1.7719503E-1,-3.6503524E-2,2.9428883E-2],"split_indices":[8,4,3,0,0,0,0,0,0,0,0,0,0,0,0],"split_type":[0,0,0,0,0,0,0,0,0,0,0,0,0,0,0],"sum_hessian":[1.26E2,9.1E1,3.5E1,5.6E1,3.5E1,2.9E1,6E0,5.3E1,3E0,2E1,1.5E1,7E0,2.2E1,2E0,4E0],"tree_param":{"num_deleted":"0","num_feature":"22","num_nodes":"15","size_leaf_vector":"1"}},{"base_weights":[-1.12303376E-1,9.121435E0,-3.31759E0,6.858604E-2,1.0206028E1,5.877868E-1,-4.836247E0,1.9428791E-1,8.355932E-2,4.996466E-2,-1.7977225E-2,-5.835114E-2,-1.1563572E-1],"categories":[],"categories_nodes":[],"categories_segments":[],"categories_sizes":[],"default_left":[0,0,0,0,0,0,0,0,0,0,0,0,0],"id":19,"left_children":[1,3,5,-1,7,9,11,-1,-1,-1,-1,-1,-1],"loss_changes":[3.7709626E3,3.987744E1,5.757466E2,0E0,8.4453125E0,1.2896638E2,1.1123987E2,0E0,0E0,0E0,0E0,0E0,0E0],"parents":[2147483647,0,0,1,1,2,2,4,4,5,5,6,6],"right_children":[2,4,6,-1,8,10,12,-1,-1,-1,-1,-1,-1],"split_conditions":[3.983615E-1,3.626E2,4.5444092E-1,6.858604E-2,2.45E1,3.0828518E-1,3.9994338E-1,1.9428791E-1,8.355932E-2,4.996466E-2,-1.7977225E-2,-5.835114E-2,-1.1563572E-1],"split_indices":[9,0,9,0,2,12,12,0,0,0,0,0,0],"split_type":[0,0,0,0,0,0,0,0,0,0,0,0,0],"sum_hessian":[1.22E2,3E1,9.2E1,8E0,2.2E1,2.6E1,6.6E1,1.4E1,8E0,1E1,1.6E1,4.6E1,2E1],"tree_param":{"num_deleted":"0","num_feature":"22","num_nodes":"13","size_leaf_vector":"1"}},{"base_weights":[1.245303E-1,-2.8133445E0,7.93049E0,-4.684343E0,3.2067743E-1,9.402655E0,-5.630972E-1,-3.9613206E-2,-9.759606E-2,4.9907647E-2,-2.2842703E-2,1.6119008E-1,2.6699407E-2,-4.843701E-2,3.890751E-2],"categories":[],"categories_nodes":[],"categories_segments":[],"categories_sizes":[],"default_left":[0,0,0,0,0,0,0,0,0,0,0,0,0,0,0],"id":20,"left_children":[1,3,5,7,9,11,13,-1,-1,-1,-1,-1,-1,-1,-1],"loss_changes":[3.0000225E3,5.65772E2,4.7398218E2,1.1591858E2,1.8712805E2,2.2491455E1,7.37873E1,0E0,0E0,0E0,0E0,0E0,0E0,0E0,0E0],"parents":[2147483647,0,0,1,1,2,2,3,3,4,4,5,5,6,6],"right_children":[2,4,6,8,10,12,14,-1,-1,-1,-1,-1,-1,-1,-1],"split_conditions":[4.857E2,3.584E2,1.893E2,1.885E2,3.0828518E-1,1.321E2,2.45E1,-3.9613206E-2,-9.759606E-2,4.9907647E-2,-2.2842703E-2,1.6119008E-1,2.6699407E-2,-4.843701E-2,3.890751E-2],"split_indices":[8,8,3,3,12,2,2,0,0,0,0,0,0,0,0],"split_type":[0,0,0,0,0,0,0,0,0,0,0,0,0,0,0],"sum_hessian":[1.25E2,9.2E1,3.3E1,5.7E1,3.5E1,2.8E1,5E0,2.3E1,3.4E1,1.3E1,2.2E1,2.6E1,2E0,3E0,2E0],"tree_param":{"num_deleted":"0","num_feature":"22","num_nodes":"15","size_leaf_vector":"1"}},{"base_weights":[-1.6083561E-3,5.4355674E0,-4.736152E0,8.926348E0,1.6446054E0,-3.4790363E0,-1.2652571E-1,5.1696237E-2,1.6035084E-1,-1.2328769E-2,4.792065E-2,-6.1177168E-2,9.740054E-3],"categories":[],"categories_nodes":[],"categories_segments":[],"categories_sizes":[],"default_left":[0,0,0,0,0,0,0,0,0,0,0,0,0],"id":21,"left_children":[1,3,5,7,9,11,-1,-1,-1,-1,-1,-1,-1],"loss_changes":[3.2581833E3,7.2328064E2,1.5907703E2,3.069751E1,1.0394648E2,5.699774E1,0E0,0E0,0E0,0E0,0E0,0E0,0E0],"parents":[2147483647,0,0,1,1,2,2,3,3,4,4,5,5],"right_children":[2,4,6,8,10,12,-1,-1,-1,-1,-1,-1,-1],"split_conditions":[4.5444092E-1,3.2575554E-1,3.9994338E-1,3.626E2,2.138E2,3.87E2,-1.2652571E-1,5.1696237E-2,1.6035084E-1,-1.2328769E-2,4.792065E-2,-6.1177168E-2,9.740054E-3],"split_indices":[9,9,10,0,0,0,0,0,0,0,0,0,0],"split_type":[0,0,0,0,0,0,0,0,0,0,0,0,0],"sum_hessian":[1.21E2,5.6E1,6.5E1,2.7E1,2.9E1,5E1,1.5E1,5E0,2.2E1,1E1,1.9E1,4.8E1,2E0],"tree_param":{"num_deleted":"0","num_feature":"22","num_nodes":"13","size_leaf_vector":"1"}},{"base_weights":[1.3132437E-1,8.309419E0,-3.10176E0,-3.6340278E-2,8.811018E0,8.2522666E-1,-4.7679825E0,6.598616E-2,1.6489398E-1,4.8592847E-2,-1.6336298E-2,-5.390462E-2,-1.15744114E-1],"categories":[],"categories_nodes":[],"categories_segments":[],"categories_sizes":[],"default_left":[0,0,0,0,0,0,0,0,0,0,0,0,0],"id":22,"left_children":[1,3,5,-1,7,9,11,-1,-1,-1,-1,-1,-1],"loss_changes":[3.4316694E3,2.5673975E2,6.2336957E2,0E0,6.985034E1,1.2470784E2,1.4414832E2,0E0,0E0,0E0,0E0,0E0,0E0],"parents":[2147483647,0,0,1,1,2,2,4,4,5,5,6,6],"right_children":[2,4,6,-1,8,10,12,-1,-1,-1,-1,-1,-1],"split_conditions":[3.983615E-1,1.689E2,4.5444092E-1,-3.6340278E-2,3.626E2,3.0828518E-1,3.9994338E-1,6.598616E-2,1.6489398E-1,4.8592847E-2,-1.6336298E-2,-5.390462E-2,-1.15744114E-1],"split_indices":[9,0,9,0,0,12,12,0,0,0,0,0,0],"split_type":[0,0,0,0,0,0,0,0,0,0,0,0,0],"sum_hessian":[1.24E2,3.4E1,9E1,1E0,3.3E1,2.7E1,6.3E1,9E0,2.4E1,1.2E1,1.5E1,4.2E1,2.1E1],"tree_param":{"num_deleted":"0","num_feature":"22","num_nodes":"13","size_leaf_vector":"1"}},{"base_weights":[-0E0,7.9814835E0,-3.035908E0,-3.6182098E-2,8.487028E0,9.249454E-1,-4.6121693E0,5.8854695E-2,1.5782918E-1,-4.770521E-2,3.1722963E-2,-5.273377E-2,-1.154363E-1],"categories":[],"categories_nodes":[],"categories_segments":[],"categories_sizes":[],"default_left":[0,0,0,0,0,0,0,0,0,0,0,0,0],"id":23,"left_children":[1,3,5,-1,7,9,11,-1,-1,-1,-1,-1,-1],"loss_changes":[3.145253E3,2.4421655E2,6.023784E2,0E0,6.831616E1,1.23052925E2,1.5296057E2,0E0,0E0,0E0,0E0,0E0,0E0],"parents":[2147483647,0,0,1,1,2,2,4,4,5,5,6,6],"right_children":[2,4,6,-1,8,10,12,-1,-1,-1,-1,-1,-1],"split_conditions":[3.983615E-1,1.689E2,4.5444092E-1,-3.6182098E-2,3.626E2,1.6484E3,3.9994338E-1,5.8854695E-2,1.5782918E-1,-4.770521E-2,3.1722963E-2,-5.273377E-2,-1.154363E-1],"split_indices":[9,0,9,0,0,13,12,0,0,0,0,0,0],"split_type":[0,0,0,0,0,0,0,0,0,0,0,0,0],"sum_hessian":[1.24E2,3.3E1,9.1E1,1E0,3.2E1,2.6E1,6.5E1,8E0,2.4E1,4E0,2.2E1,4.5E1,2E1],"tree_param":{"num_deleted":"0","num_feature":"22","num_nodes":"13","size_leaf_vector":"1"}},{"base_weights":[-2.1785244E-1,8.470326E0,-2.906176E0,1.4492527E-1,2.5298651E-2,7.989061E-1,-4.6269975E0,4.9657363E-2,-1.8482614E-2,-5.37958E-2,-1.12369075E-1],"categories":[],"categories_nodes":[],"categories_segments":[],"categories_sizes":[],"default_left":[0,0,0,0,0,0,0,0,0,0,0],"id":24,"left_children":[1,3,5,-1,-1,7,9,-1,-1,-1,-1],"loss_changes":[3.04675E3,1.072876E1,6.516444E2,0E0,0E0,1.5444948E2,1.2994238E2,0E0,0E0,0E0,0E0],"parents":[2147483647,0,0,1,1,2,2,5,5,6,6],"right_children":[2,4,6,-1,-1,8,10,-1,-1,-1,-1],"split_conditions":[3.2575554E-1,1.321E2,4.5444092E-1,1.4492527E-1,2.5298651E-2,3.3964974E-1,3.9994338E-1,4.9657363E-2,-1.8482614E-2,-5.37958E-2,-1.12369075E-1],"split_indices":[9,2,9,0,0,12,12,0,0,0,0],"split_type":[0,0,0,0,0,0,0,0,0,0,0],"sum_hessian":[1.25E2,2.8E1,9.7E1,2.6E1,2E0,3.1E1,6.6E1,1.4E1,1.7E1,4.5E1,2.1E1],"tree_param":{"num_deleted":"0","num_feature":"22","num_nodes":"11","size_leaf_vector":"1"}},{"base_weights":[-1.14986345E-1,7.618877E0,-2.9643917E0,-3.5944168E-2,8.127033E0,7.12362E-1,-4.4017253E0,5.7370435E-2,1.5132104E-1,4.684926E-2,-1.9786663E-2,-5.220532E-2,-1.0709448E-1],"categories":[],"categories_nodes":[],"categories_segments":[],"categories_sizes":[],"default_left":[0,0,0,0,0,0,0,0,0,0,0,0,0],"id":25,"left_children":[1,3,5,-1,7,9,11,-1,-1,-1,-1,-1,-1],"loss_changes":[2.8515422E3,2.303512E2,5.145792E2,0E0,5.5124756E1,1.2806442E2,1.0787927E2,0E0,0E0,0E0,0E0,0E0,0E0],"parents":[2147483647,0,0,1,1,2,2,4,4,5,5,6,6],"right_children":[2,4,6,-1,8,10,12,-1,-1,-1,-1,-1,-1],"split_conditions":[3.983615E-1,1.689E2,4.5444092E-1,-3.5944168E-2,3.626E2,3.0828518E-1,3.9994338E-1,5.7370435E-2,1.5132104E-1,4.684926E-2,-1.9786663E-2,-5.220532E-2,-1.0709448E-1],"split_indices":[9,0,9,0,0,12,12,0,0,0,0,0,0],"split_type":[0,0,0,0,0,0,0,0,0,0,0,0,0],"sum_hessian":[1.24E2,3.2E1,9.2E1,1E0,3.1E1,2.6E1,6.6E1,8E0,2.3E1,1.2E1,1.4E1,4.6E1,2E1],"tree_param":{"num_deleted":"0","num_feature":"22","num_nodes":"13","size_leaf_vector":"1"}},{"base_weights":[7.474343E-2,7.720394E0,-2.9624176E0,8.188909E0,-3.5787717E-2,5.286077E-1,-4.4673095E0,1.6058826E-1,7.7579305E-2,-4.6868593E-2,2.27486E-2,-5.640897E-2,-1.1534431E-1],"categories":[],"categories_nodes":[],"categories_segments":[],"categories_sizes":[],"default_left":[0,0,0,0,0,0,0,0,0,0,0,0,0],"id":26,"left_children":[1,3,5,7,-1,9,11,-1,-1,-1,-1,-1,-1],"loss_changes":[3.0843906E3,2.3248804E2,5.097854E2,4.9133545E1,0E0,9.6619514E1,9.691345E1,0E0,0E0,0E0,0E0,0E0,0E0],"parents":[2147483647,0,0,1,1,2,2,3,3,5,5,6,6],"right_children":[2,4,6,8,-1,10,12,-1,-1,-1,-1,-1,-1],"split_conditions":[3.983615E-1,1.436E2,4.7197378E-1,2.45E1,-3.5787717E-2,1.6484E3,3.9994338E-1,1.6058826E-1,7.7579305E-2,-4.6868593E-2,2.27486E-2,-5.640897E-2,-1.1534431E-1],"split_indices":[9,2,9,2,0,13,10,0,0,0,0,0,0],"split_type":[0,0,0,0,0,0,0,0,0,0,0,0,0],"sum_hessian":[1.27E2,3.5E1,9.2E1,3.4E1,1E0,2.8E1,6.4E1,2E1,1.4E1,4E0,2.4E1,5E1,1.4E1],"tree_param":{"num_deleted":"0","num_feature":"22","num_nodes":"13","size_leaf_vector":"1"}},{"base_weights":[-1.1691232E-1,-2.3979461E0,8.25564E0,-4.3392234E0,3.956123E-1,1.4206931E-1,2.419418E-2,-4.660182E-2,-1.1375037E-1,3.815647E-2,-3.4482595E-2],"categories":[],"categories_nodes":[],"categories_segments":[],"categories_sizes":[],"default_left":[0,0,0,0,0,0,0,0,0,0,0],"id":27,"left_children":[1,3,5,7,9,-1,-1,-1,-1,-1,-1],"loss_changes":[2.3931248E3,5.457422E2,1.1903809E1,1.6018677E2,2.1649593E2,0E0,0E0,0E0,0E0,0E0,0E0],"parents":[2147483647,0,0,1,1,2,2,3,3,4,4],"right_children":[2,4,6,8,10,-1,-1,-1,-1,-1,-1],"split_conditions":[5.19E2,6.5E0,1.321E2,3.9994338E-1,3.3964974E-1,1.4206931E-1,2.419418E-2,-4.660182E-2,-1.1375037E-1,3.815647E-2,-3.4482595E-2],"split_indices":[8,4,2,10,11,0,0,0,0,0,0],"split_type":[0,0,0,0,0,0,0,0,0,0,0],"sum_hessian":[1.2E2,9.6E1,2.4E1,5.6E1,4E1,2.2E1,2E0,3.9E1,1.7E1,2.3E1,1.7E1],"tree_param":{"num_deleted":"0","num_feature":"22","num_nodes":"11","size_leaf_vector":"1"}},{"base_weights":[-2.101474E-1,7.111699E0,-2.7823179E0,-3.542911E-2,7.6490407E0,7.518401E-1,-4.412249E0,6.764304E-2,1.5774438E-1,-6.8871058E-3,3.3369612E-2,-8.3700895E-2,-2.1039516E-2],"categories":[],"categories_nodes":[],"categories_segments":[],"categories_sizes":[],"default_left":[0,0,0,0,0,0,0,0,0,0,0,0,0],"id":28,"left_children":[1,3,5,-1,7,9,11,-1,-1,-1,-1,-1,-1],"loss_changes":[2.3060374E3,2.1115698E2,5.371072E2,0E0,7.978491E1,4.9937943E1,1.0120947E2,0E0,0E0,0E0,0E0,0E0,0E0],"parents":[2147483647,0,0,1,1,2,2,4,4,5,5,6,6],"right_children":[2,4,6,-1,8,10,12,-1,-1,-1,-1,-1,-1],"split_conditions":[3.8531864E-1,1.689E2,4.831169E-1,-3.542911E-2,3.886E2,7.775E2,3.133E2,6.764304E-2,1.5774438E-1,-6.8871058E-3,3.3369612E-2,-8.3700895E-2,-2.1039516E-2],"split_indices":[9,0,9,0,0,6,0,0,0,0,0,0,0],"split_type":[0,0,0,0,0,0,0,0,0,0,0,0,0],"sum_hessian":[1.17E2,2.9E1,8.8E1,1E0,2.8E1,2.8E1,6E1,1.3E1,1.5E1,1.5E1,1.3E1,4.8E1,1.2E1],"tree_param":{"num_deleted":"0","num_feature":"22","num_nodes":"13","size_leaf_vector":"1"}},{"base_weights":[1.3117246E-1,7.4017897E0,-2.5853446E0,-3.52749E-2,7.898975E0,9.629305E-1,-4.102035E0,8.0351755E-2,1.6210458E-1,2.647098E-2,-2.7441941E-2,-7.573278E-2,-0E0],"categories":[],"categories_nodes":[],"categories_segments":[],"categories_sizes":[],"default_left":[0,0,0,0,0,0,0,0,0,0,0,0,0],"id":29,"left_children":[1,3,5,-1,7,9,11,-1,-1,-1,-1,-1,-1],"loss_changes":[2.5247969E3,2.1963013E2,5.1456995E2,0E0,4.2873535E1,5.710681E1,1.24542725E2,0E0,0E0,0E0,0E0,0E0,0E0],"parents":[2147483647,0,0,1,1,2,2,4,4,5,5,6,6],"right_children":[2,4,6,-1,8,10,12,-1,-1,-1,-1,-1,-1],"split_conditions":[3.983615E-1,1.689E2,4.5444092E-1,-3.52749E-2,3.899E2,3.0500117E-1,3.49E2,8.0351755E-2,1.6210458E-1,2.647098E-2,-2.7441941E-2,-7.573278E-2,-0E0],"split_indices":[9,0,9,0,0,10,0,0,0,0,0,0,0],"split_type":[0,0,0,0,0,0,0,0,0,0,0,0,0],"sum_hessian":[1.22E2,3.2E1,9E1,1E0,3.1E1,2.7E1,6.3E1,1.6E1,1.5E1,2.3E1,4E0,5.6E1,7E0],"tree_param":{"num_deleted":"0","num_feature":"22","num_nodes":"13","size_leaf_vector":"1"}},{"base_weights":[2.5069562E-1,7.302071E0,-2.6151614E0,-3.5121366E-2,7.7550583E0,5.6565815E-1,-3.9641619E0,1.5303676E-1,7.2103254E-2,4.4170823E-2,-1.6444728E-2,-4.0426023E-2,-9.718936E-2],"categories":[],"categories_nodes":[],"categories_segments":[],"categories_sizes":[],"default_left":[0,0,0,0,0,0,0,0,0,0,0,0,0],"id":30,"left_children":[1,3,5,-1,7,9,11,-1,-1,-1,-1,-1,-1],"loss_changes":[2.6422349E3,2.1481897E2,4.0890356E2,0E0,5.6168457E1,1.0738418E2,1.4009802E2,0E0,0E0,0E0,0E0,0E0,0E0],"parents":[2147483647,0,0,1,1,2,2,4,4,5,5,6,6],"right_children":[2,4,6,-1,8,10,12,-1,-1,-1,-1,-1,-1],"split_conditions":[3.983615E-1,1.689E2,4.5444092E-1,-3.5121366E-2,6.1326656E-2,3.0828518E-1,3.9683044E-1,1.5303676E-1,7.2103254E-2,4.4170823E-2,-1.6444728E-2,-4.0426023E-2,-9.718936E-2],"split_indices":[9,0,9,0,11,12,12,0,0,0,0,0,0],"split_type":[0,0,0,0,0,0,0,0,0,0,0,0,0],"sum_hessian":[1.25E2,3.5E1,9E1,1E0,3.4E1,2.7E1,6.3E1,2E1,1.4E1,1.1E1,1.6E1,3.9E1,2.4E1],"tree_param":{"num_deleted":"0","num_feature":"22","num_nodes":"13","size_leaf_vector":"1"}},{"base_weights":[5.9204977E-3,6.9392486E0,-2.6550393E0,-3.496849E-2,7.4068336E0,7.3036504E-1,-4.0949984E0,5.1164873E-2,1.3771941E-1,-4.5203943E-2,2.6708448E-2,-4.970202E-2,-1.1085341E-1],"categories":[],"categories_nodes":[],"categories_segments":[],"categories_sizes":[],"default_left":[0,0,0,0,0,0,0,0,0,0,0,0,0],"id":31,"left_children":[1,3,5,-1,7,9,11,-1,-1,-1,-1,-1,-1],"loss_changes":[2.3781365E3,2.022749E2,4.651449E2,0E0,5.0637207E1,1.0208704E2,1.1802893E2,0E0,0E0,0E0,0E0,0E0,0E0],"parents":[2147483647,0,0,1,1,2,2,4,4,5,5,6,6],"right_children":[2,4,6,-1,8,10,12,-1,-1,-1,-1,-1,-1],"split_conditions":[3.983615E-1,1.689E2,4.5444092E-1,-3.496849E-2,3.626E2,1.6484E3,3.9994338E-1,5.1164873E-2,1.3771941E-1,-4.5203943E-2,2.6708448E-2,-4.970202E-2,-1.1085341E-1],"split_indices":[9,0,9,0,0,13,10,0,0,0,0,0,0],"split_type":[0,0,0,0,0,0,0,0,0,0,0,0,0],"sum_hessian":[1.23E2,3.3E1,9E1,1E0,3.2E1,2.7E1,6.3E1,8E0,2.4E1,4E0,2.3E1,4.9E1,1.4E1],"tree_param":{"num_deleted":"0","num_feature":"22","num_nodes":"13","size_leaf_vector":"1"}},{"base_weights":[-0E0,7.092991E0,-2.8612194E0,-3.4816284E-2,7.538392E0,2.0643103E-1,-4.129219E0,1.4913087E-1,6.955124E-2,3.5666097E-2,-1.6831208E-2,-4.6518266E-2,-1.01343304E-1],"categories":[],"categories_nodes":[],"categories_segments":[],"categories_sizes":[],"default_left":[0,0,0,0,0,0,0,0,0,0,0,0,0],"id":32,"left_children":[1,3,5,-1,7,9,11,-1,-1,-1,-1,-1,-1],"loss_changes":[2.6697324E3,2.0635022E2,3.723534E2,0E0,5.764038E1,7.869488E1,1.1582251E2,0E0,0E0,0E0,0E0,0E0,0E0],"parents":[2147483647,0,0,1,1,2,2,4,4,5,5,6,6],"right_children":[2,4,6,-1,8,10,12,-1,-1,-1,-1,-1,-1],"split_conditions":[3.983615E-1,1.689E2,4.7197378E-1,-3.4816284E-2,6.1326656E-2,3.0828518E-1,3.9994338E-1,1.4913087E-1,6.955124E-2,3.5666097E-2,-1.6831208E-2,-4.6518266E-2,-1.01343304E-1],"split_indices":[9,0,9,0,11,12,12,0,0,0,0,0,0],"split_type":[0,0,0,0,0,0,0,0,0,0,0,0,0],"sum_hessian":[1.26E2,3.5E1,9.1E1,1E0,3.4E1,2.7E1,6.4E1,2E1,1.4E1,1E1,1.7E1,4.3E1,2.1E1],"tree_param":{"num_deleted":"0","num_feature":"22","num_nodes":"13","size_leaf_vector":"1"}},{"base_weights":[6.1256357E-2,7.436909E0,-2.6925392E0,9.157753E0,3.6618533E0,-1.37247E0,-5.4472404E0,4.4393413E-2,1.6741094E-1,-0E0,6.790897E-2,-3.7741054E-2,6.140425E-3,-1.0148057E-1,-2.039503E-2],"categories":[],"categories_nodes":[],"categories_segments":[],"categories_sizes":[],"default_left":[0,0,0,0,0,0,0,0,0,0,0,0,0,0,0],"id":33,"left_children":[1,3,5,7,9,11,13,-1,-1,-1,-1,-1,-1,-1,-1],"loss_changes":[2.5971157E3,1.15471924E2,3.0765582E2,4.2786865E1,2.0577301E1,1.1065653E2,5.2486877E1,0E0,0E0,0E0,0E0,0E0,0E0,0E0,0E0],"parents":[2147483647,0,0,1,1,2,2,3,3,4,4,5,5,6,6],"right_children":[2,4,6,8,10,12,14,-1,-1,-1,-1,-1,-1,-1,-1],"split_conditions":[3.983615E-1,2.45E1,5.759977E-1,3.39E2,9.4E1,2.518E2,3.133E2,4.4393413E-2,1.6741094E-1,-0E0,6.790897E-2,-3.7741054E-2,6.140425E-3,-1.0148057E-1,-2.039503E-2],"split_indices":[9,2,9,0,2,0,0,0,0,0,0,0,0,0,0],"split_type":[0,0,0,0,0,0,0,0,0,0,0,0,0,0,0],"sum_hessian":[1.22E2,3.2E1,9E1,1.9E1,1.3E1,6.4E1,2.6E1,4E0,1.5E1,2E0,1.1E1,4.2E1,2.2E1,2.1E1,5E0],"tree_param":{"num_deleted":"0","num_feature":"22","num_nodes":"15","size_leaf_vector":"1"}},{"base_weights":[-7.068566E-2,6.5017786E0,-2.4764771E0,-3.4960322E-2,6.9844794E0,8.882348E-1,-3.772992E0,6.292839E-2,1.3643014E-1,4.268475E-2,-9.463528E-3,-4.0371444E-2,-9.115441E-2],"categories":[],"categories_nodes":[],"categories_segments":[],"categories_sizes":[],"default_left":[0,0,0,0,0,0,0,0,0,0,0,0,0],"id":34,"left_children":[1,3,5,-1,7,9,11,-1,-1,-1,-1,-1,-1],"loss_changes":[1.9974274E3,1.882301E2,4.179754E2,0E0,2.8048218E1,7.540445E1,1.0892255E2,0E0,0E0,0E0,0E0,0E0,0E0],"parents":[2147483647,0,0,1,1,2,2,4,4,5,5,6,6],"right_children":[2,4,6,-1,8,10,12,-1,-1,-1,-1,-1,-1],"split_conditions":[3.983615E-1,1.266E2,4.5444092E-1,-3.4960322E-2,5.313E2,3.0828518E-1,3.9683044E-1,6.292839E-2,1.3643014E-1,4.268475E-2,-9.463528E-3,-4.0371444E-2,-9.115441E-2],"split_indices":[9,3,9,0,8,12,12,0,0,0,0,0,0],"split_type":[0,0,0,0,0,0,0,0,0,0,0,0,0],"sum_hessian":[1.21E2,3.1E1,9E1,1E0,3E1,2.5E1,6.5E1,1.2E1,1.8E1,1.1E1,1.4E1,4.1E1,2.4E1],"tree_param":{"num_deleted":"0","num_feature":"22","num_nodes":"13","size_leaf_vector":"1"}},{"base_weights":[1.02082565E-1,4.53486E0,-3.8580961E0,6.1223286E-1,7.378797E0,-2.846345E0,-1.0552282E-1,-2.0870354E-2,4.4855468E-2,1.4082533E-1,5.7408787E-2,-5.0552294E-2,1.3171195E-2],"categories":[],"categories_nodes":[],"categories_segments":[],"categories_sizes":[],"default_left":[0,0,0,0,0,0,0,0,0,0,0,0,0],"id":35,"left_children":[1,3,5,7,9,11,-1,-1,-1,-1,-1,-1,-1],"loss_changes":[2.258292E3,6.55244E2,1.0996814E2,1.2470371E2,5.570581E1,5.0658813E1,0E0,0E0,0E0,0E0,0E0,0E0,0E0],"parents":[2147483647,0,0,1,1,2,2,3,3,4,4,5,5],"right_children":[2,4,6,8,10,12,-1,-1,-1,-1,-1,-1,-1],"split_conditions":[4.5444092E-1,3.053E2,3.9994338E-1,7.807E2,2.45E1,3.87E2,-1.0552282E-1,-2.0870354E-2,4.4855468E-2,1.4082533E-1,5.7408787E-2,-5.0552294E-2,1.3171195E-2],"split_indices":[9,0,10,6,2,0,0,0,0,0,0,0,0],"split_type":[0,0,0,0,0,0,0,0,0,0,0,0,0],"sum_hessian":[1.23E2,5.8E1,6.5E1,2.6E1,3.2E1,5.1E1,1.4E1,1.4E1,1.2E1,2.2E1,1E1,4.9E1,2E0],"tree_param":{"num_deleted":"0","num_feature":"22","num_nodes":"13","size_leaf_vector":"1"}},{"base_weights":[-6.2049567E-3,6.317272E0,-2.5135698E0,6.765327E0,-3.4717318E-2,7.2870183E-1,-3.9380226E0,1.3571188E-1,5.7944246E-2,-4.4704597E-2,2.6545027E-2,-4.8511494E-2,-1.0577773E-1],"categories":[],"categories_nodes":[],"categories_segments":[],"categories_sizes":[],"default_left":[0,0,0,0,0,0,0,0,0,0,0,0,0],"id":36,"left_children":[1,3,5,7,-1,9,11,-1,-1,-1,-1,-1,-1],"loss_changes":[2.0024506E3,1.8082458E2,4.3157397E2,6.74613E1,0E0,1.0022395E2,9.296283E1,0E0,0E0,0E0,0E0,0E0,0E0],"parents":[2147483647,0,0,1,1,2,2,3,3,5,5,6,6],"right_children":[2,4,6,8,-1,10,12,-1,-1,-1,-1,-1,-1],"split_conditions":[3.983615E-1,1.436E2,4.5444092E-1,2.45E1,-3.4717318E-2,1.6484E3,3.9994338E-1,1.3571188E-1,5.7944246E-2,-4.4704597E-2,2.6545027E-2,-4.8511494E-2,-1.0577773E-1],"split_indices":[9,2,9,2,0,13,10,0,0,0,0,0,0],"split_type":[0,0,0,0,0,0,0,0,0,0,0,0,0],"sum_hessian":[1.21E2,3.3E1,8.8E1,3.2E1,1E0,2.7E1,6.1E1,1.9E1,1.3E1,4E0,2.3E1,4.8E1,1.3E1],"tree_param":{"num_deleted":"0","num_feature":"22","num_nodes":"13","size_leaf_vector":"1"}},{"base_weights":[2.3169386E-1,6.6164694E0,-2.3903122E0,7.0473614E0,-3.456621E-2,6.277595E-1,-3.695005E0,1.3943231E-1,6.4916536E-2,4.188075E-2,-1.622538E-2,-3.543543E-2,-8.727674E-2],"categories":[],"categories_nodes":[],"categories_segments":[],"categories_sizes":[],"default_left":[0,0,0,0,0,0,0,0,0,0,0,0,0],"id":37,"left_children":[1,3,5,7,-1,9,11,-1,-1,-1,-1,-1,-1],"loss_changes":[2.1725762E3,1.8948645E2,3.719676E2,4.9902466E1,0E0,1.0019441E2,1.177251E2,0E0,0E0,0E0,0E0,0E0,0E0],"parents":[2147483647,0,0,1,1,2,2,3,3,5,5,6,6],"right_children":[2,4,6,8,-1,10,12,-1,-1,-1,-1,-1,-1],"split_conditions":[3.983615E-1,1.436E2,4.5444092E-1,2.45E1,-3.456621E-2,3.0828518E-1,5.759977E-1,1.3943231E-1,6.4916536E-2,4.188075E-2,-1.622538E-2,-3.543543E-2,-8.727674E-2],"split_indices":[9,2,9,2,0,12,9,0,0,0,0,0,0],"split_type":[0,0,0,0,0,0,0,0,0,0,0,0,0],"sum_hessian":[1.24E2,3.5E1,8.9E1,3.4E1,1E0,2.7E1,6.2E1,2E1,1.4E1,1.2E1,1.5E1,3.5E1,2.7E1],"tree_param":{"num_deleted":"0","num_feature":"22","num_nodes":"13","size_leaf_vector":"1"}},{"base_weights":[-9.321399E-2,-2.582499E0,5.421097E0,-4.2291694E0,-3.686154E-2,7.162243E0,-0E0,-4.7385104E-2,-9.949356E-2,2.9960744E-2,-2.6685819E-2,1.2886162E-1,3.897009E-2,3.0186515E-2,-3.764967E-2],"categories":[],"categories_nodes":[],"categories_segments":[],"categories_sizes":[],"default_left":[0,0,0,0,0,0,0,0,0,0,0,0,0,0,0],"id":38,"left_children":[1,3,5,7,9,11,13,-1,-1,-1,-1,-1,-1,-1,-1],"loss_changes":[1.8035533E3,3.7464398E2,3.8096277E2,7.369708E1,1.2089442E2,2.8044067E1,6.4505844E1,0E0,0E0,0E0,0E0,0E0,0E0,0E0,0E0],"parents":[2147483647,0,0,1,1,2,2,3,3,4,4,5,5,6,6],"right_children":[2,4,6,8,10,12,14,-1,-1,-1,-1,-1,-1,-1,-1],"split_conditions":[4.688E2,6.5E0,1.893E2,1.9E1,3.1998917E-1,3.5870185E-1,4.21E1,-4.7385104E-2,-9.949356E-2,2.9960744E-2,-2.6685819E-2,1.2886162E-1,3.897009E-2,3.0186515E-2,-3.764967E-2],"split_indices":[8,4,3,1,11,10,1,0,0,0,0,0,0,0,0],"split_type":[0,0,0,0,0,0,0,0,0,0,0,0,0,0,0],"sum_hessian":[1.26E2,8.8E1,3.8E1,5.2E1,3.6E1,2.8E1,1E1,3.4E1,1.8E1,1.6E1,2E1,2.3E1,5E0,6E0,4E0],"tree_param":{"num_deleted":"0","num_feature":"22","num_nodes":"15","size_leaf_vector":"1"}},{"base_weights":[1.6280949E-1,6.3868904E0,-2.3505027E0,-3.39827E-2,6.8196607E0,4.738896E-1,-3.52426E0,6.635649E-2,1.4384495E-1,2.310979E-2,-3.880017E-2,-4.2313024E-2,-1.0290943E-1],"categories":[],"categories_nodes":[],"categories_segments":[],"categories_sizes":[],"default_left":[0,0,0,0,0,0,0,0,0,0,0,0,0],"id":39,"left_children":[1,3,5,-1,7,9,11,-1,-1,-1,-1,-1,-1],"loss_changes":[1.9995828E3,1.7986267E2,3.09664E2,0E0,7.426892E1,8.285543E1,1.1293353E2,0E0,0E0,0E0,0E0,0E0,0E0],"parents":[2147483647,0,0,1,1,2,2,4,4,5,5,6,6],"right_children":[2,4,6,-1,8,10,12,-1,-1,-1,-1,-1,-1],"split_conditions":[3.983615E-1,1.689E2,4.5444092E-1,-3.39827E-2,3.899E2,9.81E1,6.639478E-1,6.635649E-2,1.4384495E-1,2.310979E-2,-3.880017E-2,-4.2313024E-2,-1.0290943E-1],"split_indices":[9,0,9,0,0,1,9,0,0,0,0,0,0],"split_type":[0,0,0,0,0,0,0,0,0,0,0,0,0],"sum_hessian":[1.22E2,3.4E1,8.8E1,1E0,3.3E1,2.6E1,6.2E1,1.7E1,1.6E1,2.1E1,5E0,5E1,1.2E1],"tree_param":{"num_deleted":"0","num_feature":"22","num_nodes":"13","size_leaf_vector":"1"}},{"base_weights":[2.941473E-1,6.3365097E0,-2.2726483E0,-3.383479E-2,6.755228E0,-9.042487E-1,-4.8531375E0,6.541385E-2,1.4124052E-1,4.078335E-3,-3.0680945E-2,-9.033429E-2,-1.6823305E-2],"categories":[],"categories_nodes":[],"categories_segments":[],"categories_sizes":[],"default_left":[0,0,0,0,0,0,0,0,0,0,0,0,0],"id":40,"left_children":[1,3,5,-1,7,9,11,-1,-1,-1,-1,-1,-1],"loss_changes":[1.9657279E3,1.7748108E2,2.9379446E2,0E0,7.2841064E1,7.092607E1,4.5339478E1,0E0,0E0,0E0,0E0,0E0,0E0],"parents":[2147483647,0,0,1,1,2,2,4,4,5,5,6,6],"right_children":[2,4,6,-1,8,10,12,-1,-1,-1,-1,-1,-1],"split_conditions":[3.983615E-1,1.689E2,5.759977E-1,-3.383479E-2,3.899E2,4.5444092E-1,3.133E2,6.541385E-2,1.4124052E-1,4.078335E-3,-3.0680945E-2,-9.033429E-2,-1.6823305E-2],"split_indices":[9,0,9,0,0,9,0,0,0,0,0,0,0],"split_type":[0,0,0,0,0,0,0,0,0,0,0,0,0],"sum_hessian":[1.21E2,3.5E1,8.6E1,1E0,3.4E1,5.9E1,2.7E1,1.7E1,1.7E1,2.7E1,3.2E1,2.2E1,5E0],"tree_param":{"num_deleted":"0","num_feature":"22","num_nodes":"13","size_leaf_vector":"1"}},{"base_weights":[-6.138121E-2,5.965013E0,-2.3092716E0,-3.3687517E-2,6.4089026E0,7.2179025E-1,-3.5205894E0,5.9547868E-2,1.3312721E-1,2.7952762E-2,-3.8431954E-2,-3.9944317E-2,-8.853963E-2],"categories":[],"categories_nodes":[],"categories_segments":[],"categories_sizes":[],"default_left":[0,0,0,0,0,0,0,0,0,0,0,0,0],"id":41,"left_children":[1,3,5,-1,7,9,11,-1,-1,-1,-1,-1,-1],"loss_changes":[1.7380342E3,1.6583606E2,3.5515625E2,0E0,5.920691E1,9.500575E1,9.1040955E1,0E0,0E0,0E0,0E0,0E0,0E0],"parents":[2147483647,0,0,1,1,2,2,4,4,5,5,6,6],"right_children":[2,4,6,-1,8,10,12,-1,-1,-1,-1,-1,-1],"split_conditions":[3.983615E-1,1.689E2,4.5444092E-1,-3.3687517E-2,3.899E2,1.299E2,3.9994338E-1,5.9547868E-2,1.3312721E-1,2.7952762E-2,-3.8431954E-2,-3.9944317E-2,-8.853963E-2],"split_indices":[9,0,9,0,0,1,12,0,0,0,0,0,0],"split_type":[0,0,0,0,0,0,0,0,0,0,0,0,0],"sum_hessian":[1.23E2,3.2E1,9.1E1,1E0,3.1E1,2.6E1,6.5E1,1.5E1,1.6E1,2.1E1,5E0,4.5E1,2E1],"tree_param":{"num_deleted":"0","num_feature":"22","num_nodes":"13","size_leaf_vector":"1"}},{"base_weights":[-8.400968E-2,5.824604E0,-2.3856766E0,-3.3540893E-2,6.263343E0,-9.0908813E-1,-4.6087337E0,1.224575E-1,5.9128653E-2,1.9243823E-2,-3.2443073E-2,-7.8596584E-2,-0E0],"categories":[],"categories_nodes":[],"categories_segments":[],"categories_sizes":[],"default_left":[0,0,0,0,0,0,0,0,0,0,0,0,0],"id":42,"left_children":[1,3,5,-1,7,9,11,-1,-1,-1,-1,-1,-1],"loss_changes":[1.6909215E3,1.6095947E2,2.7586887E2,0E0,1.505896E1,1.3337424E2,2.34328E1,0E0,0E0,0E0,0E0,0E0,0E0],"parents":[2147483647,0,0,1,1,2,2,4,4,5,5,6,6],"right_children":[2,4,6,-1,8,10,12,-1,-1,-1,-1,-1,-1],"split_conditions":[3.8531864E-1,1.266E2,5.548163E-1,-3.3540893E-2,6.1326656E-2,3.0617908E-1,2.1E2,1.224575E-1,5.9128653E-2,1.9243823E-2,-3.2443073E-2,-7.8596584E-2,-0E0],"split_indices":[9,3,9,0,11,12,3,0,0,0,0,0,0],"split_type":[0,0,0,0,0,0,0,0,0,0,0,0,0],"sum_hessian":[1.19E2,3.2E1,8.7E1,1E0,3.1E1,5.5E1,3.2E1,1.8E1,1.3E1,1.8E1,3.7E1,3.1E1,1E0],"tree_param":{"num_deleted":"0","num_feature":"22","num_nodes":"13","size_leaf_vector":"1"}},{"base_weights":[-2.2285307E-2,-2.2447367E0,5.488005E0,-3.481493E-2,-4.5319157E0,-5.4122284E-2,6.292017E0,3.0959684E-2,-2.7327726E-2,-8.5208215E-2,-1.194769E-2,5.14739E-2,1.24547996E-1],"categories":[],"categories_nodes":[],"categories_segments":[],"categories_sizes":[],"default_left":[0,0,0,0,0,0,0,0,0,0,0,0,0],"id":43,"left_children":[1,3,5,7,9,-1,11,-1,-1,-1,-1,-1,-1],"loss_changes":[1.5709094E3,4.5763342E2,3.2074902E2,1.6182256E2,8.7371216E1,0E0,5.7303955E1,0E0,0E0,0E0,0E0,0E0,0E0],"parents":[2147483647,0,0,1,1,2,2,3,3,4,4,6,6],"right_children":[2,4,6,8,10,-1,12,-1,-1,-1,-1,-1,-1],"split_conditions":[3.59E2,1.89E2,3E0,3.1998917E-1,3.133E2,-5.4122284E-2,3.899E2,3.0959684E-2,-2.7327726E-2,-8.5208215E-2,-1.194769E-2,5.14739E-2,1.24547996E-1],"split_indices":[0,3,7,11,0,0,0,0,0,0,0,0,0],"split_type":[0,0,0,0,0,0,0,0,0,0,0,0,0],"sum_hessian":[1.23E2,8.9E1,3.4E1,4.7E1,4.2E1,2E0,3.2E1,2.1E1,2.6E1,3.5E1,7E0,1.2E1,2E1],"tree_param":{"num_deleted":"0","num_feature":"22","num_nodes":"13","size_leaf_vector":"1"}},{"base_weights":[-2.30874E-2,-2.873974E0,4.234864E0,-4.0239105E0,-8.1527317E-1,6.5257173E0,-0E0,-7.975084E-2,-1.9787738E-2,-4.760456E-2,2.6760283E-3,-2.5187198E-2,1.1484638E-1,-3.9807774E-2,3.202854E-2],"categories":[],"categories_nodes":[],"categories_segments":[],"categories_sizes":[],"default_left":[0,0,0,0,0,0,0,0,0,0,0,0,0,0,0],"id":44,"left_children":[1,3,5,7,9,11,13,-1,-1,-1,-1,-1,-1,-1,-1],"loss_changes":[1.5715663E3,1.6870605E2,5.1042694E2,8.586597E1,6.88889E1,1.4952759E2,1.1048001E2,0E0,0E0,0E0,0E0,0E0,0E0,0E0,0E0],"parents":[2147483647,0,0,1,1,2,2,3,3,4,4,5,5,6,6],"right_children":[2,4,6,8,10,12,14,-1,-1,-1,-1,-1,-1,-1,-1],"split_conditions":[3.965E2,5.8E0,3.4408602E-1,3.133E2,1.986E2,3E0,5.7E0,-7.975084E-2,-1.9787738E-2,-4.760456E-2,2.6760283E-3,-2.5187198E-2,1.1484638E-1,-3.9807774E-2,3.202854E-2],"split_indices":[8,4,12,0,0,7,4,0,0,0,0,0,0,0,0],"split_type":[0,0,0,0,0,0,0,0,0,0,0,0,0,0,0],"sum_hessian":[1.24E2,7.5E1,4.9E1,4.6E1,2.9E1,3.1E1,1.8E1,3.4E1,1.2E1,8E0,2.1E1,1E0,3E1,8E0,1E1],"tree_param":{"num_deleted":"0","num_feature":"22","num_nodes":"15","size_leaf_vector":"1"}},{"base_weights":[-5.1639825E-2,6.4124837E0,-2.0785322E0,3.6597865E0,8.0185795E0,5.5545187E-1,-3.3249507E0,7.175408E-2,1.911813E-2,1.6128758E-1,5.2899662E-2,4.1351408E-2,-1.2838292E-2,-4.0922403E-2,-9.27847E-2],"categories":[],"categories_nodes":[],"categories_segments":[],"categories_sizes":[],"default_left":[0,0,0,0,0,0,0,0,0,0,0,0,0,0,0],"id":45,"left_children":[1,3,5,7,9,11,13,-1,-1,-1,-1,-1,-1,-1,-1],"loss_changes":[1.6930743E3,3.8784058E1,3.331433E2,7.298111E0,3.592444E1,9.513573E1,8.246997E1,0E0,0E0,0E0,0E0,0E0,0E0,0E0,0E0],"parents":[2147483647,0,0,1,1,2,2,3,3,4,4,5,5,6,6],"right_children":[2,4,6,8,10,12,14,-1,-1,-1,-1,-1,-1,-1,-1],"split_conditions":[3.2575554E-1,3.899E2,4.5444092E-1,2.4968473E-2,2.45E1,3.0828518E-1,3.9994338E-1,7.175408E-2,1.911813E-2,1.6128758E-1,5.2899662E-2,4.1351408E-2,-1.2838292E-2,-4.0922403E-2,-9.27847E-2],"split_indices":[9,0,9,16,2,12,10,0,0,0,0,0,0,0,0],"split_type":[0,0,0,0,0,0,0,0,0,0,0,0,0,0,0],"sum_hessian":[1.24E2,2.8E1,9.6E1,1.4E1,1.4E1,3.1E1,6.5E1,9E0,5E0,8E0,6E0,1.2E1,1.9E1,5.2E1,1.3E1],"tree_param":{"num_deleted":"0","num_feature":"22","num_nodes":"15","size_leaf_vector":"1"}},{"base_weights":[-7.929213E-2,5.6253843E0,-2.2450142E0,7.5224104E0,2.1484654E0,3.2133642E-1,-3.4094834E0,1.4440387E-1,3.4091443E-2,4.7069523E-2,-3.2872953E-2,3.381032E-2,-1.8278359E-2,-3.697835E-2,-8.545964E-2],"categories":[],"categories_nodes":[],"categories_segments":[],"categories_sizes":[],"default_left":[0,0,0,0,0,0,0,0,0,0,0,0,0,0,0],"id":46,"left_children":[1,3,5,7,9,11,13,-1,-1,-1,-1,-1,-1,-1,-1],"loss_changes":[1.6099451E3,1.7829456E2,2.90391E2,7.905298E1,6.531483E1,8.563249E1,9.372443E1,0E0,0E0,0E0,0E0,0E0,0E0,0E0,0E0],"parents":[2147483647,0,0,1,1,2,2,3,3,4,4,5,5,6,6],"right_children":[2,4,6,8,10,12,14,-1,-1,-1,-1,-1,-1,-1,-1],"split_conditions":[3.983615E-1,2.45E1,4.7197378E-1,3.4408602E-1,1.436E2,3.0828518E-1,3.9994338E-1,1.4440387E-1,3.4091443E-2,4.7069523E-2,-3.2872953E-2,3.381032E-2,-1.8278359E-2,-3.697835E-2,-8.545964E-2],"split_indices":[9,2,9,12,2,12,12,0,0,0,0,0,0,0,0],"split_type":[0,0,0,0,0,0,0,0,0,0,0,0,0,0,0],"sum_hessian":[1.25E2,3.3E1,9.2E1,1.9E1,1.4E1,2.9E1,6.3E1,1.4E1,5E0,1.3E1,1E0,1.3E1,1.6E1,4.2E1,2.1E1],"tree_param":{"num_deleted":"0","num_feature":"22","num_nodes":"15","size_leaf_vector":"1"}},{"base_weights":[2.3617814E-1,6.364686E0,-2.1317537E0,3.5688183E0,8.399999E0,2.9894412E-1,-3.267591E0,6.804418E-2,1.8030876E-2,1.4552936E-1,2.0182393E-3,-4.1627612E-2,1.7051205E-2,-3.729846E-2,-8.327451E-2],"categories":[],"categories_nodes":[],"categories_segments":[],"categories_sizes":[],"default_left":[0,0,0,0,0,0,0,0,0,0,0,0,0,0,0],"id":47,"left_children":[1,3,5,7,9,11,13,-1,-1,-1,-1,-1,-1,-1,-1],"loss_changes":[1.8110841E3,9.849719E1,2.5452576E2,7.362091E0,4.3616333E1,6.87551E1,6.9302734E1,0E0,0E0,0E0,0E0,0E0,0E0,0E0,0E0],"parents":[2147483647,0,0,1,1,2,2,3,3,4,4,5,5,6,6],"right_children":[2,4,6,8,10,12,14,-1,-1,-1,-1,-1,-1,-1,-1],"split_conditions":[3.983615E-1,3.899E2,4.7197378E-1,1.24E1,1.893E2,1.6484E3,5.819209E-1,6.804418E-2,1.8030876E-2,1.4552936E-1,2.0182393E-3,-4.1627612E-2,1.7051205E-2,-3.729846E-2,-8.327451E-2],"split_indices":[9,0,9,4,3,13,9,0,0,0,0,0,0,0,0],"split_type":[0,0,0,0,0,0,0,0,0,0,0,0,0,0,0],"sum_hessian":[1.19E2,3.2E1,8.7E1,1.7E1,1.5E1,2.8E1,5.9E1,1.2E1,5E0,1.4E1,1E0,4E0,2.4E1,4.2E1,1.7E1],"tree_param":{"num_deleted":"0","num_feature":"22","num_nodes":"15","size_leaf_vector":"1"}},{"base_weights":[-1.2261071E-1,5.7122226E0,-2.1515625E0,4.7913376E-2,6.8845963E0,-8.817323E-1,-4.548597E0,1.3448484E-1,4.0627316E-2,5.8005825E-3,-2.9751489E-2,-8.447796E-2,-1.3829594E-2],"categories":[],"categories_nodes":[],"categories_segments":[],"categories_sizes":[],"default_left":[0,0,0,0,0,0,0,0,0,0,0,0,0],"id":48,"left_children":[1,3,5,-1,7,9,11,-1,-1,-1,-1,-1,-1],"loss_changes":[1.5072808E3,3.9754272E1,2.7026672E2,0E0,4.4860474E1,7.7945404E1,4.6067505E1,0E0,0E0,0E0,0E0,0E0,0E0],"parents":[2147483647,0,0,1,1,2,2,4,4,5,5,6,6],"right_children":[2,4,6,-1,8,10,12,-1,-1,-1,-1,-1,-1],"split_conditions":[3.8531864E-1,5.313E2,5.759977E-1,4.7913376E-2,2.45E1,4.5444092E-1,3.133E2,1.3448484E-1,4.0627316E-2,5.8005825E-3,-2.9751489E-2,-8.447796E-2,-1.3829594E-2],"split_indices":[9,8,9,0,2,9,0,0,0,0,0,0,0],"split_type":[0,0,0,0,0,0,0,0,0,0,0,0,0],"sum_hessian":[1.22E2,3E1,9.2E1,1.2E1,1.8E1,6.3E1,2.9E1,1.2E1,6E0,2.7E1,3.6E1,2.4E1,5E0],"tree_param":{"num_deleted":"0","num_feature":"22","num_nodes":"13","size_leaf_vector":"1"}},{"base_weights":[3.723823E-2,-1.576777E0,6.639408E0,-2.348847E0,2.2356129E0,2.8750809E-2,7.521162E0,-2.5036229E-2,-8.242831E-2,2.5382778E-3,7.288639E-2,1.4374883E-1,4.9942005E-2],"categories":[],"categories_nodes":[],"categories_segments":[],"categories_sizes":[],"default_left":[0,0,0,0,0,0,0,0,0,0,0,0,0],"id":49,"left_children":[1,3,5,7,9,-1,11,-1,-1,-1,-1,-1,-1],"loss_changes":[1.3977628E3,3.2333502E2,6.2876465E1,1.6584009E2,7.710717E1,0E0,2.0568726E1,0E0,0E0,0E0,0E0,0E0,0E0],"parents":[2147483647,0,0,1,1,2,2,3,3,4,4,6,6],"right_children":[2,4,6,8,10,-1,12,-1,-1,-1,-1,-1,-1],"split_conditions":[5.19E2,1.09E1,3.626E2,3.9994338E-1,2.2E1,2.8750809E-2,2.45E1,-2.5036229E-2,-8.242831E-2,2.5382778E-3,7.288639E-2,1.4374883E-1,4.9942005E-2],"split_indices":[8,4,0,10,1,0,2,0,0,0,0,0,0],"split_type":[0,0,0,0,0,0,0,0,0,0,0,0,0],"sum_hessian":[1.25E2,1.02E2,2.3E1,8.6E1,1.6E1,5E0,1.8E1,6.9E1,1.7E1,1E1,6E0,1.2E1,6E0],"tree_param":{"num_deleted":"0","num_feature":"22","num_nodes":"13","size_leaf_vector":"1"}},{"base_weights":[6.507498E-2,3.5411644E0,-3.1381943E0,9.3962395E-1,6.289972E0,-2.295492E0,-8.663986E-2,-2.4027921E-2,3.6681585E-2,1.2353083E-1,4.9533583E-2,-3.960585E-2,6.8916795E-3],"categories":[],"categories_nodes":[],"categories_segments":[],"categories_sizes":[],"default_left":[0,0,0,0,0,0,0,0,0,0,0,0,0],"id":50,"left_children":[1,3,5,7,9,11,-1,-1,-1,-1,-1,-1,-1],"loss_changes":[1.4547092E3,4.2314972E2,7.640338E1,1.1937787E2,3.9283203E1,1.9671783E1,0E0,0E0,0E0,0E0,0E0,0E0,0E0],"parents":[2147483647,0,0,1,1,2,2,3,3,4,4,5,5],"right_children":[2,4,6,8,10,12,-1,-1,-1,-1,-1,-1,-1],"split_conditions":[4.5444092E-1,3.626E2,3.9994338E-1,8.1E0,2.45E1,3.87E2,-8.663986E-2,-2.4027921E-2,3.6681585E-2,1.2353083E-1,4.9533583E-2,-3.960585E-2,6.8916795E-3],"split_indices":[9,0,10,4,2,0,0,0,0,0,0,0,0],"split_type":[0,0,0,0,0,0,0,0,0,0,0,0,0],"sum_hessian":[1.25E2,6E1,6.5E1,3.3E1,2.7E1,5.1E1,1.4E1,1.1E1,2.2E1,1.7E1,1E1,5E1,1E0],"tree_param":{"num_deleted":"0","num_feature":"22","num_nodes":"13","size_leaf_vector":"1"}},{"base_weights":[-0E0,5.2564607E0,-2.0490022E0,-3.3021025E-2,5.651485E0,4.170081E-1,-3.0674157E0,5.561495E-2,1.1835082E-1,-4.038265E-2,1.9448604E-2,-3.68433E-2,-8.556348E-2],"categories":[],"categories_nodes":[],"categories_segments":[],"categories_sizes":[],"default_left":[0,0,0,0,0,0,0,0,0,0,0,0,0],"id":51,"left_children":[1,3,5,-1,7,9,11,-1,-1,-1,-1,-1,-1],"loss_changes":[1.4148582E3,1.4177496E2,2.4511438E2,0E0,4.207007E1,7.097326E1,7.8050415E1,0E0,0E0,0E0,0E0,0E0,0E0],"parents":[2147483647,0,0,1,1,2,2,4,4,5,5,6,6],"right_children":[2,4,6,-1,8,10,12,-1,-1,-1,-1,-1,-1],"split_conditions":[3.983615E-1,1.689E2,4.5444092E-1,-3.3021025E-2,3.899E2,1.6484E3,3.994911E-1,5.561495E-2,1.1835082E-1,-4.038265E-2,1.9448604E-2,-3.68433E-2,-8.556348E-2],"split_indices":[9,0,9,0,0,13,10,0,0,0,0,0,0],"split_type":[0,0,0,0,0,0,0,0,0,0,0,0,0],"sum_hessian":[1.26E2,3.4E1,9.2E1,1E0,3.3E1,2.7E1,6.5E1,1.7E1,1.6E1,4E0,2.3E1,5.1E1,1.4E1],"tree_param":{"num_deleted":"0","num_feature":"22","num_nodes":"13","size_leaf_vector":"1"}},{"base_weights":[1.7499998E-1,6.081489E0,-1.737306E0,3.2903256E0,7.6857595E0,-6.4672697E-1,-4.241978E0,6.796371E-2,1.8080046E-2,1.5459502E-1,4.748495E-2,2.2490626E-2,-2.9134084E-2,-7.819134E-2,-8.945864E-3],"categories":[],"categories_nodes":[],"categories_segments":[],"categories_sizes":[],"default_left":[0,0,0,0,0,0,0,0,0,0,0,0,0,0,0],"id":52,"left_children":[1,3,5,7,9,11,13,-1,-1,-1,-1,-1,-1,-1,-1],"loss_changes":[1.4674712E3,5.7288452E1,2.5311041E2,1.0837494E1,5.1084717E1,1.6767258E2,3.754077E1,0E0,0E0,0E0,0E0,0E0,0E0,0E0,0E0],"parents":[2147483647,0,0,1,1,2,2,3,3,4,4,5,5,6,6],"right_children":[2,4,6,8,10,12,14,-1,-1,-1,-1,-1,-1,-1,-1],"split_conditions":[3.2575554E-1,3.899E2,5.759977E-1,1.17E1,6.1326656E-2,3.0828518E-1,3.133E2,6.796371E-2,1.8080046E-2,1.5459502E-1,4.748495E-2,2.2490626E-2,-2.9134084E-2,-7.819134E-2,-8.945864E-3],"split_indices":[9,0,9,4,11,12,0,0,0,0,0,0,0,0,0],"split_type":[0,0,0,0,0,0,0,0,0,0,0,0,0,0,0],"sum_hessian":[1.24E2,2.9E1,9.5E1,1.4E1,1.5E1,6.9E1,2.6E1,8E0,6E0,9E0,6E0,2.4E1,4.5E1,2.2E1,4E0],"tree_param":{"num_deleted":"0","num_feature":"22","num_nodes":"15","size_leaf_vector":"1"}},{"base_weights":[-1.9155054E-1,2.9074306E0,-3.0699973E0,4.715591E0,-7.709277E-2,-1.8494695E0,-4.6497583E0,-2.611544E-2,8.328733E-2,-2.953932E-2,1.4866961E-2,-1.162002E-2,-5.4225E-2,-8.428367E-2,-5.9449803E-3],"categories":[],"categories_nodes":[],"categories_segments":[],"categories_sizes":[],"default_left":[0,0,0,0,0,0,0,0,0,0,0,0,0,0,0],"id":53,"left_children":[1,3,5,7,9,11,13,-1,-1,-1,-1,-1,-1,-1,-1],"loss_changes":[1.1473998E3,3.405584E2,9.626453E1,1.04368225E2,4.8641193E1,5.8480423E1,3.8830627E1,0E0,0E0,0E0,0E0,0E0,0E0,0E0,0E0],"parents":[2147483647,0,0,1,1,2,2,3,3,4,4,5,5,6,6],"right_children":[2,4,6,8,10,12,14,-1,-1,-1,-1,-1,-1,-1,-1],"split_conditions":[4.5444092E-1,3.3964974E-1,3.9683044E-1,3E0,5.8E0,8.49E2,1.436E2,-2.611544E-2,8.328733E-2,-2.953932E-2,1.4866961E-2,-1.162002E-2,-5.4225E-2,-8.428367E-2,-5.9449803E-3],"split_indices":[9,12,12,7,4,6,2,0,0,0,0,0,0,0,0],"split_type":[0,0,0,0,0,0,0,0,0,0,0,0,0,0,0],"sum_hessian":[1.23E2,5.9E1,6.4E1,3.6E1,2.3E1,4E1,2.4E1,1E0,3.5E1,8E0,1.5E1,2.5E1,1.5E1,2.1E1,3E0],"tree_param":{"num_deleted":"0","num_feature":"22","num_nodes":"15","size_leaf_vector":"1"}},{"base_weights":[1.784795E-1,5.661209E0,-1.9193325E0,5.357E-2,7.218341E0,3.7781242E-1,-3.0024724E0,1.496325E-1,4.3674015E-2,-2.2395045E-2,2.4569409E-2,-3.6295213E-2,-8.7481655E-2],"categories":[],"categories_nodes":[],"categories_segments":[],"categories_sizes":[],"default_left":[0,0,0,0,0,0,0,0,0,0,0,0,0],"id":54,"left_children":[1,3,5,-1,7,9,11,-1,-1,-1,-1,-1,-1],"loss_changes":[1.528248E3,5.9832764E1,2.4495557E2,0E0,8.338916E1,6.866668E1,7.9396545E1,0E0,0E0,0E0,0E0,0E0,0E0],"parents":[2147483647,0,0,1,1,2,2,4,4,5,5,6,6],"right_children":[2,4,6,-1,8,10,12,-1,-1,-1,-1,-1,-1],"split_conditions":[3.983615E-1,3.899E2,4.831169E-1,5.357E-2,2.45E1,1.7541E3,6.639478E-1,1.496325E-1,4.3674015E-2,-2.2395045E-2,2.4569409E-2,-3.6295213E-2,-8.7481655E-2],"split_indices":[9,0,9,0,2,13,9,0,0,0,0,0,0],"split_type":[0,0,0,0,0,0,0,0,0,0,0,0,0],"sum_hessian":[1.27E2,3.4E1,9.3E1,1.7E1,1.7E1,3E1,6.3E1,1E1,7E0,1.1E1,1.9E1,5.1E1,1.2E1],"tree_param":{"num_deleted":"0","num_feature":"22","num_nodes":"13","size_leaf_vector":"1"}},{"base_weights":[-0E0,5.7290325E0,-1.7237711E0,6.96281E0,2.7911866E0,5.9210765E-1,-2.8774333E0,1.7433789E-2,1.2932418E-1,5.4883007E-2,-0E0,-3.2256678E-2,2.244256E-2,-3.1672522E-2,-7.756173E-2],"categories":[],"categories_nodes":[],"categories_segments":[],"categories_sizes":[],"default_left":[0,0,0,0,0,0,0,0,0,0,0,0,0,0,0],"id":55,"left_children":[1,3,5,7,9,11,13,-1,-1,-1,-1,-1,-1,-1,-1],"loss_changes":[1.2717205E3,4.0897156E1,2.717154E2,6.015753E1,2.2309448E1,7.422958E1,8.275873E1,0E0,0E0,0E0,0E0,0E0,0E0,0E0,0E0],"parents":[2147483647,0,0,1,1,2,2,3,3,4,4,5,5,6,6],"right_children":[2,4,6,8,10,12,14,-1,-1,-1,-1,-1,-1,-1,-1],"split_conditions":[3.2575554E-1,2.45E1,4.5444092E-1,4.965E2,1.17E1,4.2424738E-1,1.1E1,1.7433789E-2,1.2932418E-1,5.4883007E-2,-0E0,-3.2256678E-2,2.244256E-2,-3.1672522E-2,-7.756173E-2],"split_indices":[9,2,9,8,4,14,1,0,0,0,0,0,0,0,0],"split_type":[0,0,0,0,0,0,0,0,0,0,0,0,0,0,0],"sum_hessian":[1.23E2,2.7E1,9.6E1,1.6E1,1.1E1,3.2E1,6.4E1,3E0,1.3E1,9E0,2E0,6E0,2.6E1,4.6E1,1.8E1],"tree_param":{"num_deleted":"0","num_feature":"22","num_nodes":"15","size_leaf_vector":"1"}},{"base_weights":[1.2767796E-1,-1.3535789E0,5.45753E0,-3.0863364E0,7.82903E-1,-2.5763897E-2,5.9488273E0,-6.8170935E-2,-1.8498957E-2,-2.9806074E-2,4.0355023E-2,2.547738E-2,1.0755945E-1],"categories":[],"categories_nodes":[],"categories_segments":[],"categories_sizes":[],"default_left":[0,0,0,0,0,0,0,0,0,0,0,0,0],"id":56,"left_children":[1,3,5,7,9,-1,11,-1,-1,-1,-1,-1,-1],"loss_changes":[9.718485E2,3.644209E2,1.2402167E2,8.97428E1,2.0485605E2,0E0,2.4249817E1,0E0,0E0,0E0,0E0,0E0,0E0],"parents":[2147483647,0,0,1,1,2,2,3,3,4,4,6,6],"right_children":[2,4,6,8,10,-1,12,-1,-1,-1,-1,-1,-1],"split_conditions":[3.87E2,6.9E0,3E0,9.776E2,2.137E2,-2.5763897E-2,3.899E2,-6.8170935E-2,-1.8498957E-2,-2.9806074E-2,4.0355023E-2,2.547738E-2,1.0755945E-1],"split_indices":[0,4,7,5,0,0,0,0,0,0,0,0,0],"split_type":[0,0,0,0,0,0,0,0,0,0,0,0,0],"sum_hessian":[1.17E2,9.3E1,2.4E1,5.1E1,4.2E1,1E0,2.3E1,3.1E1,2E1,1.6E1,2.6E1,4E0,1.9E1],"tree_param":{"num_deleted":"0","num_feature":"22","num_nodes":"13","size_leaf_vector":"1"}},{"base_weights":[1.8898302E-1,5.651875E0,-1.8234861E0,3.704397E-2,6.5155053E0,-9.352913E-1,-4.699182E0,1.2801781E-1,4.9915113E-2,1.7890956E-2,-3.169187E-2,-8.2432285E-2,-8.626664E-3],"categories":[],"categories_nodes":[],"categories_segments":[],"categories_sizes":[],"default_left":[0,0,0,0,0,0,0,0,0,0,0,0,0],"id":57,"left_children":[1,3,5,-1,7,9,11,-1,-1,-1,-1,-1,-1],"loss_changes":[1.4608746E3,5.3290283E1,2.2761316E2,0E0,3.5160034E1,1.6063577E2,1.1310608E1,0E0,0E0,0E0,0E0,0E0,0E0],"parents":[2147483647,0,0,1,1,2,2,4,4,5,5,6,6],"right_children":[2,4,6,-1,8,10,12,-1,-1,-1,-1,-1,-1],"split_conditions":[3.983615E-1,3.626E2,3.9994338E-1,3.704397E-2,2.45E1,4.5444092E-1,2.514E2,1.2801781E-1,4.9915113E-2,1.7890956E-2,-3.169187E-2,-8.2432285E-2,-8.626664E-3],"split_indices":[9,0,10,0,2,9,0,0,0,0,0,0,0],"split_type":[0,0,0,0,0,0,0,0,0,0,0,0,0],"sum_hessian":[1.27E2,3.3E1,9.4E1,9E0,2.4E1,7.5E1,1.9E1,1.5E1,9E0,2.4E1,5.1E1,1.7E1,2E0],"tree_param":{"num_deleted":"0","num_feature":"22","num_nodes":"13","size_leaf_vector":"1"}},{"base_weights":[2.7126697E-1,-1.5273126E0,5.2665544E0,-2.5645554E0,6.842582E-1,6.640638E0,-4.4637394E-1,-2.7895339E-2,-7.359196E-2,2.8748685E-2,-2.6409844E-2,3.0455185E-2,1.2765555E-1,-2.3752555E-2,1.562884E-2],"categories":[],"categories_nodes":[],"categories_segments":[],"categories_sizes":[],"default_left":[0,0,0,0,0,0,0,0,0,0,0,0,0,0,0],"id":58,"left_children":[1,3,5,7,9,11,13,-1,-1,-1,-1,-1,-1,-1,-1],"loss_changes":[1.1127269E3,2.1565286E2,2.7384796E2,7.493326E1,8.192399E1,8.599414E1,1.6545237E1,0E0,0E0,0E0,0E0,0E0,0E0,0E0,0E0],"parents":[2147483647,0,0,1,1,2,2,3,3,4,4,5,5,6,6],"right_children":[2,4,6,8,10,12,14,-1,-1,-1,-1,-1,-1,-1,-1],"split_conditions":[4.965E2,3.866E2,1.893E2,1.5E1,1.299E2,3.626E2,2.45E1,-2.7895339E-2,-7.359196E-2,2.8748685E-2,-2.6409844E-2,3.0455185E-2,1.2765555E-1,-2.3752555E-2,1.562884E-2],"split_indices":[8,8,3,1,1,0,2,0,0,0,0,0,0,0,0],"split_type":[0,0,0,0,0,0,0,0,0,0,0,0,0,0,0],"sum_hessian":[1.18E2,8.8E1,3E1,6E1,2.8E1,2.4E1,6E0,4.5E1,1.5E1,2E1,8E0,6E0,1.8E1,4E0,2E0],"tree_param":{"num_deleted":"0","num_feature":"22","num_nodes":"15","size_leaf_vector":"1"}},{"base_weights":[-1.0885394E-1,2.8499575E0,-2.7380807E0,4.3622813E0,-0E0,-1.7925674E0,-4.3683186E0,-2.5626244E-2,7.710704E-2,-1.2035785E-2,2.3696505E-2,-1.5432813E-2,-5.0802235E-2,-4.6121827E-3,-8.079542E-2],"categories":[],"categories_nodes":[],"categories_segments":[],"categories_sizes":[],"default_left":[0,0,0,0,0,0,0,0,0,0,0,0,0,0,0],"id":59,"left_children":[1,3,5,7,9,11,13,-1,-1,-1,-1,-1,-1,-1,-1],"loss_changes":[1.00815533E3,2.6355832E2,7.610748E1,9.428961E1,2.7469467E1,4.039099E1,3.7458008E1,0E0,0E0,0E0,0E0,0E0,0E0,0E0,0E0],"parents":[2147483647,0,0,1,1,2,2,3,3,4,4,5,5,6,6],"right_children":[2,4,6,8,10,12,14,-1,-1,-1,-1,-1,-1,-1,-1],"split_conditions":[4.5444092E-1,3.4408602E-1,3.9994338E-1,3E0,7.807E2,8.49E2,1.1E1,-2.5626244E-2,7.710704E-2,-1.2035785E-2,2.3696505E-2,-1.5432813E-2,-5.0802235E-2,-4.6121827E-3,-8.079542E-2],"split_indices":[9,12,12,7,6,6,1,0,0,0,0,0,0,0,0],"split_type":[0,0,0,0,0,0,0,0,0,0,0,0,0,0,0],"sum_hessian":[1.24E2,5.8E1,6.6E1,3.7E1,2.1E1,4.6E1,2E1,1E0,3.6E1,1.5E1,6E0,3.1E1,1.5E1,3E0,1.7E1],"tree_param":{"num_deleted":"0","num_feature":"22","num_nodes":"15","size_leaf_vector":"1"}},{"base_weights":[2.0680857E-1,5.327832E0,-1.7824894E0,6.661318E0,2.631774E0,-6.3075644E-1,-3.9638393E0,2.7588831E-2,1.2893476E-1,5.0752323E-2,-0E0,-2.3955975E-2,1.2660372E-2,-7.43332E-2,-1.0360059E-2],"categories":[],"categories_nodes":[],"categories_segments":[],"categories_sizes":[],"default_left":[0,0,0,0,0,0,0,0,0,0,0,0,0,0,0],"id":60,"left_children":[1,3,5,7,9,11,13,-1,-1,-1,-1,-1,-1,-1,-1],"loss_changes":[1.3025975E3,6.752081E1,2.1766086E2,7.442767E1,2.2877106E1,7.675326E1,3.9798096E1,0E0,0E0,0E0,0E0,0E0,0E0,0E0,0E0],"parents":[2147483647,0,0,1,1,2,2,3,3,4,4,5,5,6,6],"right_children":[2,4,6,8,10,12,14,-1,-1,-1,-1,-1,-1,-1,-1],"split_conditions":[3.983615E-1,2.45E1,5.759977E-1,3.39E2,1.21E1,2.514E2,3.133E2,2.7588831E-2,1.2893476E-1,5.0752323E-2,-0E0,-2.3955975E-2,1.2660372E-2,-7.43332E-2,-1.0360059E-2],"split_indices":[9,2,9,0,4,0,0,0,0,0,0,0,0,0,0],"split_type":[0,0,0,0,0,0,0,0,0,0,0,0,0,0,0],"sum_hessian":[1.22E2,3.3E1,8.9E1,1.9E1,1.4E1,6.1E1,2.8E1,5E0,1.4E1,1.2E1,2E0,3.9E1,2.2E1,2.3E1,5E0],"tree_param":{"num_deleted":"0","num_feature":"22","num_nodes":"15","size_leaf_vector":"1"}},{"base_weights":[7.98275E-2,5.6175265E0,-1.5466986E0,7.0106483E0,2.4852438E0,5.0043243E-1,-2.6290674E0,2.8116383E-2,1.3298017E-1,4.9748313E-2,-0E0,3.654643E-2,-1.7349184E-2,-2.8215494E-2,-7.044438E-2],"categories":[],"categories_nodes":[],"categories_segments":[],"categories_sizes":[],"default_left":[0,0,0,0,0,0,0,0,0,0,0,0,0,0,0],"id":61,"left_children":[1,3,5,7,9,11,13,-1,-1,-1,-1,-1,-1,-1,-1],"loss_changes":[1.1807683E3,6.889099E1,2.298034E2,5.1545715E1,2.1431847E1,1.0536992E2,7.240082E1,0E0,0E0,0E0,0E0,0E0,0E0,0E0,0E0],"parents":[2147483647,0,0,1,1,2,2,3,3,4,4,5,5,6,6],"right_children":[2,4,6,8,10,12,14,-1,-1,-1,-1,-1,-1,-1,-1],"split_conditions":[3.250978E-1,2.45E1,4.5444092E-1,3.31E2,1.17E1,3.3964974E-1,3.9994338E-1,2.8116383E-2,1.3298017E-1,4.9748313E-2,-0E0,3.654643E-2,-1.7349184E-2,-2.8215494E-2,-7.044438E-2],"split_indices":[9,2,9,0,4,12,12,0,0,0,0,0,0,0,0],"split_type":[0,0,0,0,0,0,0,0,0,0,0,0,0,0,0],"sum_hessian":[1.25E2,2.7E1,9.8E1,1.6E1,1.1E1,3.4E1,6.4E1,4E0,1.2E1,9E0,2E0,1.6E1,1.8E1,4.5E1,1.9E1],"tree_param":{"num_deleted":"0","num_feature":"22","num_nodes":"15","size_leaf_vector":"1"}},{"base_weights":[-0E0,5.2084885E0,-1.667588E0,6.4908E0,1.8834549E0,3.1303734E-1,-2.7261374E0,1.4171925E-2,1.1967529E-1,3.874542E-2,-0E0,2.8170206E-2,-1.2217349E-2,-3.216068E-2,-8.043327E-2],"categories":[],"categories_nodes":[],"categories_segments":[],"categories_sizes":[],"default_left":[0,0,0,0,0,0,0,0,0,0,0,0,0,0,0],"id":62,"left_children":[1,3,5,7,9,11,13,-1,-1,-1,-1,-1,-1,-1,-1],"loss_changes":[1.1047875E3,8.6197205E1,2.0847995E2,5.906659E1,1.3811913E1,5.7074104E1,7.127109E1,0E0,0E0,0E0,0E0,0E0,0E0,0E0,0E0],"parents":[2147483647,0,0,1,1,2,2,3,3,4,4,5,5,6,6],"right_children":[2,4,6,8,10,12,14,-1,-1,-1,-1,-1,-1,-1,-1],"split_conditions":[3.2575554E-1,6.1326656E-2,4.831169E-1,4.965E2,1.17E1,3.3964974E-1,6.639478E-1,1.4171925E-2,1.1967529E-1,3.874542E-2,-0E0,2.8170206E-2,-1.2217349E-2,-3.216068E-2,-8.043327E-2],"split_indices":[9,11,9,8,4,12,9,0,0,0,0,0,0,0,0],"split_type":[0,0,0,0,0,0,0,0,0,0,0,0,0,0,0],"sum_hessian":[1.22E2,2.8E1,9.4E1,1.8E1,1E1,3.3E1,6.1E1,3E0,1.5E1,8E0,2E0,1.4E1,1.9E1,4.9E1,1.2E1],"tree_param":{"num_deleted":"0","num_feature":"22","num_nodes":"15","size_leaf_vector":"1"}},{"base_weights":[2.9068744E-1,5.2161016E0,-1.5374937E0,6.265368E0,2.8277752E0,-3.605775E-1,-3.7550817E0,4.7212865E-2,1.33698E-1,4.9069494E-2,-0E0,2.2119222E-2,-2.2072734E-2,-7.043634E-2,-9.609923E-3],"categories":[],"categories_nodes":[],"categories_segments":[],"categories_sizes":[],"default_left":[0,0,0,0,0,0,0,0,0,0,0,0,0,0,0],"id":63,"left_children":[1,3,5,7,9,11,13,-1,-1,-1,-1,-1,-1,-1,-1],"loss_changes":[1.124017E3,2.3253845E1,2.2784277E2,4.9997803E1,3.8131332E0,1.08750404E2,3.5841553E1,0E0,0E0,0E0,0E0,0E0,0E0,0E0,0E0],"parents":[2147483647,0,0,1,1,2,2,3,3,4,4,5,5,6,6],"right_children":[2,4,6,8,10,12,14,-1,-1,-1,-1,-1,-1,-1,-1],"split_conditions":[3.983615E-1,2.45E1,5.759977E-1,3.899E2,1.21E1,3.0828518E-1,3.133E2,4.7212865E-2,1.33698E-1,4.9069494E-2,-0E0,2.2119222E-2,-2.2072734E-2,-7.043634E-2,-9.609923E-3],"split_indices":[9,2,9,0,4,12,0,0,0,0,0,0,0,0,0],"split_type":[0,0,0,0,0,0,0,0,0,0,0,0,0,0,0],"sum_hessian":[1.19E2,3.1E1,8.8E1,1.8E1,1.3E1,6E1,2.8E1,9E0,9E0,1.2E1,1E0,2.1E1,3.9E1,2.3E1,5E0],"tree_param":{"num_deleted":"0","num_feature":"22","num_nodes":"15","size_leaf_vector":"1"}},{"base_weights":[1.9251789E-1,5.3286223E0,-1.3850129E0,6.5534253E0,2.3955388E0,6.198106E-1,-2.5146885E0,1.8323943E-2,1.2019335E-1,4.801243E-2,-0E0,3.516828E-2,-1.1560079E-2,-2.9570142E-2,-7.853986E-2],"categories":[],"categories_nodes":[],"categories_segments":[],"categories_sizes":[],"default_left":[0,0,0,0,0,0,0,0,0,0,0,0,0,0,0],"id":64,"left_children":[1,3,5,7,9,11,13,-1,-1,-1,-1,-1,-1,-1,-1],"loss_changes":[1.0612963E3,5.5041565E1,2.3285977E2,4.319641E1,2.015992E1,8.105036E1,7.297992E1,0E0,0E0,0E0,0E0,0E0,0E0,0E0,0E0],"parents":[2147483647,0,0,1,1,2,2,3,3,4,4,5,5,6,6],"right_children":[2,4,6,8,10,12,14,-1,-1,-1,-1,-1,-1,-1,-1],"split_conditions":[3.250978E-1,6.1326656E-2,4.5444092E-1,3.237E2,1.17E1,3.3964974E-1,6.639478E-1,1.8323943E-2,1.2019335E-1,4.801243E-2,-0E0,3.516828E-2,-1.1560079E-2,-2.9570142E-2,-7.853986E-2],"split_indices":[9,11,9,0,4,12,9,0,0,0,0,0,0,0,0],"split_type":[0,0,0,0,0,0,0,0,0,0,0,0,0,0,0],"sum_hessian":[1.25E2,2.8E1,9.7E1,1.7E1,1.1E1,3.5E1,6.2E1,3E0,1.4E1,9E0,2E0,1.6E1,1.9E1,5.1E1,1.1E1],"tree_param":{"num_deleted":"0","num_feature":"22","num_nodes":"15","size_leaf_vector":"1"}},{"base_weights":[1.991637E-1,-1.4082255E0,4.7768164E0,-2.3704283E0,6.961485E-1,-2.6100839E-2,5.144876E0,-2.3135137E-2,-7.570401E-2,4.221074E-2,-9.362223E-3,2.0128064E-2,9.974779E-2],"categories":[],"categories_nodes":[],"categories_segments":[],"categories_sizes":[],"default_left":[0,0,0,0,0,0,0,0,0,0,0,0,0],"id":65,"left_children":[1,3,5,7,9,-1,11,-1,-1,-1,-1,-1,-1],"loss_changes":[9.5623846E2,2.0078125E2,1.0642517E2,1.1751007E2,8.106205E1,0E0,8.386847E1,0E0,0E0,0E0,0E0,0E0,0E0],"parents":[2147483647,0,0,1,1,2,2,3,3,4,4,6,6],"right_children":[2,4,6,8,10,-1,12,-1,-1,-1,-1,-1,-1],"split_conditions":[4.965E2,3.866E2,3E0,1.5E1,3.0828518E-1,-2.6100839E-2,3.626E2,-2.3135137E-2,-7.570401E-2,4.221074E-2,-9.362223E-3,2.0128064E-2,9.974779E-2],"split_indices":[8,8,7,1,12,0,0,0,0,0,0,0,0],"split_type":[0,0,0,0,0,0,0,0,0,0,0,0,0],"sum_hessian":[1.24E2,9.3E1,3.1E1,6.4E1,2.9E1,1E0,3E1,4.8E1,1.6E1,1.1E1,1.8E1,7E0,2.3E1],"tree_param":{"num_deleted":"0","num_feature":"22","num_nodes":"13","size_leaf_vector":"1"}},{"base_weights":[4.317896E-2,5.1810136E0,-1.4511154E0,6.3022537E0,2.3864784E0,6.263433E-1,-2.60983E0,1.8079046E-2,1.1687925E-1,4.8915606E-2,-2.8047743E-4,3.3960808E-2,-1.0191852E-2,-2.3020022E-2,-6.068666E-2],"categories":[],"categories_nodes":[],"categories_segments":[],"categories_sizes":[],"default_left":[0,0,0,0,0,0,0,0,0,0,0,0,0,0,0],"id":66,"left_children":[1,3,5,7,9,11,13,-1,-1,-1,-1,-1,-1,-1,-1],"loss_changes":[9.4567944E2,3.3684204E1,2.3536182E2,3.838214E1,2.1488869E1,6.883368E1,5.879315E1,0E0,0E0,0E0,0E0,0E0,0E0,0E0,0E0],"parents":[2147483647,0,0,1,1,2,2,3,3,4,4,5,5,6,6],"right_children":[2,4,6,8,10,12,14,-1,-1,-1,-1,-1,-1,-1,-1],"split_conditions":[3.250978E-1,2.45E1,4.5444092E-1,3.237E2,1.17E1,3.0828518E-1,5.548163E-1,1.8079046E-2,1.1687925E-1,4.8915606E-2,-2.8047743E-4,3.3960808E-2,-1.0191852E-2,-2.3020022E-2,-6.068666E-2],"split_indices":[9,2,9,0,4,12,9,0,0,0,0,0,0,0,0],"split_type":[0,0,0,0,0,0,0,0,0,0,0,0,0,0,0],"sum_hessian":[1.17E2,2.5E1,9.2E1,1.5E1,1E1,3.3E1,5.9E1,3E0,1.2E1,8E0,2E0,1.5E1,1.8E1,3.1E1,2.8E1],"tree_param":{"num_deleted":"0","num_feature":"22","num_nodes":"15","size_leaf_vector":"1"}},{"base_weights":[5.5347714E-3,4.896511E0,-1.4420866E0,6.0299044E0,2.2644103E0,7.143928E-1,-2.606515E0,1.792435E-2,1.1077675E-1,4.5753896E-2,-2.78545E-4,-5.5274344E-3,4.34115E-2,-2.541401E-2,-6.544914E-2],"categories":[],"categories_nodes":[],"categories_segments":[],"categories_sizes":[],"default_left":[0,0,0,0,0,0,0,0,0,0,0,0,0,0,0],"id":67,"left_children":[1,3,5,7,9,11,13,-1,-1,-1,-1,-1,-1,-1,-1],"loss_changes":[9.220627E2,3.9872253E1,2.58284E2,3.1408813E1,1.9466537E1,7.9094345E1,7.087149E1,0E0,0E0,0E0,0E0,0E0,0E0,0E0,0E0],"parents":[2147483647,0,0,1,1,2,2,3,3,4,4,5,5,6,6],"right_children":[2,4,6,8,10,12,14,-1,-1,-1,-1,-1,-1,-1,-1],"split_conditions":[3.250978E-1,6.1326656E-2,4.5444092E-1,3.237E2,2.3159144E-2,7.807E2,3.9683044E-1,1.792435E-2,1.1077675E-1,4.5753896E-2,-2.78545E-4,-5.5274344E-3,4.34115E-2,-2.541401E-2,-6.544914E-2],"split_indices":[9,11,9,0,16,6,12,0,0,0,0,0,0,0,0],"split_type":[0,0,0,0,0,0,0,0,0,0,0,0,0,0,0],"sum_hessian":[1.24E2,2.7E1,9.7E1,1.6E1,1.1E1,3.4E1,6.3E1,3E0,1.3E1,9E0,2E0,2.3E1,1.1E1,3.9E1,2.4E1],"tree_param":{"num_deleted":"0","num_feature":"22","num_nodes":"15","size_leaf_vector":"1"}},{"base_weights":[4.227193E-3,5.004176E0,-1.3977045E0,2.5801237E0,1.0687182E-1,-2.7654958E-1,-3.496547E0,5.6225765E-2,5.868514E-3,1.7521758E-2,-1.7696477E-2,-6.4234294E-2,-1.9824796E-3],"categories":[],"categories_nodes":[],"categories_segments":[],"categories_sizes":[],"default_left":[0,0,0,0,0,0,0,0,0,0,0,0,0],"id":68,"left_children":[1,3,5,7,-1,9,11,-1,-1,-1,-1,-1,-1],"loss_changes":[9.201186E2,4.3120728E1,2.3193991E2,2.0507812E1,0E0,7.710183E1,3.8790405E1,0E0,0E0,0E0,0E0,0E0,0E0],"parents":[2147483647,0,0,1,1,2,2,3,3,5,5,6,6],"right_children":[2,4,6,8,-1,10,12,-1,-1,-1,-1,-1,-1],"split_conditions":[3.250978E-1,3.886E2,5.548163E-1,1.17E1,1.0687182E-1,3.0828518E-1,5.5E0,5.6225765E-2,5.868514E-3,1.7521758E-2,-1.7696477E-2,-6.4234294E-2,-1.9824796E-3],"split_indices":[9,0,9,4,0,12,4,0,0,0,0,0,0],"split_type":[0,0,0,0,0,0,0,0,0,0,0,0,0],"sum_hessian":[1.25E2,2.6E1,9.9E1,1.3E1,1.3E1,6.7E1,3.2E1,8E0,5E0,2.4E1,4.3E1,2.8E1,4E0],"tree_param":{"num_deleted":"0","num_feature":"22","num_nodes":"13","size_leaf_vector":"1"}},{"base_weights":[-6.1544597E-2,4.64824E0,-1.523155E0,2.494022E0,6.0324216E0,3.8785383E-1,-2.4597187E0,5.553673E-2,8.178279E-3,1.2172093E-1,3.088982E-2,-1.1446709E-2,3.6186818E-2,-2.8936625E-2,-7.430403E-2],"categories":[],"categories_nodes":[],"categories_segments":[],"categories_sizes":[],"default_left":[0,0,0,0,0,0,0,0,0,0,0,0,0,0,0],"id":69,"left_children":[1,3,5,7,9,11,13,-1,-1,-1,-1,-1,-1,-1,-1],"loss_changes":[8.680085E2,3.5632935E1,1.7861891E2,1.9321953E1,3.667401E1,7.183583E1,6.489548E1,0E0,0E0,0E0,0E0,0E0,0E0,0E0,0E0],"parents":[2147483647,0,0,1,1,2,2,3,3,4,4,5,5,6,6],"right_children":[2,4,6,8,10,12,14,-1,-1,-1,-1,-1,-1,-1,-1],"split_conditions":[3.2575554E-1,3.899E2,4.5444092E-1,1.17E1,2.45E1,7.807E2,6.639478E-1,5.553673E-2,8.178279E-3,1.2172093E-1,3.088982E-2,-1.1446709E-2,3.6186818E-2,-2.8936625E-2,-7.430403E-2],"split_indices":[9,0,9,4,2,6,9,0,0,0,0,0,0,0,0],"split_type":[0,0,0,0,0,0,0,0,0,0,0,0,0,0,0],"sum_hessian":[1.21E2,2.7E1,9.4E1,1.4E1,1.3E1,3.1E1,6.3E1,8E0,6E0,8E0,5E0,2E1,1.1E1,5.1E1,1.2E1],"tree_param":{"num_deleted":"0","num_feature":"22","num_nodes":"15","size_leaf_vector":"1"}},{"base_weights":[1.5372126E-2,4.713558E0,-1.3414768E0,5.8690896E0,1.8833754E0,5.003916E-1,-2.3062415E0,1.7093401E-2,1.0791567E-1,3.909079E-2,-3.7344475E-4,3.2877363E-2,-1.2851601E-2,-6.516927E-2,-2.3721447E-2],"categories":[],"categories_nodes":[],"categories_segments":[],"categories_sizes":[],"default_left":[0,0,0,0,0,0,0,0,0,0,0,0,0,0,0],"id":70,"left_children":[1,3,5,7,9,11,13,-1,-1,-1,-1,-1,-1,-1,-1],"loss_changes":[8.176733E2,5.3149353E1,1.8114728E2,3.0658997E1,1.4878735E1,7.386263E1,7.0926025E1,0E0,0E0,0E0,0E0,0E0,0E0,0E0,0E0],"parents":[2147483647,0,0,1,1,2,2,3,3,4,4,5,5,6,6],"right_children":[2,4,6,8,10,12,14,-1,-1,-1,-1,-1,-1,-1,-1],"split_conditions":[3.250978E-1,2.45E1,4.7197378E-1,3.237E2,1.17E1,3.0828518E-1,1.907E2,1.7093401E-2,1.0791567E-1,3.909079E-2,-3.7344475E-4,3.2877363E-2,-1.2851601E-2,-6.516927E-2,-2.3721447E-2],"split_indices":[9,2,9,0,4,12,0,0,0,0,0,0,0,0,0],"split_type":[0,0,0,0,0,0,0,0,0,0,0,0,0,0,0],"sum_hessian":[1.22E2,2.6E1,9.6E1,1.6E1,1E1,3.3E1,6.3E1,3E0,1.3E1,8E0,2E0,1.5E1,1.8E1,1.8E1,4.5E1],"tree_param":{"num_deleted":"0","num_feature":"22","num_nodes":"15","size_leaf_vector":"1"}},{"base_weights":[1.4448127E-1,4.864182E0,-1.3795395E0,6.020969E0,2.1229596E0,-3.7803987E-1,-3.5926228E0,4.285205E-2,1.2611993E-1,4.305425E-2,-3.7086816E-4,-3.132437E-2,4.6392162E-3,-6.529613E-2,-1.0179251E-3],"categories":[],"categories_nodes":[],"categories_segments":[],"categories_sizes":[],"default_left":[0,0,0,0,0,0,0,0,0,0,0,0,0,0,0],"id":71,"left_children":[1,3,5,7,9,11,13,-1,-1,-1,-1,-1,-1,-1,-1],"loss_changes":[9.066304E2,5.127826E1,2.0115356E2,4.020923E1,1.769873E1,7.221324E1,3.0065674E1,0E0,0E0,0E0,0E0,0E0,0E0,0E0,0E0],"parents":[2147483647,0,0,1,1,2,2,3,3,4,4,5,5,6,6],"right_children":[2,4,6,8,10,12,14,-1,-1,-1,-1,-1,-1,-1,-1],"split_conditions":[3.250978E-1,2.45E1,5.759977E-1,3.85E2,1.17E1,2.12E2,3.133E2,4.285205E-2,1.2611993E-1,4.305425E-2,-3.7086816E-4,-3.132437E-2,4.6392162E-3,-6.529613E-2,-1.0179251E-3],"split_indices":[9,2,9,0,4,0,0,0,0,0,0,0,0,0,0],"split_type":[0,0,0,0,0,0,0,0,0,0,0,0,0,0,0],"sum_hessian":[1.2E2,2.8E1,9.2E1,1.7E1,1.1E1,6.6E1,2.6E1,8E0,9E0,9E0,2E0,1.9E1,4.7E1,2.3E1,3E0],"tree_param":{"num_deleted":"0","num_feature":"22","num_nodes":"15","size_leaf_vector":"1"}},{"base_weights":[6.9756486E-2,4.8036447E0,-1.4407325E0,5.946334E0,2.0949373E0,5.447245E-1,-2.5290117E0,4.2326894E-2,1.2452846E-1,4.2510953E-2,-3.6831788E-4,3.2657586E-2,-1.3625973E-2,-6.678068E-2,-2.7173491E-2],"categories":[],"categories_nodes":[],"categories_segments":[],"categories_sizes":[],"default_left":[0,0,0,0,0,0,0,0,0,0,0,0,0,0,0],"id":72,"left_children":[1,3,5,7,9,11,13,-1,-1,-1,-1,-1,-1,-1,-1],"loss_changes":[9.09001E2,4.998755E1,2.1343971E2,3.893695E1,1.7326221E1,7.6042274E1,5.7972473E1,0E0,0E0,0E0,0E0,0E0,0E0,0E0,0E0],"parents":[2147483647,0,0,1,1,2,2,3,3,4,4,5,5,6,6],"right_children":[2,4,6,8,10,12,14,-1,-1,-1,-1,-1,-1,-1,-1],"split_conditions":[3.250978E-1,2.45E1,4.5444092E-1,3.85E2,1.17E1,3.3964974E-1,1.907E2,4.2326894E-2,1.2452846E-1,4.2510953E-2,-3.6831788E-4,3.2657586E-2,-1.3625973E-2,-6.678068E-2,-2.7173491E-2],"split_indices":[9,2,9,0,4,12,0,0,0,0,0,0,0,0,0],"split_type":[0,0,0,0,0,0,0,0,0,0,0,0,0,0,0],"sum_hessian":[1.21E2,2.8E1,9.3E1,1.7E1,1.1E1,3.3E1,6E1,8E0,9E0,9E0,2E0,1.6E1,1.7E1,1.8E1,4.2E1],"tree_param":{"num_deleted":"0","num_feature":"22","num_nodes":"15","size_leaf_vector":"1"}},{"base_weights":[1.1447985E-1,4.668541E0,-1.2166382E0,5.6009846E0,2.175857E0,6.8512547E-1,-2.2347791E0,7.3873443E-3,1.0031956E-1,4.197452E-2,-3.4094555E-3,-3.0617185E-2,2.1629909E-2,-2.2126697E-2,-6.244142E-2],"categories":[],"categories_nodes":[],"categories_segments":[],"categories_sizes":[],"default_left":[0,0,0,0,0,0,0,0,0,0,0,0,0,0,0],"id":73,"left_children":[1,3,5,7,9,11,13,-1,-1,-1,-1,-1,-1,-1,-1],"loss_changes":[7.708831E2,2.2694153E1,1.9567299E2,2.8711487E1,1.5496391E1,6.253807E1,6.87254E1,0E0,0E0,0E0,0E0,0E0,0E0,0E0,0E0],"parents":[2147483647,0,0,1,1,2,2,3,3,4,4,5,5,6,6],"right_children":[2,4,6,8,10,12,14,-1,-1,-1,-1,-1,-1,-1,-1],"split_conditions":[3.250978E-1,2.45E1,4.5444092E-1,4.965E2,2.3159144E-2,1.6484E3,1.36E1,7.3873443E-3,1.0031956E-1,4.197452E-2,-3.4094555E-3,-3.0617185E-2,2.1629909E-2,-2.2126697E-2,-6.244142E-2],"split_indices":[9,2,9,8,16,13,1,0,0,0,0,0,0,0,0],"split_type":[0,0,0,0,0,0,0,0,0,0,0,0,0,0,0],"sum_hessian":[1.21E2,2.6E1,9.5E1,1.6E1,1E1,3.3E1,6.2E1,2E0,1.4E1,9E0,1E0,5E0,2.8E1,4.3E1,1.9E1],"tree_param":{"num_deleted":"0","num_feature":"22","num_nodes":"15","size_leaf_vector":"1"}},{"base_weights":[3.940075E-2,-2.0418005E0,2.78791E0,-1.1333305E0,-4.0540166E0,4.220926E0,-6.035096E-2,1.09084705E-2,-2.587367E-2,-0E0,-7.748878E-2,-2.6537012E-2,7.521215E-2,1.956124E-2,-3.185724E-2],"categories":[],"categories_nodes":[],"categories_segments":[],"categories_sizes":[],"default_left":[0,0,0,0,0,0,0,0,0,0,0,0,0,0,0],"id":74,"left_children":[1,3,5,7,9,11,13,-1,-1,-1,-1,-1,-1,-1,-1],"loss_changes":[7.250874E2,1.11642975E2,2.2979877E2,4.556636E1,4.852301E1,9.380255E1,5.5544147E1,0E0,0E0,0E0,0E0,0E0,0E0,0E0,0E0],"parents":[2147483647,0,0,1,1,2,2,3,3,4,4,5,5,6,6],"right_children":[2,4,6,8,10,12,14,-1,-1,-1,-1,-1,-1,-1,-1],"split_conditions":[3.906E2,1.5E1,3.4408602E-1,1.592E2,3.994911E-1,3E0,1.86E2,1.09084705E-2,-2.587367E-2,-0E0,-7.748878E-2,-2.6537012E-2,7.521215E-2,1.956124E-2,-3.185724E-2],"split_indices":[8,1,12,3,12,7,3,0,0,0,0,0,0,0,0],"split_type":[0,0,0,0,0,0,0,0,0,0,0,0,0,0,0],"sum_hessian":[1.21E2,6.9E1,5.2E1,5.1E1,1.8E1,3.4E1,1.8E1,9E0,4.2E1,3E0,1.5E1,1E0,3.3E1,1.1E1,7E0],"tree_param":{"num_deleted":"0","num_feature":"22","num_nodes":"15","size_leaf_vector":"1"}},{"base_weights":[-4.95728E-2,4.621346E0,-1.4883635E0,5.7425656E0,1.9804467E0,-4.7853193E-1,-3.1727753E0,4.0282756E-2,1.20742075E-1,4.049576E-2,-8.6065556E-4,7.396401E-3,-2.7188256E-2,-6.0984816E-2,-3.6500324E-3],"categories":[],"categories_nodes":[],"categories_segments":[],"categories_sizes":[],"default_left":[0,0,0,0,0,0,0,0,0,0,0,0,0,0,0],"id":75,"left_children":[1,3,5,7,9,11,13,-1,-1,-1,-1,-1,-1,-1,-1],"loss_changes":[8.808067E2,4.930603E1,1.624622E2,3.94093E1,1.656646E1,7.561442E1,4.836142E1,0E0,0E0,0E0,0E0,0E0,0E0,0E0,0E0],"parents":[2147483647,0,0,1,1,2,2,3,3,4,4,5,5,6,6],"right_children":[2,4,6,8,10,12,14,-1,-1,-1,-1,-1,-1,-1,-1],"split_conditions":[3.250978E-1,2.45E1,5.548163E-1,3.85E2,1.17E1,3.9683044E-1,3.133E2,4.0282756E-2,1.20742075E-1,4.049576E-2,-8.6065556E-4,7.396401E-3,-2.7188256E-2,-6.0984816E-2,-3.6500324E-3],"split_indices":[9,2,9,0,4,12,0,0,0,0,0,0,0,0,0],"split_type":[0,0,0,0,0,0,0,0,0,0,0,0,0,0,0],"sum_hessian":[1.26E2,2.8E1,9.8E1,1.7E1,1.1E1,6.4E1,3.4E1,8E0,9E0,9E0,2E0,3.6E1,2.8E1,2.8E1,6E0],"tree_param":{"num_deleted":"0","num_feature":"22","num_nodes":"15","size_leaf_vector":"1"}},{"base_weights":[-1.4771289E-1,-2.1335468E0,2.4860446E0,-3.0680957E0,-7.2073454E-1,3.2272236E0,-1.6310128E0,-5.513807E-2,1.06069455E-2,-1.3635404E-3,-2.857494E-2,6.463913E-2,7.7249343E-3,-3.2784082E-2,6.6379254E-4],"categories":[],"categories_nodes":[],"categories_segments":[],"categories_sizes":[],"default_left":[0,0,0,0,0,0,0,0,0,0,0,0,0,0,0],"id":76,"left_children":[1,3,5,7,9,11,13,-1,-1,-1,-1,-1,-1,-1,-1],"loss_changes":[6.5667944E2,8.368393E1,1.8099521E2,5.0437653E1,1.831773E1,7.695535E1,8.482756E0,0E0,0E0,0E0,0E0,0E0,0E0,0E0,0E0],"parents":[2147483647,0,0,1,1,2,2,3,3,4,4,5,5,6,6],"right_children":[2,4,6,8,10,12,14,-1,-1,-1,-1,-1,-1,-1,-1],"split_conditions":[3.913E2,1.5397924E-2,5.9208596E-1,1.8627E3,3.9683044E-1,1.893E2,6.12312E-1,-5.513807E-2,1.06069455E-2,-1.3635404E-3,-2.857494E-2,6.463913E-2,7.7249343E-3,-3.2784082E-2,6.6379254E-4],"split_indices":[8,16,12,13,12,3,12,0,0,0,0,0,0,0,0],"split_type":[0,0,0,0,0,0,0,0,0,0,0,0,0,0,0],"sum_hessian":[1.2E2,6.9E1,5.1E1,3.9E1,3E1,4.4E1,7E0,3.7E1,2E0,2.1E1,9E0,3.4E1,1E1,6E0,1E0],"tree_param":{"num_deleted":"0","num_feature":"22","num_nodes":"15","size_leaf_vector":"1"}},{"base_weights":[2.0658833E-1,4.6225986E0,-1.1048481E0,5.8582697E0,1.9067699E0,7.5437385E-1,-2.1173844E0,1.0539812E-1,6.286677E-3,3.924889E-2,-1.3002391E-3,3.9440863E-2,-1.0147535E-2,-5.9849616E-2,-2.1734662E-2],"categories":[],"categories_nodes":[],"categories_segments":[],"categories_sizes":[],"default_left":[0,0,0,0,0,0,0,0,0,0,0,0,0,0,0],"id":77,"left_children":[1,3,5,7,9,11,13,-1,-1,-1,-1,-1,-1,-1,-1],"loss_changes":[7.5322815E2,5.8624634E1,1.9412573E2,3.712622E1,1.6250027E1,8.839641E1,5.9604126E1,0E0,0E0,0E0,0E0,0E0,0E0,0E0,0E0],"parents":[2147483647,0,0,1,1,2,2,3,3,4,4,5,5,6,6],"right_children":[2,4,6,8,10,12,14,-1,-1,-1,-1,-1,-1,-1,-1],"split_conditions":[3.250978E-1,2.45E1,4.5444092E-1,3.660284E0,1.17E1,3.3964974E-1,1.907E2,1.0539812E-1,6.286677E-3,3.924889E-2,-1.3002391E-3,3.9440863E-2,-1.0147535E-2,-5.9849616E-2,-2.1734662E-2],"split_indices":[9,2,9,15,4,12,0,0,0,0,0,0,0,0,0],"split_type":[0,0,0,0,0,0,0,0,0,0,0,0,0,0,0],"sum_hessian":[1.24E2,2.7E1,9.7E1,1.6E1,1.1E1,3.4E1,6.3E1,1.4E1,2E0,9E0,2E0,1.5E1,1.9E1,1.8E1,4.5E1],"tree_param":{"num_deleted":"0","num_feature":"22","num_nodes":"15","size_leaf_vector":"1"}},{"base_weights":[6.2942296E-2,4.6348424E0,-1.2252061E0,5.913036E0,1.74158E0,-4.5993903E-1,-3.7742028E0,1.02843255E-1,-0E0,3.67181E-2,-1.2912735E-3,1.7364899E-2,-2.3562614E-2,-6.595457E-2,-7.085861E-3],"categories":[],"categories_nodes":[],"categories_segments":[],"categories_sizes":[],"default_left":[0,0,0,0,0,0,0,0,0,0,0,0,0,0,0],"id":78,"left_children":[1,3,5,7,9,11,13,-1,-1,-1,-1,-1,-1,-1,-1],"loss_changes":[7.435539E2,6.4016235E1,1.804124E2,2.6628174E1,1.4389465E1,1.1934003E2,4.927246E0,0E0,0E0,0E0,0E0,0E0,0E0,0E0,0E0],"parents":[2147483647,0,0,1,1,2,2,3,3,4,4,5,5,6,6],"right_children":[2,4,6,8,10,12,14,-1,-1,-1,-1,-1,-1,-1,-1],"split_conditions":[3.250978E-1,2.45E1,3.9994338E-1,1.1343E3,2.3159144E-2,4.5444092E-1,2.514E2,1.02843255E-1,-0E0,3.67181E-2,-1.2912735E-3,1.7364899E-2,-2.3562614E-2,-6.595457E-2,-7.085861E-3],"split_indices":[9,2,10,5,16,9,0,0,0,0,0,0,0,0,0],"split_type":[0,0,0,0,0,0,0,0,0,0,0,0,0,0,0],"sum_hessian":[1.2E2,2.5E1,9.5E1,1.5E1,1E1,7.6E1,1.9E1,1.4E1,1E0,8E0,2E0,2.9E1,4.7E1,1.7E1,2E0],"tree_param":{"num_deleted":"0","num_feature":"22","num_nodes":"15","size_leaf_vector":"1"}},{"base_weights":[6.2437817E-3,-1.1038226E0,4.196962E0,-2.675887E0,5.319716E-1,-2.6734572E-2,4.6312156E0,-5.559293E-2,-1.3785547E-2,-1.4816663E-2,2.7718112E-2,9.264902E-2,3.2457676E-2],"categories":[],"categories_nodes":[],"categories_segments":[],"categories_sizes":[],"default_left":[0,0,0,0,0,0,0,0,0,0,0,0,0],"id":79,"left_children":[1,3,5,7,9,-1,11,-1,-1,-1,-1,-1,-1],"loss_changes":[6.161804E2,2.737076E2,9.505798E1,5.450876E1,9.1375175E1,0E0,2.8664673E1,0E0,0E0,0E0,0E0,0E0,0E0],"parents":[2147483647,0,0,1,1,2,2,3,3,4,4,6,6],"right_children":[2,4,6,8,10,-1,12,-1,-1,-1,-1,-1,-1],"split_conditions":[3.87E2,5.8E0,3E0,9.78E2,2.182E2,-2.6734572E-2,2.45E1,-5.559293E-2,-1.3785547E-2,-1.4816663E-2,2.7718112E-2,9.264902E-2,3.2457676E-2],"split_indices":[0,4,7,5,0,0,2,0,0,0,0,0,0],"split_type":[0,0,0,0,0,0,0,0,0,0,0,0,0],"sum_hessian":[1.26E2,1.01E2,2.5E1,5.1E1,5E1,1E0,2.4E1,3.5E1,1.6E1,2.2E1,2.8E1,1.5E1,9E0],"tree_param":{"num_deleted":"0","num_feature":"22","num_nodes":"13","size_leaf_vector":"1"}},{"base_weights":[-0E0,4.1819434E0,-1.1953145E0,5.462339E0,1.284717E0,5.1466167E-1,-2.0680165E0,9.902276E-4,9.9580504E-2,2.7854238E-2,-1.5060765E-3,-2.9553626E-2,1.808202E-2,-5.9363957E-2,-2.0580808E-2],"categories":[],"categories_nodes":[],"categories_segments":[],"categories_sizes":[],"default_left":[0,0,0,0,0,0,0,0,0,0,0,0,0,0,0],"id":80,"left_children":[1,3,5,7,9,11,13,-1,-1,-1,-1,-1,-1,-1,-1],"loss_changes":[6.477242E2,7.841403E1,1.5542664E2,4.7545288E1,9.519268E0,5.218651E1,6.614197E1,0E0,0E0,0E0,0E0,0E0,0E0,0E0,0E0],"parents":[2147483647,0,0,1,1,2,2,3,3,4,4,5,5,6,6],"right_children":[2,4,6,8,10,12,14,-1,-1,-1,-1,-1,-1,-1,-1],"split_conditions":[3.250978E-1,2.45E1,4.5444092E-1,3.237E2,1.17E1,1.6484E3,1.907E2,9.902276E-4,9.9580504E-2,2.7854238E-2,-1.5060765E-3,-2.9553626E-2,1.808202E-2,-5.9363957E-2,-2.0580808E-2],"split_indices":[9,2,9,0,4,13,0,0,0,0,0,0,0,0,0],"split_type":[0,0,0,0,0,0,0,0,0,0,0,0,0,0,0],"sum_hessian":[1.24E2,2.6E1,9.8E1,1.6E1,1E1,3.3E1,6.5E1,2E0,1.4E1,8E0,2E0,5E0,2.8E1,1.9E1,4.6E1],"tree_param":{"num_deleted":"0","num_feature":"22","num_nodes":"15","size_leaf_vector":"1"}},{"base_weights":[1.0424078E-1,4.280774E0,-1.200814E0,5.328481E0,1.8144792E0,-5.350508E-1,-3.530695E0,3.5799142E-2,1.13349356E-1,3.75425E-2,-1.4956912E-3,-1.9667042E-2,1.9652288E-2,-6.1803445E-2,-6.6143265E-3],"categories":[],"categories_nodes":[],"categories_segments":[],"categories_sizes":[],"default_left":[0,0,0,0,0,0,0,0,0,0,0,0,0,0,0],"id":81,"left_children":[1,3,5,7,9,11,13,-1,-1,-1,-1,-1,-1,-1,-1],"loss_changes":[7.040987E2,4.322052E1,1.4112889E2,4.2135315E1,1.5351471E1,9.3799576E1,3.754425E0,0E0,0E0,0E0,0E0,0E0,0E0,0E0,0E0],"parents":[2147483647,0,0,1,1,2,2,3,3,4,4,5,5,6,6],"right_children":[2,4,6,8,10,12,14,-1,-1,-1,-1,-1,-1,-1,-1],"split_conditions":[3.250978E-1,2.45E1,3.9994338E-1,3.85E2,1.17E1,3.913E2,2.514E2,3.5799142E-2,1.13349356E-1,3.75425E-2,-1.4956912E-3,-1.9667042E-2,1.9652288E-2,-6.1803445E-2,-6.6143265E-3],"split_indices":[9,2,10,0,4,8,0,0,0,0,0,0,0,0,0],"split_type":[0,0,0,0,0,0,0,0,0,0,0,0,0,0,0],"sum_hessian":[1.23E2,2.8E1,9.5E1,1.7E1,1.1E1,7.7E1,1.8E1,8E0,9E0,9E0,2E0,5.7E1,2E1,1.6E1,2E0],"tree_param":{"num_deleted":"0","num_feature":"22","num_nodes":"15","size_leaf_vector":"1"}},{"base_weights":[-1.1358464E-1,4.095711E0,-1.2959951E0,5.2123523E0,2.042447E-2,-3.5074294E-1,-2.995895E0,3.5360426E-2,1.1277447E-1,-2.2405887E-2,5.509935E-3,-5.8654625E-2,-1.6307019E-3],"categories":[],"categories_nodes":[],"categories_segments":[],"categories_sizes":[],"default_left":[0,0,0,0,0,0,0,0,0,0,0,0,0],"id":82,"left_children":[1,3,5,7,-1,9,11,-1,-1,-1,-1,-1,-1],"loss_changes":[6.3238477E2,6.242679E1,1.5307173E2,4.0257416E1,0E0,4.910362E1,4.963098E1,0E0,0E0,0E0,0E0,0E0,0E0],"parents":[2147483647,0,0,1,1,2,2,3,3,5,5,6,6],"right_children":[2,4,6,8,-1,10,12,-1,-1,-1,-1,-1,-1],"split_conditions":[3.250978E-1,6.1326656E-2,5.548163E-1,3.85E2,2.042447E-2,2.137E2,3.133E2,3.5360426E-2,1.1277447E-1,-2.2405887E-2,5.509935E-3,-5.8654625E-2,-1.6307019E-3],"split_indices":[9,11,9,0,0,0,0,0,0,0,0,0,0],"split_type":[0,0,0,0,0,0,0,0,0,0,0,0,0],"sum_hessian":[1.22E2,2.5E1,9.7E1,1.6E1,9E0,6.5E1,3.2E1,8E0,8E0,2.6E1,3.9E1,2.6E1,6E0],"tree_param":{"num_deleted":"0","num_feature":"22","num_nodes":"13","size_leaf_vector":"1"}},{"base_weights":[1.00064486E-1,-9.28414E-1,4.3967867E0,-1.5912609E0,1.8007687E0,5.1268682E0,1.6070116E0,-1.5324683E-2,-5.8680665E-2,3.1981112E-3,4.975411E-2,1.9228116E-2,9.747036E-2,5.195754E-3,3.5126742E-2],"categories":[],"categories_nodes":[],"categories_segments":[],"categories_sizes":[],"default_left":[0,0,0,0,0,0,0,0,0,0,0,0,0,0,0],"id":83,"left_children":[1,3,5,7,9,11,13,-1,-1,-1,-1,-1,-1,-1,-1],"loss_changes":[5.895479E2,2.0096306E2,2.0718811E1,9.916034E1,3.6482117E1,2.8588867E1,1.5035076E0,0E0,0E0,0E0,0E0,0E0,0E0,0E0,0E0],"parents":[2147483647,0,0,1,1,2,2,3,3,4,4,5,5,6,6],"right_children":[2,4,6,8,10,12,14,-1,-1,-1,-1,-1,-1,-1,-1],"split_conditions":[5.25E2,1.09E1,2.45E1,3.9994338E-1,2E1,3.39E2,4.4443747E-1,-1.5324683E-2,-5.8680665E-2,3.1981112E-3,4.975411E-2,1.9228116E-2,9.747036E-2,5.195754E-3,3.5126742E-2],"split_indices":[8,4,2,10,1,0,14,0,0,0,0,0,0,0,0],"split_type":[0,0,0,0,0,0,0,0,0,0,0,0,0,0,0],"sum_hessian":[1.27E2,1.04E2,2.3E1,8.5E1,1.9E1,1.6E1,7E0,6.7E1,1.8E1,1E1,9E0,4E0,1.2E1,4E0,3E0],"tree_param":{"num_deleted":"0","num_feature":"22","num_nodes":"15","size_leaf_vector":"1"}},{"base_weights":[7.971763E-2,-1.7919748E0,2.4153407E0,-2.6884527E0,-3.5849085E-1,3.7538419E0,-1.0217127E-1,-4.8399474E-2,1.1068089E-2,2.4237316E-2,-1.4895975E-2,-2.673972E-2,6.7015246E-2,-2.998896E-2,1.7827632E-2],"categories":[],"categories_nodes":[],"categories_segments":[],"categories_sizes":[],"default_left":[0,0,0,0,0,0,0,0,0,0,0,0,0,0,0],"id":84,"left_children":[1,3,5,7,9,11,13,-1,-1,-1,-1,-1,-1,-1,-1],"loss_changes":[5.760009E2,8.68967E1,2.0396323E2,4.3199677E1,3.43723E1,8.321466E1,5.242363E1,0E0,0E0,0E0,0E0,0E0,0E0,0E0,0E0],"parents":[2147483647,0,0,1,1,2,2,3,3,4,4,5,5,6,6],"right_children":[2,4,6,8,10,12,14,-1,-1,-1,-1,-1,-1,-1,-1],"split_conditions":[3.913E2,5.8E0,3.4408602E-1,1.8627E3,2.8333735E-1,1.3862944E0,1.7E0,-4.8399474E-2,1.1068089E-2,2.4237316E-2,-1.4895975E-2,-2.673972E-2,6.7015246E-2,-2.998896E-2,1.7827632E-2],"split_indices":[8,4,12,13,11,17,4,0,0,0,0,0,0,0,0],"split_type":[0,0,0,0,0,0,0,0,0,0,0,0,0,0,0],"sum_hessian":[1.26E2,7E1,5.6E1,4.1E1,2.9E1,3.6E1,2E1,3.9E1,2E0,5E0,2.4E1,1E0,3.5E1,8E0,1.2E1],"tree_param":{"num_deleted":"0","num_feature":"22","num_nodes":"15","size_leaf_vector":"1"}},{"base_weights":[1.4561307E-1,4.1493154E0,-1.0905372E0,5.2595167E0,1.7004822E0,-4.1273466E-1,-5.6528687E-2,1.0098397E-1,1.764922E-2,3.5717063E-2,-2.4309384E-3,-1.8585108E-2,2.112545E-2],"categories":[],"categories_nodes":[],"categories_segments":[],"categories_sizes":[],"default_left":[0,0,0,0,0,0,0,0,0,0,0,0,0],"id":85,"left_children":[1,3,5,7,9,11,-1,-1,-1,-1,-1,-1,-1],"loss_changes":[6.244191E2,4.6920288E1,1.4209552E2,3.893457E1,1.5181843E1,9.720032E1,0E0,0E0,0E0,0E0,0E0,0E0,0E0],"parents":[2147483647,0,0,1,1,2,2,3,3,4,4,5,5],"right_children":[2,4,6,8,10,12,-1,-1,-1,-1,-1,-1,-1],"split_conditions":[3.250978E-1,2.45E1,3.9994338E-1,1.92E2,2.3159144E-2,3.913E2,-5.6528687E-2,1.0098397E-1,1.764922E-2,3.5717063E-2,-2.4309384E-3,-1.8585108E-2,2.112545E-2],"split_indices":[9,2,10,1,16,8,0,0,0,0,0,0,0],"split_type":[0,0,0,0,0,0,0,0,0,0,0,0,0],"sum_hessian":[1.2E2,2.7E1,9.3E1,1.6E1,1.1E1,7.5E1,1.8E1,1.2E1,4E0,9E0,2E0,5.4E1,2.1E1],"tree_param":{"num_deleted":"0","num_feature":"22","num_nodes":"13","size_leaf_vector":"1"}},{"base_weights":[3.6483012E-2,4.3487654E0,-1.1069585E0,5.2619085E0,1.751526E0,-4.605799E-1,-5.657883E-2,1.01113155E-1,1.7477477E-2,3.8987983E-2,7.0950203E-3,-1.9650957E-2,2.2834202E-2],"categories":[],"categories_nodes":[],"categories_segments":[],"categories_sizes":[],"default_left":[0,0,0,0,0,0,0,0,0,0,0,0,0],"id":86,"left_children":[1,3,5,7,9,11,-1,-1,-1,-1,-1,-1,-1],"loss_changes":[6.527998E2,3.1001099E1,1.4569406E2,3.972296E1,2.9899712E0,1.1781589E2,0E0,0E0,0E0,0E0,0E0,0E0,0E0],"parents":[2147483647,0,0,1,1,2,2,3,3,4,4,5,5],"right_children":[2,4,6,8,10,12,-1,-1,-1,-1,-1,-1,-1],"split_conditions":[3.250978E-1,2.45E1,3.9994338E-1,3.5870185E-1,9.382E2,3.913E2,-5.657883E-2,1.01113155E-1,1.7477477E-2,3.8987983E-2,7.0950203E-3,-1.9650957E-2,2.2834202E-2],"split_indices":[9,2,10,10,5,8,0,0,0,0,0,0,0],"split_type":[0,0,0,0,0,0,0,0,0,0,0,0,0],"sum_hessian":[1.26E2,2.5E1,1.01E2,1.6E1,9E0,8.2E1,1.9E1,1.2E1,4E0,4E0,5E0,6E1,2.2E1],"tree_param":{"num_deleted":"0","num_feature":"22","num_nodes":"13","size_leaf_vector":"1"}},{"base_weights":[7.463E-2,-8.8002664E-1,4.152591E0,6.455913E-1,-1.7944012E0,4.8854833E0,1.1175789E0,-1.0836774E-2,3.1815276E-2,-1.727245E-2,-4.6717405E-2,9.272948E-2,1.8504214E-2,1.9980961E-2,-0E0],"categories":[],"categories_nodes":[],"categories_segments":[],"categories_sizes":[],"default_left":[0,0,0,0,0,0,0,0,0,0,0,0,0,0,0],"id":87,"left_children":[1,3,5,7,9,11,13,-1,-1,-1,-1,-1,-1,-1,-1],"loss_changes":[5.081362E2,1.5093518E2,3.206961E1,7.2944695E1,3.830687E1,2.4603424E1,3.8291073E-1,0E0,0E0,0E0,0E0,0E0,0E0,0E0,0E0],"parents":[2147483647,0,0,1,1,2,2,3,3,4,4,5,5,6,6],"right_children":[2,4,6,8,10,12,14,-1,-1,-1,-1,-1,-1,-1,-1],"split_conditions":[5.25E2,4.5444092E-1,2.45E1,7.807E2,3.9683044E-1,3.4408602E-1,2.035E2,-1.0836774E-2,3.1815276E-2,-1.727245E-2,-4.6717405E-2,9.272948E-2,1.8504214E-2,1.9980961E-2,-0E0],"split_indices":[8,9,2,6,12,12,3,0,0,0,0,0,0,0,0],"split_type":[0,0,0,0,0,0,0,0,0,0,0,0,0,0,0],"sum_hessian":[1.24E2,1.02E2,2.2E1,3.8E1,6.4E1,1.6E1,6E0,1.9E1,1.9E1,4.1E1,2.3E1,1.2E1,4E0,5E0,1E0],"tree_param":{"num_deleted":"0","num_feature":"22","num_nodes":"15","size_leaf_vector":"1"}},{"base_weights":[7.688563E-2,3.6835232E0,-1.0000147E0,4.3537445E0,9.389315E-1,5.1640457E-1,-1.7675364E0,-0E0,7.5210705E-2,2.379142E-2,-0E0,2.812963E-2,-7.391051E-3,-5.1923674E-2,-1.8153591E-2],"categories":[],"categories_nodes":[],"categories_segments":[],"categories_sizes":[],"default_left":[0,0,0,0,0,0,0,0,0,0,0,0,0,0,0],"id":88,"left_children":[1,3,5,7,9,11,13,-1,-1,-1,-1,-1,-1,-1,-1],