{"learner":{"attributes":{"scikit_learn":"{\"_estimator_type\": \"regressor\"}"},"feature_names":["Cement","Blast_Furnace_Slag","Fly_Ash","Water","Superplasticizer","Coarse_Aggregate","Fine_Aggregate","Age","Binder","W_B_ratio","GGBS_ratio","FlyAsh_ratio","SCM_ratio","Total_Aggregate","Fine_Agg_ratio","Agg_Binder_ratio","SP_per_binder","log_Age","sqrt_Age","Age_very_early","Age_early","Age_standard"],"feature_types":["float","float","float","float","float","float","float","int","float","float","float","float","float","float","float","float","float","float","float","int","int","int"],"gradient_booster":{"model":{"cats":{"enc":[],"feature_segments":[],"sorted_idx":[]},"gbtree_model_param":{"num_parallel_tree":"1","num_trees":"162"},"iteration_indptr":[0,1,2,3,4,5,6,7,8,9,10,11,12,13,14,15,16,17,18,19,20,21,22,23,24,25,26,27,28,29,30,31,32,33,34,35,36,37,38,39,40,41,42,43,44,45,46,47,48,49,50,51,52,53,54,55,56,57,58,59,60,61,62,63,64,65,66,67,68,69,70,71,72,73,74,75,76,77,78,79,80,81,82,83,84,85,86,87,88,89,90,91,92,93,94,95,96,97,98,99,100,101,102,103,104,105,106,107,108,109,110,111,112,113,114,115,116,117,118,119,120,121,122,123,124,125,126,127,128,129,130,131,132,133,134,135,136,137,138,139,140,141,142,143,144,145,146,147,148,149,150,151,152,153,154,155,156,157,158,159,160,161,162],"tree_info":[0,0,0,0,0,0,0,0,0,0,0,0,0,0,0,0,0,0,0,0,0,0,0,0,0,0,0,0,0,0,0,0,0,0,0,0,0,0,0,0,0,0,0,0,0,0,0,0,0,0,0,0,0,0,0,0,0,0,0,0,0,0,0,0,0,0,0,0,0,0,0,0,0,0,0,0,0,0,0,0,0,0,0,0,0,0,0,0,0,0,0,0,0,0,0,0,0,0,0,0,0,0,0,0,0,0,0,0,0,0,0,0,0,0,0,0,0,0,0,0,0,0,0,0,0,0,0,0,0,0,0,0,0,0,0,0,0,0,0,0,0,0,0,0,0,0,0,0,0,0,0,0,0,0,0,0,0,0,0,0,0,0],"trees":[{"base_weights":[1.0969999E-1,1.2774296E1,-5.9591756E0,-1.1980329E0,1.9424307E1,-2.0484459E1,-1.5454897E0,-8.52767E0,4.2533503E0,2.8354712E1,1.4152208E1,-2.1023651E1,-2.517555E0,-6.1532264E0,6.409158E0,-4.737085E-1,-1.8675966E0,-6.02336E-1,1.1585305E0,1.526027E-2,3.6654205E0,9.4372086E-2,2.1398847E0,-2.8899343E0,-2.2427208E0,-7.8392434E-1,1.1602942E-1,-7.9917766E-2,-1.3221543E0,1.0759552E0,-6.032238E-1],"categories":[],"categories_nodes":[],"categories_segments":[],"categories_sizes":[],"default_left":[0,0,0,0,0,0,0,0,0,0,0,0,0,0,0,0,0,0,0,0,0,0,0,0,0,0,0,0,0,0,0],"id":0,"left_children":[1,3,5,7,9,11,13,15,17,19,21,23,25,27,29,-1,-1,-1,-1,-1,-1,-1,-1,-1,-1,-1,-1,-1,-1,-1,-1],"loss_changes":[6.552398E4,2.5689656E4,3.6908945E4,3.576768E3,8.682648E3,1.2623398E3,1.6216019E4,1.1191833E3,2.3163403E3,1.5735977E3,4.5419824E3,6.864258E2,6.114559E1,6.7437227E3,3.9328745E3,0E0,0E0,0E0,0E0,0E0,0E0,0E0,0E0,0E0,0E0,0E0,0E0,0E0,0E0,0E0,0E0],"parents":[2147483647,0,0,1,1,2,2,3,3,4,4,5,5,6,6,7,7,8,8,9,9,10,10,11,11,12,12,13,13,14,14],"right_children":[2,4,6,8,10,12,14,16,18,20,22,24,26,28,30,-1,-1,-1,-1,-1,-1,-1,-1,-1,-1,-1,-1,-1,-1,-1,-1],"split_conditions":[4.0248963E-1,2.8E1,1.4E1,7E0,3.100167E-1,3.97E2,5.6E1,3.2573232E-1,3.214E2,1.572E3,2.12E2,2.553E2,4.018E2,4.9235994E-1,6.0261875E-1,-4.737085E-1,-1.8675966E0,-6.02336E-1,1.1585305E0,1.526027E-2,3.6654205E0,9.4372086E-2,2.1398847E0,-2.8899343E0,-2.2427208E0,-7.8392434E-1,1.1602942E-1,-7.9917766E-2,-1.3221543E0,1.0759552E0,-6.032238E-1],"split_indices":[9,7,7,7,9,0,7,9,0,13,0,0,0,9,9,0,0,0,0,0,0,0,0,0,0,0,0,0,0,0,0],"split_type":[0,0,0,0,0,0,0,0,0,0,0,0,0,0,0,0,0,0,0,0,0,0,0,0,0,0,0,0,0,0,0],"sum_hessian":[8.52E2,2.76E2,5.76E2,8.9E1,1.87E2,1.34E2,4.42E2,3.8E1,5.1E1,6.9E1,1.18E2,1.3E2,4E0,2.8E2,1.62E2,2.2E1,1.6E1,1.8E1,3.3E1,2E0,6.7E1,2.1E1,9.7E1,7.9E1,5.1E1,2E0,2E0,1.24E2,1.56E2,1.36E2,2.6E1],"tree_param":{"num_deleted":"0","num_feature":"22","num_nodes":"31","size_leaf_vector":"1"}},{"base_weights":[1.7580128E-1,9.043505E0,-6.2954507E0,-2.5928228E0,1.4361244E1,-1.0388474E1,4.093097E0,1.4861152E0,-8.807667E0,2.3593014E1,9.714154E0,-1.7918839E1,-6.6542964E0,6.083506E0,-4.3418417E0,-5.907409E-1,9.906943E-1,-1.6975722E0,-7.1894556E-1,3.375331E0,2.202499E0,1.4904737E0,-4.0478185E-1,-2.5811129E0,-1.705629E0,-6.384149E-1,-2.1543033E0,5.7878E-1,1.8351384E0,-1.140982E0,-2.629409E-1],"categories":[],"categories_nodes":[],"categories_segments":[],"categories_sizes":[],"default_left":[0,0,0,0,0,0,0,0,0,0,0,0,0,0,0,0,0,0,0,0,0,0,0,0,0,0,0,0,0,0,0],"id":1,"left_children":[1,3,5,7,9,11,13,15,17,19,21,23,25,27,29,-1,-1,-1,-1,-1,-1,-1,-1,-1,-1,-1,-1,-1,-1,-1,-1],"loss_changes":[4.817289E4,2.1939053E4,2.064723E4,2.830142E3,1.0348414E4,9.738797E3,2.3110022E3,2.6731353E3,6.0371704E2,1.4640312E3,4.5299414E3,1.2176133E3,3.8048096E3,1.3636787E3,2.6269714E2,0E0,0E0,0E0,0E0,0E0,0E0,0E0,0E0,0E0,0E0,0E0,0E0,0E0,0E0,0E0,0E0],"parents":[2147483647,0,0,1,1,2,2,3,3,4,4,5,5,6,6,7,7,8,8,9,9,10,10,11,11,12,12,13,13,14,14],"right_children":[2,4,6,8,10,12,14,16,18,20,22,24,26,28,30,-1,-1,-1,-1,-1,-1,-1,-1,-1,-1,-1,-1,-1,-1,-1,-1],"split_conditions":[4.3296704E-1,2.8E1,5.6E1,3.3739838E-1,3.250978E-1,1.4E1,6.0261875E-1,7E0,5.8E0,6.1326656E-2,6.1298704E-1,2.904E2,3.983051E-1,5.9800667E-1,2.64E2,-5.907409E-1,9.906943E-1,-1.6975722E0,-7.1894556E-1,3.375331E0,2.202499E0,1.4904737E0,-4.0478185E-1,-2.5811129E0,-1.705629E0,-6.384149E-1,-2.1543033E0,5.7878E-1,1.8351384E0,-1.140982E0,-2.629409E-1],"split_indices":[9,7,7,12,9,7,9,7,4,11,12,0,11,9,8,0,0,0,0,0,0,0,0,0,0,0,0,0,0,0,0],"split_type":[0,0,0,0,0,0,0,0,0,0,0,0,0,0,0,0,0,0,0,0,0,0,0,0,0,0,0,0,0,0,0],"sum_hessian":[8.39E2,3.54E2,4.85E2,1.11E2,2.43E2,3.48E2,1.37E2,6.7E1,4.4E1,8.1E1,1.62E2,1.15E2,2.33E2,1.11E2,2.6E1,3.4E1,3.3E1,1.7E1,2.7E1,5.2E1,2.9E1,1.39E2,2.3E1,7.1E1,4.4E1,2.03E2,3E1,9.5E1,1.6E1,8E0,1.8E1],"tree_param":{"num_deleted":"0","num_feature":"22","num_nodes":"31","size_leaf_vector":"1"}},{"base_weights":[-1.5389659E-1,8.125429E0,-5.731056E0,3.9061546E0,2.0632435E1,-1.4401185E1,-1.6988546E0,-7.34088E0,6.5118136E0,2.6179346E1,1.6328434E1,-6.3834805E0,-1.5584524E1,-5.385148E0,3.3687441E0,-2.8339997E-1,-1.4970611E0,1.9195497E-1,1.5310922E0,2.7608202E0,3.6534476E0,-2.5576623E-2,2.1423922E0,-5.3421985E-2,-1.2436423E0,-2.114793E0,-1.3138609E0,-4.332203E-1,-2.0460522E0,1.3562359E-1,1.1518158E0],"categories":[],"categories_nodes":[],"categories_segments":[],"categories_sizes":[],"default_left":[0,0,0,0,0,0,0,0,0,0,0,0,0,0,0,0,0,0,0,0,0,0,0,0,0,0,0,0,0,0,0],"id":2,"left_children":[1,3,5,7,9,11,13,15,17,19,21,23,25,27,29,-1,-1,-1,-1,-1,-1,-1,-1,-1,-1,-1,-1,-1,-1,-1,-1],"loss_changes":[3.9265285E4,1.8013754E4,1.7743322E4,7.517303E3,1.9212734E3,1.4838555E3,6.492096E3,1.0999924E3,5.870285E3,2.6360742E2,6.101113E2,4.3163025E2,8.306133E2,4.2139062E3,1.9274427E3,0E0,0E0,0E0,0E0,0E0,0E0,0E0,0E0,0E0,0E0,0E0,0E0,0E0,0E0,0E0,0E0],"parents":[2147483647,0,0,1,1,2,2,3,3,4,4,5,5,6,6,7,7,8,8,9,9,10,10,11,11,12,12,13,13,14,14],"right_children":[2,4,6,8,10,12,14,16,18,20,22,24,26,28,30,-1,-1,-1,-1,-1,-1,-1,-1,-1,-1,-1,-1,-1,-1,-1,-1],"split_conditions":[4.3296704E-1,5.6E1,2.8E1,7E0,3.2079646E-1,4.8139796E-1,5.6E1,3.2079646E-1,3.14E2,9.47E1,1.266E2,9.634E2,1.4E1,4.07914E-1,3.8E2,-2.8339997E-1,-1.4970611E0,1.9195497E-1,1.5310922E0,2.7608202E0,3.6534476E0,-2.5576623E-2,2.1423922E0,-5.3421985E-2,-1.2436423E0,-2.114793E0,-1.3138609E0,-4.332203E-1,-2.0460522E0,1.3562359E-1,1.1518158E0],"split_indices":[9,7,7,7,9,9,7,9,0,1,3,5,7,11,8,0,0,0,0,0,0,0,0,0,0,0,0,0,0,0,0],"split_type":[0,0,0,0,0,0,0,0,0,0,0,0,0,0,0,0,0,0,0,0,0,0,0,0,0,0,0,0,0,0,0],"sum_hessian":[8.5E2,3.42E2,5.08E2,2.56E2,8.6E1,1.61E2,3.47E2,4.8E1,2.08E2,3.7E1,4.9E1,2.1E1,1.4E2,2.01E2,1.46E2,2.3E1,2.5E1,1.11E2,9.7E1,1.6E1,2.1E1,2E0,4.7E1,8E0,1.3E1,1.12E2,2.8E1,1.71E2,3E1,1.05E2,4.1E1],"tree_param":{"num_deleted":"0","num_feature":"22","num_nodes":"31","size_leaf_vector":"1"}},{"base_weights":[1.01908915E-1,1.0802532E1,-3.6103752E0,5.4912263E-1,1.4942457E1,-1.3370121E1,-6.678186E-1,-3.386923E0,5.328952E0,1.6528801E1,-1.2969776E0,-1.4494571E1,-6.042557E0,-3.78729E0,4.6840663E0,-1.6801889E-1,-1.2508435E0,1.0729039E0,-8.927259E-2,2.3432288E0,1.0902168E0,-2.654277E-1,8.680011E-1,-1.69575E0,-2.2890468E0,-9.501193E-1,2.7014494E-1,9.240757E-2,-8.9519715E-1,1.1544168E0,1.8515874E-1],"categories":[],"categories_nodes":[],"categories_segments":[],"categories_sizes":[],"default_left":[0,0,0,0,0,0,0,0,0,0,0,0,0,0,0,0,0,0,0,0,0,0,0,0,0,0,0,0,0,0,0],"id":3,"left_children":[1,3,5,7,9,11,13,15,17,19,21,23,25,27,29,-1,-1,-1,-1,-1,-1,-1,-1,-1,-1,-1,-1,-1,-1,-1,-1],"loss_changes":[3.4266348E4,9.412928E3,1.8367977E4,1.2139036E3,4.097422E3,1.1796133E3,8.220057E3,4.5841846E2,5.767008E2,2.3397031E3,9.2662544E1,3.8888672E2,2.612754E2,4.7077227E3,2.6058025E3,0E0,0E0,0E0,0E0,0E0,0E0,0E0,0E0,0E0,0E0,0E0,0E0,0E0,0E0,0E0,0E0],"parents":[2147483647,0,0,1,1,2,2,3,3,4,4,5,5,6,6,7,7,8,8,9,9,10,10,11,11,12,12,13,13,14,14],"right_children":[2,4,6,8,10,12,14,16,18,20,22,24,26,28,30,-1,-1,-1,-1,-1,-1,-1,-1,-1,-1,-1,-1,-1,-1,-1,-1],"split_conditions":[3.985582E-1,1.4E1,1.4E1,3.899E2,5.4046243E-1,3.5E2,5.6E1,3.2573232E-1,2.45E1,3.7086093E-1,7.806E2,6.639478E-1,2.16E2,4.8600253E-1,4.8386827E0,-1.6801889E-1,-1.2508435E0,1.0729039E0,-8.927259E-2,2.3432288E0,1.0902168E0,-2.654277E-1,8.680011E-1,-1.69575E0,-2.2890468E0,-9.501193E-1,2.7014494E-1,9.240757E-2,-8.9519715E-1,1.1544168E0,1.8515874E-1],"split_indices":[9,7,7,0,12,0,7,9,2,9,6,9,3,9,15,0,0,0,0,0,0,0,0,0,0,0,0,0,0,0,0],"split_type":[0,0,0,0,0,0,0,0,0,0,0,0,0,0,0,0,0,0,0,0,0,0,0,0,0,0,0,0,0,0,0],"sum_hessian":[8.62E2,2.22E2,6.4E2,6.4E1,1.58E2,1.48E2,4.92E2,3.5E1,2.9E1,1.44E2,1.4E1,1.28E2,2E1,3.11E2,1.81E2,2.7E1,8E0,1.9E1,1E1,1.13E2,3.1E1,1.3E1,1E0,1.02E2,2.6E1,1.7E1,3E0,1.32E2,1.79E2,7.5E1,1.06E2],"tree_param":{"num_deleted":"0","num_feature":"22","num_nodes":"31","size_leaf_vector":"1"}},{"base_weights":[1.7524898E-1,-6.238989E0,4.5550137E0,-9.689017E0,1.4210558E0,-2.7559984E0,7.2433887E0,-1.3570377E1,-7.077797E0,-8.1301856E-1,6.0905395E0,2.8330998E0,-6.404E0,1.40516205E1,3.8395267E0,-1.5601817E0,-2.1156127E0,-6.223361E-1,-1.5274986E0,-7.942111E-1,7.657048E-2,1.7855506E0,5.379541E-1,-2.4540502E-1,9.170592E-1,-1.0428777E0,-4.3532103E-2,1.9628465E0,-2.507949E-1,-5.28712E-1,7.124546E-1],"categories":[],"categories_nodes":[],"categories_segments":[],"categories_sizes":[],"default_left":[0,0,0,0,0,0,0,0,0,0,0,0,0,0,0,0,0,0,0,0,0,0,0,0,0,0,0,0,0,0,0],"id":4,"left_children":[1,3,5,7,9,11,13,15,17,19,21,23,25,27,29,-1,-1,-1,-1,-1,-1,-1,-1,-1,-1,-1,-1,-1,-1,-1,-1],"loss_changes":[2.411342E4,9.214464E3,1.0037224E4,2.3911074E3,1.135854E3,2.8053337E3,8.61723E3,2.855371E2,1.5243428E3,5.810251E2,4.834536E2,1.1680452E3,9.4593506E2,3.157541E3,3.680508E3,0E0,0E0,0E0,0E0,0E0,0E0,0E0,0E0,0E0,0E0,0E0,0E0,0E0,0E0,0E0,0E0],"parents":[2147483647,0,0,1,1,2,2,3,3,4,4,5,5,6,6,7,7,8,8,9,9,10,10,11,11,12,12,13,13,14,14],"right_children":[2,4,6,8,10,12,14,16,18,20,22,24,26,28,30,-1,-1,-1,-1,-1,-1,-1,-1,-1,-1,-1,-1,-1,-1,-1,-1],"split_conditions":[3.719E2,5.6E1,2.8E1,1.4E1,6.5E0,3.2079646E-1,3.7086093E-1,3.9995304E-1,5.9323096E-1,3.065E2,2.832631E-1,7E0,1.4E1,5.4046243E-1,1.65E2,-1.5601817E0,-2.1156127E0,-6.223361E-1,-1.5274986E0,-7.942111E-1,7.657048E-2,1.7855506E0,5.379541E-1,-2.4540502E-1,9.170592E-1,-1.0428777E0,-4.3532103E-2,1.9628465E0,-2.507949E-1,-5.28712E-1,7.124546E-1],"split_indices":[8,7,7,7,4,9,9,10,9,8,11,7,7,12,0,0,0,0,0,0,0,0,0,0,0,0,0,0,0,0,0],"split_type":[0,0,0,0,0,0,0,0,0,0,0,0,0,0,0,0,0,0,0,0,0,0,0,0,0,0,0,0,0,0,0],"sum_hessian":[8.58E2,3.48E2,5.1E2,2.4E2,1.08E2,1.37E2,3.73E2,9.6E1,1.44E2,7.3E1,3.5E1,5.4E1,8.3E1,1.24E2,2.49E2,7.2E1,2.4E1,1.02E2,4.2E1,1.5E1,5.8E1,6E0,2.9E1,2.6E1,2.8E1,6.3E1,2E1,1.13E2,1.1E1,4.6E1,2.03E2],"tree_param":{"num_deleted":"0","num_feature":"22","num_nodes":"31","size_leaf_vector":"1"}},{"base_weights":[4.281702E-2,6.966599E0,-3.1807065E0,-1.429845E0,1.0923756E1,-5.8835535E0,3.2257714E0,-0E0,-1.2387191E1,1.2540018E1,2.5992194E-1,-1.0641008E1,-3.5952418E0,-1.8369555E0,5.1183343E0,-3.939842E-1,3.618841E-1,-1.9879068E0,-1.1886055E0,1.4229826E0,2.7730482E0,-3.0926064E-1,9.1541326E-1,-1.3986276E0,2.4746726E-1,-1.1282253E0,-2.2032094E-1,-4.4940287E-1,3.4483474E-1,4.3901354E-1,1.1052519E0],"categories":[],"categories_nodes":[],"categories_segments":[],"categories_sizes":[],"default_left":[0,0,0,0,0,0,0,0,0,0,0,0,0,0,0,0,0,0,0,0,0,0,0,0,0,0,0,0,0,0,0],"id":5,"left_children":[1,3,5,7,9,11,13,15,17,19,21,23,25,27,29,-1,-1,-1,-1,-1,-1,-1,-1,-1,-1,-1,-1,-1,-1,-1,-1],"loss_changes":[1.954261E4,9.257765E3,1.0348021E4,1.3837448E3,3.2457988E3,4.5504463E3,1.703597E3,7.17735E2,4.284436E1,1.8088809E3,4.9129657E2,8.607324E2,2.8030854E3,3.873932E2,7.515925E2,0E0,0E0,0E0,0E0,0E0,0E0,0E0,0E0,0E0,0E0,0E0,0E0,0E0,0E0,0E0,0E0],"parents":[2147483647,0,0,1,1,2,2,3,3,4,4,5,5,6,6,7,7,8,8,9,9,10,10,11,11,12,12,13,13,14,14],"right_children":[2,4,6,8,10,12,14,16,18,20,22,24,26,28,30,-1,-1,-1,-1,-1,-1,-1,-1,-1,-1,-1,-1,-1,-1,-1,-1],"split_conditions":[4.0248963E-1,2.8E1,5.6E1,4.7619048E-1,5.4046243E-1,1.4E1,3.302E2,7E0,1E0,5.78E2,3.8864627E-1,2.16E2,3.31E2,1.878E3,1.7582418E-2,-3.939842E-1,3.618841E-1,-1.9879068E0,-1.1886055E0,1.4229826E0,2.7730482E0,-3.0926064E-1,9.1541326E-1,-1.3986276E0,2.4746726E-1,-1.1282253E0,-2.2032094E-1,-4.4940287E-1,3.4483474E-1,4.3901354E-1,1.1052519E0],"split_indices":[9,7,7,12,12,7,8,7,20,8,9,3,8,13,16,0,0,0,0,0,0,0,0,0,0,0,0,0,0,0,0],"split_type":[0,0,0,0,0,0,0,0,0,0,0,0,0,0,0,0,0,0,0,0,0,0,0,0,0,0,0,0,0,0,0],"sum_hessian":[8.75E2,2.78E2,5.97E2,8.9E1,1.89E2,4.2E2,1.77E2,7.9E1,1E1,1.64E2,2.5E1,1.36E2,2.84E2,4.8E1,1.29E2,3.8E1,4.1E1,4E0,6E0,1.46E2,1.8E1,1.8E1,7E0,1.31E2,5E0,7.2E1,2.12E2,3.5E1,1.3E1,9E1,3.9E1],"tree_param":{"num_deleted":"0","num_feature":"22","num_nodes":"31","size_leaf_vector":"1"}},{"base_weights":[-2.6005844E-2,-4.9565635E0,3.342904E0,-7.4396005E0,1.2421814E0,1.041668E0,1.0083852E1,-1.034562E1,-5.578307E0,-6.8194056E-1,4.9921646E0,4.390435E0,-1.9070312E0,3.801165E-1,1.1833793E1,-1.6593183E0,-1.1471301E0,-1.3186095E0,-4.6369275E-1,-8.38156E-1,1.8266192E-2,1.5407779E0,4.5492253E-1,3.6281817E-2,9.125393E-1,-8.842476E-1,1.8204635E-2,-2.4739423E-1,2.5711775E-1,1.9261539E0,1.1387583E0],"categories":[],"categories_nodes":[],"categories_segments":[],"categories_sizes":[],"default_left":[0,0,0,0,0,0,0,0,0,0,0,0,0,0,0,0,0,0,0,0,0,0,0,0,0,0,0,0,0,0,0],"id":6,"left_children":[1,3,5,7,9,11,13,15,17,19,21,23,25,27,29,-1,-1,-1,-1,-1,-1,-1,-1,-1,-1,-1,-1,-1,-1,-1,-1],"loss_changes":[1.4327038E4,5.3992607E3,7.9307437E3,1.3232607E3,7.286552E2,3.7786648E3,2.196165E3,2.8749805E2,1.3977954E3,3.3575223E2,3.137384E2,2.1031365E3,2.1478662E3,8.004092E1,1.0111621E3,0E0,0E0,0E0,0E0,0E0,0E0,0E0,0E0,0E0,0E0,0E0,0E0,0E0,0E0,0E0,0E0],"parents":[2147483647,0,0,1,1,2,2,3,3,4,4,5,5,6,6,7,7,8,8,9,9,10,10,11,11,12,12,13,13,14,14],"right_children":[2,4,6,8,10,12,14,16,18,20,22,24,26,28,30,-1,-1,-1,-1,-1,-1,-1,-1,-1,-1,-1,-1,-1,-1,-1,-1],"split_conditions":[3.719E2,5.6E1,5.6E1,1.4E1,1.7326733E-2,3.983615E-1,6.118E2,1.907E2,1.588E2,2.77E2,2.832631E-1,2.8E1,1.4E1,3.33E2,3.8709676E-1,-1.6593183E0,-1.1471301E0,-1.3186095E0,-4.6369275E-1,-8.38156E-1,1.8266192E-2,1.5407779E0,4.5492253E-1,3.6281817E-2,9.125393E-1,-8.842476E-1,1.8204635E-2,-2.4739423E-1,2.5711775E-1,1.9261539E0,1.1387583E0],"split_indices":[8,7,7,7,16,9,6,0,0,8,11,7,7,0,9,0,0,0,0,0,0,0,0,0,0,0,0,0,0,0,0],"split_type":[0,0,0,0,0,0,0,0,0,0,0,0,0,0,0,0,0,0,0,0,0,0,0,0,0,0,0,0,0,0,0],"sum_hessian":[8.62E2,3.5E2,5.12E2,2.5E2,1E2,3.82E2,1.3E2,9.7E1,1.53E2,6.6E1,3.4E1,1.79E2,2.03E2,2E1,1.1E2,2.8E1,6.9E1,4.2E1,1.11E2,8E0,5.8E1,5E0,2.9E1,7.4E1,1.05E2,5.8E1,1.45E2,8E0,1.2E1,4.8E1,6.2E1],"tree_param":{"num_deleted":"0","num_feature":"22","num_nodes":"31","size_leaf_vector":"1"}},{"base_weights":[6.9151536E-2,4.517121E0,-3.1126304E0,2.061287E0,1.140356E1,-7.7918277E0,-9.5892215E-1,4.9541764E0,-1.40803E0,1.3656244E1,9.1245165E0,-1.0302305E1,-6.1489935E0,9.33732E-2,-9.067289E0,9.735739E-1,7.26179E-2,-8.4714454E-1,8.006067E-2,1.3225257E0,2.05556E0,-4.0804276E-1,1.1848296E0,-1.1478721E0,-1.7973361E0,-1.7804666E-1,-9.183033E-1,-6.5161526E-1,1.4171031E-1,-1.4726542E0,-1.474236E-1],"categories":[],"categories_nodes":[],"categories_segments":[],"categories_sizes":[],"default_left":[0,0,0,0,0,0,0,0,0,0,0,0,0,0,0,0,0,0,0,0,0,0,0,0,0,0,0,0,0,0,0],"id":7,"left_children":[1,3,5,7,9,11,13,15,17,19,21,23,25,27,29,-1,-1,-1,-1,-1,-1,-1,-1,-1,-1,-1,-1,-1,-1,-1,-1],"loss_changes":[1.2051182E4,5.9870137E3,4.989054E3,2.6370847E3,4.2678125E2,6.1238184E2,2.913193E3,1.7415974E3,1.3087229E3,3.2498438E2,1.926875E2,2.3180713E2,5.1087402E2,1.6422048E3,8.0424243E2,0E0,0E0,0E0,0E0,0E0,0E0,0E0,0E0,0E0,0E0,0E0,0E0,0E0,0E0,0E0,0E0],"parents":[2147483647,0,0,1,1,2,2,3,3,4,4,5,5,6,6,7,7,8,8,9,9,10,10,11,11,12,12,13,13,14,14],"right_children":[2,4,6,8,10,12,14,16,18,20,22,24,26,28,30,-1,-1,-1,-1,-1,-1,-1,-1,-1,-1,-1,-1,-1,-1,-1,-1],"split_conditions":[4.3296704E-1,5.6E1,2.8E1,3.4408602E-1,7.282996E-2,7E0,3.983051E-1,1.43898E-1,1.4E1,9.38E2,1.266E2,3.9993554E-1,4.8386827E0,3.07E2,1.8334E3,9.735739E-1,7.26179E-2,-8.4714454E-1,8.006067E-2,1.3225257E0,2.05556E0,-4.0804276E-1,1.1848296E0,-1.1478721E0,-1.7973361E0,-1.7804666E-1,-9.183033E-1,-6.5161526E-1,1.4171031E-1,-1.4726542E0,-1.474236E-1],"split_indices":[9,7,7,12,11,7,11,11,7,5,3,10,15,8,13,0,0,0,0,0,0,0,0,0,0,0,0,0,0,0,0],"split_type":[0,0,0,0,0,0,0,0,0,0,0,0,0,0,0,0,0,0,0,0,0,0,0,0,0,0,0,0,0,0,0],"sum_hessian":[8.51E2,3.55E2,4.96E2,2.62E2,9.3E1,1.56E2,3.4E2,1.43E2,1.19E2,4.6E1,4.7E1,6.1E1,9.5E1,3.01E2,3.9E1,8.7E1,5.6E1,3.3E1,8.6E1,2.2E1,2.4E1,1E0,4.6E1,4.8E1,1.3E1,1.9E1,7.6E1,4.9E1,2.52E2,2.9E1,1E1],"tree_param":{"num_deleted":"0","num_feature":"22","num_nodes":"31","size_leaf_vector":"1"}},{"base_weights":[-7.755728E-2,-3.830895E0,2.677551E0,-5.6888423E0,9.4002175E-1,8.503071E-1,8.333618E0,-4.0301733E0,-8.314791E0,2.2645607E0,-3.8609993E0,-4.6353292E0,1.9084958E0,-0E0,9.677475E0,-7.58889E-1,-1.01899154E-1,-1.4451363E0,-9.4775766E-1,5.382277E-2,5.158562E-1,-9.650986E-1,-3.256184E-1,-8.085147E-1,-3.1021213E-2,4.3368712E-1,-3.5469884E-1,-3.9143503E-1,1.2742907E-1,1.0939966E0,1.8614467E0],"categories":[],"categories_nodes":[],"categories_segments":[],"categories_sizes":[],"default_left":[0,0,0,0,0,0,0,0,0,0,0,0,0,0,0,0,0,0,0,0,0,0,0,0,0,0,0,0,0,0,0],"id":8,"left_children":[1,3,5,7,9,11,13,15,17,19,21,23,25,27,29,-1,-1,-1,-1,-1,-1,-1,-1,-1,-1,-1,-1,-1,-1,-1,-1],"loss_changes":[8.991772E3,3.2703481E3,5.168033E3,1.1341172E3,6.562895E2,2.1999485E3,1.3658174E3,1.0475505E3,2.1143115E2,2.6907834E2,9.184924E1,4.7569067E2,2.3272246E3,5.4429947E1,4.7051074E2,0E0,0E0,0E0,0E0,0E0,0E0,0E0,0E0,0E0,0E0,0E0,0E0,0E0,0E0,0E0,0E0],"parents":[2147483647,0,0,1,1,2,2,3,3,4,4,5,5,6,6,7,7,8,8,9,9,10,10,11,11,12,12,13,13,14,14],"right_children":[2,4,6,8,10,12,14,16,18,20,22,24,26,28,30,-1,-1,-1,-1,-1,-1,-1,-1,-1,-1,-1,-1,-1,-1,-1,-1],"split_conditions":[3.745E2,4.0430512E0,4.0430512E0,3.994911E-1,1.927E2,2.0794415E0,6.118E2,3.3672957E0,2.0794415E0,4.5217886E0,4.5108595E0,3.97E2,5.9306955E-1,2.38E2,5.516E2,-7.58889E-1,-1.01899154E-1,-1.4451363E0,-9.4775766E-1,5.382277E-2,5.158562E-1,-9.650986E-1,-3.256184E-1,-8.085147E-1,-3.1021213E-2,4.3368712E-1,-3.5469884E-1,-3.9143503E-1,1.2742907E-1,1.0939966E0,1.8614467E0],"split_indices":[8,17,17,12,3,17,6,17,17,17,17,0,12,0,8,0,0,0,0,0,0,0,0,0,0,0,0,0,0,0,0],"split_type":[0,0,0,0,0,0,0,0,0,0,0,0,0,0,0,0,0,0,0,0,0,0,0,0,0,0,0,0,0,0,0],"sum_hessian":[8.69E2,3.68E2,5.01E2,2.65E2,1.03E2,3.79E2,1.22E2,1.63E2,1.02E2,8.1E1,2.2E1,6.1E1,3.18E2,1.7E1,1.05E2,1E2,6.3E1,1.9E1,8.3E1,4.1E1,4E1,5E0,1.7E1,4.3E1,1.8E1,2.4E2,7.8E1,4E0,1.3E1,8.9E1,1.6E1],"tree_param":{"num_deleted":"0","num_feature":"22","num_nodes":"31","size_leaf_vector":"1"}},{"base_weights":[-1.1122968E-2,4.7125545E0,-1.6758255E0,-1.0927946E-1,6.937768E0,-3.2921176E0,2.304569E0,7.600628E-1,-9.282781E0,9.899615E0,3.3395607E0,-2.3481922E0,-7.6809707E0,6.2232943E0,1.0016469E0,-2.6077646E-1,4.5558065E-1,-1.4984453E0,-7.1400934E-1,-9.5701563E-1,1.3020349E0,2.1462495E0,3.0461004E-1,-6.8477887E-1,-1.2263579E-1,-1.1793702E0,-6.226639E-1,8.390276E-1,-0E0,2.979685E-1,-1.7082487E-1],"categories":[],"categories_nodes":[],"categories_segments":[],"categories_sizes":[],"default_left":[0,0,0,0,0,0,0,0,0,0,0,0,0,0,0,0,0,0,0,0,0,0,0,0,0,0,0,0,0,0,0],"id":9,"left_children":[1,3,5,7,9,11,13,15,17,19,21,23,25,27,29,-1,-1,-1,-1,-1,-1,-1,-1,-1,-1,-1,-1,-1,-1,-1,-1],"loss_changes":[6.7073706E3,2.3921401E3,4.0635493E3,5.710751E2,1.6001782E3,1.8457793E3,9.2077637E2,5.2525964E2,2.498462E1,6.970298E2,8.393778E2,1.5675314E3,3.423916E2,1.318833E2,4.4579053E2,0E0,0E0,0E0,0E0,0E0,0E0,0E0,0E0,0E0,0E0,0E0,0E0,0E0,0E0,0E0,0E0],"parents":[2147483647,0,0,1,1,2,2,3,3,4,4,5,5,6,6,7,7,8,8,9,9,10,10,11,11,12,12,13,13,14,14],"right_children":[2,4,6,8,10,12,14,16,18,20,22,24,26,28,30,-1,-1,-1,-1,-1,-1,-1,-1,-1,-1,-1,-1,-1,-1,-1,-1],"split_conditions":[3.985582E-1,2.8E1,5.6E1,4.7619048E-1,1.10486895E-1,6.0261875E-1,4.75E-1,7E0,1.947E2,8.11E2,2.9305476E-1,1.4E1,2.553E2,4.4979402E-1,5.504645E0,-2.6077646E-1,4.5558065E-1,-1.4984453E0,-7.1400934E-1,-9.5701563E-1,1.3020349E0,2.1462495E0,3.0461004E-1,-6.8477887E-1,-1.2263579E-1,-1.1793702E0,-6.226639E-1,8.390276E-1,-0E0,2.979685E-1,-1.7082487E-1],"split_indices":[9,7,7,12,11,9,9,7,0,5,9,7,0,11,15,0,0,0,0,0,0,0,0,0,0,0,0,0,0,0,0],"split_type":[0,0,0,0,0,0,0,0,0,0,0,0,0,0,0,0,0,0,0,0,0,0,0,0,0,0,0,0,0,0,0],"sum_hessian":[8.53E2,2.22E2,6.31E2,7E1,1.52E2,4.49E2,1.82E2,6.4E1,6E0,8.3E1,6.9E1,3.7E2,7.9E1,4.5E1,1.37E2,3.2E1,3.2E1,3E0,3E0,2E0,8.1E1,4E0,6.5E1,1.13E2,2.57E2,4.8E1,3.1E1,4.2E1,3E0,8.7E1,5E1],"tree_param":{"num_deleted":"0","num_feature":"22","num_nodes":"31","size_leaf_vector":"1"}},{"base_weights":[-6.1751213E-2,4.843398E0,-1.5076095E0,5.028012E-1,7.2563024E0,-2.9601104E0,2.2883804E0,-2.3411698E0,3.296874E0,8.137487E0,-1.9130697E0,-5.7298756E0,-1.6361574E0,6.715079E0,1.2106007E0,-9.9925655E-1,-1.3727145E-1,5.6971284E-3,8.100667E-1,1.2183146E0,4.9868512E-1,-5.3472406E-1,-4.170349E-2,-7.572656E-1,3.760599E-1,-6.027702E-1,-6.0112227E-2,4.4184223E-1,1.0585163E0,2.297508E-1,-3.1586102E-1],"categories":[],"categories_nodes":[],"categories_segments":[],"categories_sizes":[],"default_left":[0,0,0,0,0,0,0,0,0,0,0,0,0,0,0,0,0,0,0,0,0,0,0,0,0,0,0,0,0,0,0],"id":10,"left_children":[1,3,5,7,9,11,13,15,17,19,21,23,25,27,29,-1,-1,-1,-1,-1,-1,-1,-1,-1,-1,-1,-1,-1,-1,-1,-1],"loss_changes":[6.1764297E3,2.0662969E3,3.7140107E3,5.685114E2,1.0381372E3,1.7762627E3,8.776684E2,2.3459941E2,3.6353656E2,7.322788E2,3.59947E1,4.1603223E2,1.2022322E3,1.7835083E2,3.460924E2,0E0,0E0,0E0,0E0,0E0,0E0,0E0,0E0,0E0,0E0,0E0,0E0,0E0,0E0,0E0,0E0],"parents":[2147483647,0,0,1,1,2,2,3,3,4,4,5,5,6,6,7,7,8,8,9,9,10,10,11,11,12,12,13,13,14,14],"right_children":[2,4,6,8,10,12,14,16,18,20,22,24,26,28,30,-1,-1,-1,-1,-1,-1,-1,-1,-1,-1,-1,-1,-1,-1,-1,-1],"split_conditions":[3.73444E-1,2.8E1,5.6E1,3.899E2,5.4046243E-1,1.4E1,4.2957747E-1,5.8E0,1.6828E3,1.2E1,6.00038E-1,2.097E2,3.36E2,7.485E2,6.234568E-1,-9.9925655E-1,-1.3727145E-1,5.6971284E-3,8.100667E-1,1.2183146E0,4.9868512E-1,-5.3472406E-1,-4.170349E-2,-7.572656E-1,3.760599E-1,-6.027702E-1,-6.0112227E-2,4.4184223E-1,1.0585163E0,2.297508E-1,-3.1586102E-1],"split_indices":[9,7,7,0,12,7,9,4,13,4,12,3,8,6,9,0,0,0,0,0,0,0,0,0,0,0,0,0,0,0,0],"split_type":[0,0,0,0,0,0,0,0,0,0,0,0,0,0,0,0,0,0,0,0,0,0,0,0,0,0,0,0,0,0,0],"sum_hessian":[8.71E2,1.98E2,6.73E2,7.1E1,1.27E2,4.87E2,1.86E2,3.5E1,3.6E1,1.16E2,1.1E1,1.57E2,3.3E2,3.6E1,1.5E2,6E0,2.9E1,1.8E1,1.8E1,8.4E1,3.2E1,4E0,7E0,1.52E2,5E0,8.8E1,2.42E2,1.3E1,2.3E1,1.29E2,2.1E1],"tree_param":{"num_deleted":"0","num_feature":"22","num_nodes":"31","size_leaf_vector":"1"}},{"base_weights":[-6.246283E-2,4.4005556E0,-1.2947339E0,2.2023782E-1,6.358825E0,-4.9594407E0,-1.3050759E-1,1.3625188E0,-4.49373E0,7.2769217E0,-2.8490534E0,-4.0040894E0,-7.378575E0,-3.2316086E0,8.495875E-1,3.3481717E-1,-2.4453153E-1,-3.7196663E-1,-1.2501099E0,-9.8676807E-1,9.5180917E-1,-1.01113446E-1,-7.461918E-1,3.549114E-2,-5.85953E-1,-1.2144854E0,-7.3276186E-1,-4.8996687E-1,9.439409E-2,1.4375396E-1,-1.0989424E0],"categories":[],"categories_nodes":[],"categories_segments":[],"categories_sizes":[],"default_left":[0,0,0,0,0,0,0,0,0,0,0,0,0,0,0,0,0,0,0,0,0,0,0,0,0,0,0,0,0,0,0],"id":11,"left_children":[1,3,5,7,9,11,13,15,17,19,21,23,25,27,29,-1,-1,-1,-1,-1,-1,-1,-1,-1,-1,-1,-1,-1,-1,-1,-1],"loss_changes":[4.607474E3,1.475594E3,2.798061E3,3.111151E2,1.0508896E3,3.4654175E2,1.520561E3,2.0538477E2,7.292195E1,5.208125E2,6.2119667E1,3.2849133E2,1.2706177E2,3.243302E2,1.0660151E3,0E0,0E0,0E0,0E0,0E0,0E0,0E0,0E0,0E0,0E0,0E0,0E0,0E0,0E0,0E0,0E0],"parents":[2147483647,0,0,1,1,2,2,3,3,4,4,5,5,6,6,7,7,8,8,9,9,10,10,11,11,12,12,13,13,14,14],"right_children":[2,4,6,8,10,12,14,16,18,20,22,24,26,28,30,-1,-1,-1,-1,-1,-1,-1,-1,-1,-1,-1,-1,-1,-1,-1,-1],"split_conditions":[3.73444E-1,2.8E1,1.4E1,9.41E1,4.7619048E-1,3.9993554E-1,3.31E2,3.3739838E-1,1.416E2,8.11E2,1.63E2,7.466E2,7E0,9.018E2,1.749E2,3.3481717E-1,-2.4453153E-1,-3.7196663E-1,-1.2501099E0,-9.8676807E-1,9.5180917E-1,-1.01113446E-1,-7.461918E-1,3.549114E-2,-5.85953E-1,-1.2144854E0,-7.3276186E-1,-4.8996687E-1,9.439409E-2,1.4375396E-1,-1.0989424E0],"split_indices":[9,7,7,2,12,10,8,10,2,5,2,6,7,6,2,0,0,0,0,0,0,0,0,0,0,0,0,0,0,0,0],"split_type":[0,0,0,0,0,0,0,0,0,0,0,0,0,0,0,0,0,0,0,0,0,0,0,0,0,0,0,0,0,0,0],"sum_hessian":[8.38E2,1.81E2,6.57E2,5.8E1,1.23E2,1.58E2,4.99E2,4.7E1,1.1E1,1.12E2,1.1E1,1.14E2,4.4E1,1.2E2,3.79E2,3.4E1,1.3E1,9E0,2E0,2E0,1.1E2,7E0,4E0,1.5E1,9.9E1,1.7E1,2.7E1,1.03E2,1.7E1,3.68E2,1.1E1],"tree_param":{"num_deleted":"0","num_feature":"22","num_nodes":"31","size_leaf_vector":"1"}},{"base_weights":[9.9706896E-2,4.3168545E0,-1.0828753E0,-0E0,6.490244E0,-2.2831252E0,2.0332947E0,2.2597458E0,-3.6666777E0,8.287148E0,3.2472305E0,-4.067741E0,-7.646039E-1,6.3161933E-1,4.5546355E0,-5.478696E-2,7.258822E-1,-3.3846325E-1,-8.654574E-1,1.2267106E0,2.8349236E-1,1.6742419E-1,1.4705973E0,-3.963959E-1,-8.088101E-1,-4.6331015E-1,1.2686026E-2,-5.2755666E-1,1.7495327E-1,8.124782E-1,2.9268774E-1],"categories":[],"categories_nodes":[],"categories_segments":[],"categories_sizes":[],"default_left":[0,0,0,0,0,0,0,0,0,0,0,0,0,0,0,0,0,0,0,0,0,0,0,0,0,0,0,0,0,0,0],"id":12,"left_children":[1,3,5,7,9,11,13,15,17,19,21,23,25,27,29,-1,-1,-1,-1,-1,-1,-1,-1,-1,-1,-1,-1,-1,-1,-1,-1],"loss_changes":[4.2846387E3,1.7668367E3,2.5079392E3,5.256526E2,7.109048E2,1.3060315E3,6.5156006E2,3.7849988E2,6.1085693E1,6.964873E2,7.140095E2,4.6543604E2,6.6768384E2,4.399666E2,2.686034E2,0E0,0E0,0E0,0E0,0E0,0E0,0E0,0E0,0E0,0E0,0E0,0E0,0E0,0E0,0E0,0E0],"parents":[2147483647,0,0,1,1,2,2,3,3,4,4,5,5,6,6,7,7,8,8,9,9,10,10,11,11,12,12,13,13,14,14],"right_children":[2,4,6,8,10,12,14,16,18,20,22,24,26,28,30,-1,-1,-1,-1,-1,-1,-1,-1,-1,-1,-1,-1,-1,-1,-1,-1],"split_conditions":[3.7086093E-1,2.8E1,5.6E1,2.45E1,1.10486895E-1,3.584E2,6.5E0,3.899E2,1.321E2,5.003119E-1,4.7461382E-1,6.47651E-1,1.4E1,9E1,3.3964974E-1,-5.478696E-2,7.258822E-1,-3.3846325E-1,-8.654574E-1,1.2267106E0,2.8349236E-1,1.6742419E-1,1.4705973E0,-3.963959E-1,-8.088101E-1,-4.6331015E-1,1.2686026E-2,-5.2755666E-1,1.7495327E-1,8.124782E-1,2.9268774E-1],"split_indices":[9,7,7,2,11,8,4,0,2,14,14,9,7,7,11,0,0,0,0,0,0,0,0,0,0,0,0,0,0,0,0],"split_type":[0,0,0,0,0,0,0,0,0,0,0,0,0,0,0,0,0,0,0,0,0,0,0,0,0,0,0,0,0,0,0],"sum_hessian":[8.58E2,1.88E2,6.7E2,6.3E1,1.25E2,4.84E2,1.86E2,3.9E1,2.4E1,8E1,4.5E1,2.22E2,2.62E2,1.2E2,6.6E1,2.2E1,1.7E1,1.9E1,5E0,6.4E1,1.6E1,3.7E1,8E0,1.61E2,6.1E1,6E1,2.02E2,1.6E1,1.04E2,3.5E1,3.1E1],"tree_param":{"num_deleted":"0","num_feature":"22","num_nodes":"31","size_leaf_vector":"1"}},{"base_weights":[-8.184172E-2,-2.2602599E0,1.542191E0,-3.478355E0,1.2780852E0,7.637294E-1,5.784863E0,-2.7365983E0,-6.6753116E0,-7.018466E-1,3.855891E0,-2.3202362E0,1.7798411E0,8.890516E0,1.2110763E0,-5.89367E-1,-2.4979512E-1,-7.655745E-1,-1.1023223E0,-4.7444484E-1,9.1945365E-2,2.5846502E-1,6.68841E-1,-1.5661293E0,-2.6167652E-1,7.8212136E-1,1.5696336E-1,2.1938391E-1,1.3047704E0,-1.1425702E-1,1.0624918E0],"categories":[],"categories_nodes":[],"categories_segments":[],"categories_sizes":[],"default_left":[0,0,0,0,0,0,0,0,0,0,0,0,0,0,0,0,0,0,0,0,0,0,0,0,0,0,0,0,0,0,0],"id":13,"left_children":[1,3,5,7,9,11,13,15,17,19,21,23,25,27,29,-1,-1,-1,-1,-1,-1,-1,-1,-1,-1,-1,-1,-1,-1,-1,-1],"loss_changes":[3.048336E3,1.5904148E3,1.6205554E3,6.3572925E2,4.8497757E2,1.3076174E3,1.0687319E3,3.1691162E2,3.4462646E1,2.3860992E2,9.812103E1,2.2645905E2,7.307836E2,4.654773E2,4.8975555E2,0E0,0E0,0E0,0E0,0E0,0E0,0E0,0E0,0E0,0E0,0E0,0E0,0E0,0E0,0E0,0E0],"parents":[2147483647,0,0,1,1,2,2,3,3,4,4,5,5,6,6,7,7,8,8,9,9,10,10,11,11,12,12,13,13,14,14],"right_children":[2,4,6,8,10,12,14,16,18,20,22,24,26,28,30,-1,-1,-1,-1,-1,-1,-1,-1,-1,-1,-1,-1,-1,-1,-1,-1],"split_conditions":[2.468E2,5.6E1,5.34E2,5.9800667E-1,1.7582418E-2,1.4E1,7.1E1,1.4E1,1.34E2,1.36E1,9E1,3E0,3.049522E-1,7E0,7.122E2,-5.89367E-1,-2.4979512E-1,-7.655745E-1,-1.1023223E0,-4.7444484E-1,9.1945365E-2,2.5846502E-1,6.68841E-1,-1.5661293E0,-2.6167652E-1,7.8212136E-1,1.5696336E-1,2.1938391E-1,1.3047704E0,-1.1425702E-1,1.0624918E0],"split_indices":[0,7,8,9,16,7,2,7,2,1,7,7,9,7,6,0,0,0,0,0,0,0,0,0,0,0,0,0,0,0,0],"split_type":[0,0,0,0,0,0,0,0,0,0,0,0,0,0,0,0,0,0,0,0,0,0,0,0,0,0,0,0,0,0,0],"sum_hessian":[8.61E2,3.68E2,4.93E2,2.74E2,9.4E1,4.17E2,7.6E1,2.23E2,5.1E1,5.3E1,4.1E1,1.03E2,3.14E2,4.5E1,3.1E1,6.1E1,1.62E2,4.1E1,1E1,1.7E1,3.6E1,1.9E1,2.2E1,2E0,1.01E2,3.3E1,2.81E2,8E0,3.7E1,2.4E1,7E0],"tree_param":{"num_deleted":"0","num_feature":"22","num_nodes":"31","size_leaf_vector":"1"}},{"base_weights":[-8.872898E-2,-1.7652953E0,1.5463525E0,-2.426056E0,3.104627E0,-9.556541E-1,2.7411153E0,-2.892271E-1,-3.4546273E0,6.174513E-1,5.3339696E0,3.8537977E0,-1.4664056E0,1.9917644E0,6.9098682E0,2.2689585E-1,-3.0619264E-1,-3.7168968E-1,-7.63637E-1,3.0367342E-1,-1.3810721E-1,1.3506815E-1,8.561501E-1,-4.4736244E-2,7.30486E-1,-3.990901E-1,-3.5501722E-2,6.4921486E-1,1.5067747E-1,1.3049213E0,2.7790242E-1],"categories":[],"categories_nodes":[],"categories_segments":[],"categories_sizes":[],"default_left":[0,0,0,0,0,0,0,0,0,0,0,0,0,0,0,0,0,0,0,0,0,0,0,0,0,0,0,0,0,0,0],"id":14,"left_children":[1,3,5,7,9,11,13,15,17,19,21,23,25,27,29,-1,-1,-1,-1,-1,-1,-1,-1,-1,-1,-1,-1,-1,-1,-1,-1],"loss_changes":[2.336987E3,1.3561625E3,1.2915863E3,8.113887E2,2.7091165E2,3.4039493E2,8.998103E2,5.471962E2,3.1155908E2,7.685184E1,1.5479333E2,1.1568762E2,2.5141287E2,6.160823E2,7.030637E2,0E0,0E0,0E0,0E0,0E0,0E0,0E0,0E0,0E0,0E0,0E0,0E0,0E0,0E0,0E0,0E0],"parents":[2147483647,0,0,1,1,2,2,3,3,4,4,5,5,6,6,7,7,8,8,9,9,10,10,11,11,12,12,13,13,14,14],"right_children":[2,4,6,8,10,12,14,16,18,20,22,24,26,28,30,-1,-1,-1,-1,-1,-1,-1,-1,-1,-1,-1,-1,-1,-1,-1,-1],"split_conditions":[2.62E2,9.539392E0,5.2915025E0,1.765E2,6.2E0,1.535E2,5.4E2,3.4937E-1,3.3638075E-1,2.3E2,3.33E2,3.76E2,2.6457512E0,1.619E2,7.1E1,2.2689585E-1,-3.0619264E-1,-3.7168968E-1,-7.63637E-1,3.0367342E-1,-1.3810721E-1,1.3506815E-1,8.561501E-1,-4.4736244E-2,7.30486E-1,-3.990901E-1,-3.5501722E-2,6.4921486E-1,1.5067747E-1,1.3049213E0,2.7790242E-1],"split_indices":[0,18,18,3,4,3,8,11,11,0,8,0,18,3,2,0,0,0,0,0,0,0,0,0,0,0,0,0,0,0,0],"split_type":[0,0,0,0,0,0,0,0,0,0,0,0,0,0,0,0,0,0,0,0,0,0,0,0,0,0,0,0,0,0,0],"sum_hessian":[8.52E2,4.21E2,4.31E2,3.71E2,5E1,1.39E2,2.92E2,1.21E2,2.5E2,2.4E1,2.6E1,1.3E1,1.26E2,2.48E2,4.4E1,6.1E1,6E1,2.11E2,3.9E1,1.2E1,1.2E1,7E0,1.9E1,4E0,9E0,5.1E1,7.5E1,4.9E1,1.99E2,2.5E1,1.9E1],"tree_param":{"num_deleted":"0","num_feature":"22","num_nodes":"31","size_leaf_vector":"1"}},{"base_weights":[1.4932545E-1,-1.742294E0,1.3223631E0,-0E0,-2.9351351E0,3.0030888E-1,4.1567373E0,1.7598174E0,-2.0577042E0,-3.584547E0,-8.002866E-1,1.6875994E0,-1.3627237E0,-1.1103041E0,5.0961018E0,-1.7034404E-1,4.7303733E-1,-1.7282805E-1,-7.899576E-1,-7.017224E-1,-3.872548E-1,-5.360836E-1,-2.686324E-3,1.4351444E-1,8.239374E-1,-3.115275E-1,3.178484E-2,2.076837E-2,-2.9565343E-1,4.7746205E-1,8.4440774E-1],"categories":[],"categories_nodes":[],"categories_segments":[],"categories_sizes":[],"default_left":[0,0,0,0,0,0,0,0,0,0,0,0,0,0,0,0,0,0,0,0,0,0,0,0,0,0,0,0,0,0,0],"id":15,"left_children":[1,3,5,7,9,11,13,15,17,19,21,23,25,27,29,-1,-1,-1,-1,-1,-1,-1,-1,-1,-1,-1,-1,-1,-1,-1,-1],"loss_changes":[1.9043065E3,6.8540814E2,1.5306029E3,4.8277838E2,2.65037E2,9.0109515E2,6.994138E2,4.5504028E2,1.6604968E2,1.3642676E2,1.1986773E2,5.558768E2,3.2251917E2,3.620706E1,2.3373462E2,0E0,0E0,0E0,0E0,0E0,0E0,0E0,0E0,0E0,0E0,0E0,0E0,0E0,0E0,0E0,0E0],"parents":[2147483647,0,0,1,1,2,2,3,3,4,4,5,5,6,6,7,7,8,8,9,9,10,10,11,11,12,12,13,13,14,14],"right_children":[2,4,6,8,10,12,14,16,18,20,22,24,26,28,30,-1,-1,-1,-1,-1,-1,-1,-1,-1,-1,-1,-1,-1,-1,-1,-1],"split_conditions":[3.697E2,5.5438596E-1,5.6E1,3.967099E-1,9E1,3.4408602E-1,6.13E2,2.8E1,1.735E2,7E0,2.64E2,1.53E2,8.1E0,9.7E1,9.1E1,-1.7034404E-1,4.7303733E-1,-1.7282805E-1,-7.899576E-1,-7.017224E-1,-3.872548E-1,-5.360836E-1,-2.686324E-3,1.4351444E-1,8.239374E-1,-3.115275E-1,3.178484E-2,2.076837E-2,-2.9565343E-1,4.7746205E-1,8.4440774E-1],"split_indices":[8,9,7,12,7,12,6,7,2,7,8,1,4,1,7,0,0,0,0,0,0,0,0,0,0,0,0,0,0,0,0],"split_type":[0,0,0,0,0,0,0,0,0,0,0,0,0,0,0,0,0,0,0,0,0,0,0,0,0,0,0,0,0,0,0],"sum_hessian":[8.58E2,3.28E2,5.3E2,1.33E2,1.95E2,3.9E2,1.4E2,7.2E1,6.1E1,1.49E2,4.6E1,2.13E2,1.77E2,2.1E1,1.19E2,2.8E1,4.4E1,5.3E1,8E0,2.9E1,1.2E2,8E0,3.8E1,1.92E2,2.1E1,1.05E2,7.2E1,1E1,1.1E1,6.7E1,5.2E1],"tree_param":{"num_deleted":"0","num_feature":"22","num_nodes":"31","size_leaf_vector":"1"}},{"base_weights":[-2.3478201E-1,-1.0393058E0,2.0712311E0,-2.429955E0,3.4834686E-1,4.195E0,3.4406465E-1,-6.502712E-1,-3.2132847E0,-2.4120164E0,8.871358E-1,4.628401E0,-4.298477E-1,7.704711E-1,-3.313261E0,1.9276007E-1,-2.8386146E-1,-3.3791867E-1,-6.317494E-1,-1.3587037E0,-2.5041348E-1,9.438766E-2,2.0244348E0,1.1921785E0,4.7069E-1,-2.1883145E-1,7.940383E-2,3.686127E-2,4.7847316E-1,-1.7379819E-1,-6.21704E-1],"categories":[],"categories_nodes":[],"categories_segments":[],"categories_sizes":[],"default_left":[0,0,0,0,0,0,0,0,0,0,0,0,0,0,0,0,0,0,0,0,0,0,0,0,0,0,0,0,0,0,0],"id":16,"left_children":[1,3,5,7,9,11,13,15,17,19,21,23,25,27,29,-1,-1,-1,-1,-1,-1,-1,-1,-1,-1,-1,-1,-1,-1,-1,-1],"loss_changes":[1.5450675E3,1.1955271E3,7.839216E2,4.2621765E2,4.5857037E2,1.9804004E2,1.8352905E2,3.362781E2,1.9194336E2,1.5757162E2,5.142318E2,3.5560303E2,1.2928636E1,1.5047333E2,2.9888412E1,0E0,0E0,0E0,0E0,0E0,0E0,0E0,0E0,0E0,0E0,0E0,0E0,0E0,0E0,0E0,0E0],"parents":[2147483647,0,0,1,1,2,2,3,3,4,4,5,5,6,6,7,7,8,8,9,9,10,10,11,11,12,12,13,13,14,14],"right_children":[2,4,6,8,10,12,14,16,18,20,22,24,26,28,30,-1,-1,-1,-1,-1,-1,-1,-1,-1,-1,-1,-1,-1,-1,-1,-1],"split_conditions":[5.6E1,2.553E2,4.75E-1,1.765E2,7E0,8.919E2,6.721854E-1,3.3964974E-1,5.7980456E0,3E0,4.653273E-1,1.51E2,1.1E1,3.6E2,8.65E2,1.9276007E-1,-2.8386146E-1,-3.3791867E-1,-6.317494E-1,-1.3587037E0,-2.5041348E-1,9.438766E-2,2.0244348E0,1.1921785E0,4.7069E-1,-2.1883145E-1,7.940383E-2,3.686127E-2,4.7847316E-1,-1.7379819E-1,-6.21704E-1],"split_indices":[7,0,9,3,7,6,9,11,15,7,12,3,1,7,6,0,0,0,0,0,0,0,0,0,0,0,0,0,0,0,0],"split_type":[0,0,0,0,0,0,0,0,0,0,0,0,0,0,0,0,0,0,0,0,0,0,0,0,0,0,0,0,0,0,0],"sum_hessian":[8.33E2,6.18E2,2.15E2,3.09E2,3.09E2,9.6E1,1.19E2,9.5E1,2.14E2,5E1,2.59E2,8.8E1,8E0,1.07E2,1.2E1,4E1,5.5E1,1.67E2,4.7E1,2E0,4.8E1,2.57E2,2E0,1.3E1,7.5E1,4E0,4E0,9.3E1,1.4E1,6E0,6E0],"tree_param":{"num_deleted":"0","num_feature":"22","num_nodes":"31","size_leaf_vector":"1"}},{"base_weights":[3.1930435E-2,-1.4996674E0,1.1204495E0,-1.9565492E0,1.162637E0,3.7241763E-1,3.344983E0,-5.6081624E0,-1.6452763E0,2.0959048E0,-1.4690776E0,1.7936753E0,-7.244556E-1,-1.3551515E0,4.315115E0,-5.6463844E-1,-8.57219E-1,-4.5761934E-1,-1.530997E-1,3.4229237E-1,-6.642794E-2,-5.1065613E-2,-5.528431E-1,1.1086329E0,1.4587408E-1,-2.8704035E-1,3.9834466E-2,-2.5767213E-1,-0E0,3.7573797E-1,7.506196E-1],"categories":[],"categories_nodes":[],"categories_segments":[],"categories_sizes":[],"default_left":[0,0,0,0,0,0,0,0,0,0,0,0,0,0,0,0,0,0,0,0,0,0,0,0,0,0,0,0,0,0,0],"id":17,"left_children":[1,3,5,7,9,11,13,15,17,19,21,23,25,27,29,-1,-1,-1,-1,-1,-1,-1,-1,-1,-1,-1,-1,-1,-1,-1,-1],"loss_changes":[1.4106876E3,4.2856903E2,8.195351E2,3.310454E2,1.27119644E2,5.8017725E2,5.70937E2,1.2156921E1,2.2973175E2,6.586162E1,3.5284927E1,7.0785E2,3.424146E2,2.082428E1,2.1293213E2,0E0,0E0,0E0,0E0,0E0,0E0,0E0,0E0,0E0,0E0,0E0,0E0,0E0,0E0,0E0,0E0],"parents":[2147483647,0,0,1,1,2,2,3,3,4,4,5,5,6,6,7,7,8,8,9,9,10,10,11,11,12,12,13,13,14,14],"right_children":[2,4,6,8,10,12,14,16,18,20,22,24,26,28,30,-1,-1,-1,-1,-1,-1,-1,-1,-1,-1,-1,-1,-1,-1,-1,-1],"split_conditions":[3.719E2,9.1E1,5.6E1,9.04E2,1.93E2,1.779E2,6.13E2,2.45E1,7E0,1.251E2,1.987E2,1.3068181E-2,4.1822723E-1,3.814E2,9.1E1,-5.6463844E-1,-8.57219E-1,-4.5761934E-1,-1.530997E-1,3.4229237E-1,-6.642794E-2,-5.1065613E-2,-5.528431E-1,1.1086329E0,1.4587408E-1,-2.8704035E-1,3.9834466E-2,-2.5767213E-1,-0E0,3.7573797E-1,7.506196E-1],"split_indices":[8,7,7,5,3,3,6,2,7,2,3,16,14,0,7,0,0,0,0,0,0,0,0,0,0,0,0,0,0,0,0],"split_type":[0,0,0,0,0,0,0,0,0,0,0,0,0,0,0,0,0,0,0,0,0,0,0,0,0,0,0,0,0,0,0],"sum_hessian":[8.46E2,3.51E2,4.95E2,3E2,5.1E1,3.71E2,1.24E2,2.3E1,2.77E2,3.8E1,1.3E1,1.62E2,2.09E2,2.1E1,1.03E2,1.3E1,1E1,4.8E1,2.29E2,3.1E1,7E0,1E1,3E0,1.3E1,1.49E2,8.4E1,1.25E2,1.4E1,7E0,5.8E1,4.5E1],"tree_param":{"num_deleted":"0","num_feature":"22","num_nodes":"31","size_leaf_vector":"1"}},{"base_weights":[3.195287E-2,-1.3130276E0,9.90127E-1,-2.8565094E0,-6.390927E-1,-2.2663434E0,1.4882903E0,-3.764523E0,-2.0856378E0,-2.4485156E-1,-5.3596816E0,-1.281445E0,-3.7535613E0,3.293867E0,4.3414202E-1,-4.9069157E-1,1.9938092E-1,3.7105864E-1,-3.1097484E-1,1.812186E-1,-1.5131006E-1,-6.982665E-1,-6.2607735E-2,-2.1550128E-1,2.9506618E-1,-2.842678E-1,-5.746235E-1,2.8079078E-1,9.05587E-1,-0E0,6.022999E-1],"categories":[],"categories_nodes":[],"categories_segments":[],"categories_sizes":[],"default_left":[0,0,0,0,0,0,0,0,0,0,0,0,0,0,0,0,0,0,0,0,0,0,0,0,0,0,0,0,0,0,0],"id":18,"left_children":[1,3,5,7,9,11,13,15,17,19,21,23,25,27,29,-1,-1,-1,-1,-1,-1,-1,-1,-1,-1,-1,-1,-1,-1,-1,-1],"loss_changes":[1.1200688E3,3.713631E2,8.2424896E2,6.8142334E1,4.627021E2,9.170178E1,8.352189E2,4.1186157E1,1.1922772E2,3.7770392E2,1.1065796E1,6.503035E1,2.2116425E1,6.5818286E2,5.267903E2,0E0,0E0,0E0,0E0,0E0,0E0,0E0,0E0,0E0,0E0,0E0,0E0,0E0,0E0,0E0,0E0],"parents":[2147483647,0,0,1,1,2,2,3,3,4,4,5,5,6,6,7,7,8,8,9,9,10,10,11,11,12,12,13,13,14,14],"right_children":[2,4,6,8,10,12,14,16,18,20,22,24,26,28,30,-1,-1,-1,-1,-1,-1,-1,-1,-1,-1,-1,-1,-1,-1,-1,-1],"split_conditions":[2.468E2,2.8E1,7E0,7.285162E-2,1.749E2,1.893E2,1.779E2,2.06E2,2.8333735E-1,1.758E2,3.4165066E-1,4.51E2,9.416E2,1.023E3,5.269E2,-4.9069157E-1,1.9938092E-1,3.7105864E-1,-3.1097484E-1,1.812186E-1,-1.5131006E-1,-6.982665E-1,-6.2607735E-2,-2.1550128E-1,2.9506618E-1,-2.842678E-1,-5.746235E-1,2.8079078E-1,9.05587E-1,-0E0,6.022999E-1],"split_indices":[0,7,7,11,2,3,3,3,11,3,10,0,5,5,8,0,0,0,0,0,0,0,0,0,0,0,0,0,0,0,0],"split_type":[0,0,0,0,0,0,0,0,0,0,0,0,0,0,0,0,0,0,0,0,0,0,0,0,0,0,0,0,0,0,0],"sum_hessian":[8.69E2,3.61E2,5.08E2,1.09E2,2.52E2,6.7E1,4.41E2,4.9E1,6E1,2.33E2,1.9E1,4.1E1,2.6E1,1.62E2,2.79E2,4.8E1,1E0,4E0,5.6E1,8.4E1,1.49E2,1.8E1,1E0,3.7E1,4E0,1E1,1.6E1,1.28E2,3.4E1,2.54E2,2.5E1],"tree_param":{"num_deleted":"0","num_feature":"22","num_nodes":"31","size_leaf_vector":"1"}},{"base_weights":[7.845153E-2,2.4970398E0,-3.765625E-1,-1.877823E0,3.4074228E0,-2.213512E0,1.677551E-1,2.626612E-1,-3.3179874E0,-4.0073433E0,3.7716064E0,-2.340894E0,4.9962935E-1,-2.2583268E0,6.8180203E-1,-6.579837E-2,2.6680505E-1,-5.825067E-1,-2.635523E-1,-1.3932456E0,9.662838E-2,6.680289E-1,2.1131375E-1,-2.1364559E-1,-4.2588317E-1,-5.42929E-1,-3.0905906E-2,1.1388941E-1,-4.6083364E-1],"categories":[],"categories_nodes":[],"categories_segments":[],"categories_sizes":[],"default_left":[0,0,0,0,0,0,0,0,0,0,0,0,0,0,0,0,0,0,0,0,0,0,0,0,0,0,0,0,0],"id":19,"left_children":[1,3,5,7,9,11,13,15,17,19,21,23,-1,25,27,-1,-1,-1,-1,-1,-1,-1,-1,-1,-1,-1,-1,-1,-1],"loss_changes":[9.393598E2,5.415684E2,7.185347E2,7.5204544E1,3.0584888E2,1.2954626E2,6.8718677E2,1.55312605E1,1.3164703E1,1.8969586E2,3.364923E2,1.01289246E2,0E0,3.940571E2,4.4363025E2,0E0,0E0,0E0,0E0,0E0,0E0,0E0,0E0,0E0,0E0,0E0,0E0,0E0,0E0],"parents":[2147483647,0,0,1,1,2,2,3,3,4,4,5,5,6,6,7,7,8,8,9,9,10,10,11,11,13,13,14,14],"right_children":[2,4,6,8,10,12,14,16,18,20,22,24,-1,26,28,-1,-1,-1,-1,-1,-1,-1,-1,-1,-1,-1,-1,-1,-1],"split_conditions":[3.250978E-1,7E0,1.4E1,2.9380531E0,1.378E2,2.16E2,1.59E2,1.04E1,4.595588E-1,3.133E2,1.15E1,3.9993554E-1,4.9962935E-1,1.624E2,6.721854E-1,-6.579837E-2,2.6680505E-1,-5.825067E-1,-2.635523E-1,-1.3932456E0,9.662838E-2,6.680289E-1,2.1131375E-1,-2.1364559E-1,-4.2588317E-1,-5.42929E-1,-3.0905906E-2,1.1388941E-1,-4.6083364E-1],"split_indices":[9,7,7,15,3,3,0,4,14,0,4,12,0,1,9,0,0,0,0,0,0,0,0,0,0,0,0,0,0],"split_type":[0,0,0,0,0,0,0,0,0,0,0,0,0,0,0,0,0,0,0,0,0,0,0,0,0,0,0,0,0],"sum_hessian":[8.51E2,1.35E2,7.16E2,2.3E1,1.12E2,1.64E2,5.52E2,9E0,1.4E1,5E0,1.07E2,1.61E2,3E0,9.6E1,4.56E2,6E0,3E0,6E0,8E0,2E0,3E0,6.1E1,4.6E1,1.01E2,6E1,4.7E1,4.9E1,4.34E2,2.2E1],"tree_param":{"num_deleted":"0","num_feature":"22","num_nodes":"29","size_leaf_vector":"1"}},{"base_weights":[9.252004E-3,-1.6176142E0,5.831689E-1,-4.386322E0,-9.936387E-1,1.9098045E0,-2.0463045E-1,-5.0698915E0,4.6294364E-1,-1.7255719E0,4.7638276E-1,7.371525E0,1.5599998E0,-9.617585E-1,1.2244635E0,-5.8477205E-1,-1.3677007E0,-4.4387236E-1,-6.568581E-2,-4.8799494E-1,1.1292422E-1,2.273688E0,7.775804E-1,1.44368E-1,7.7603734E-1,5.2225478E-2,-2.1262626E-1,4.2478302E-1,-1.1168849E-1],"categories":[],"categories_nodes":[],"categories_segments":[],"categories_sizes":[],"default_left":[0,0,0,0,0,0,0,0,0,0,0,0,0,0,0,0,0,0,0,0,0,0,0,0,0,0,0,0,0],"id":20,"left_children":[1,3,5,7,9,11,13,15,-1,17,19,21,23,25,27,-1,-1,-1,-1,-1,-1,-1,-1,-1,-1,-1,-1,-1,-1],"loss_changes":[8.105804E2,3.837558E2,6.742564E2,2.3279315E2,2.0086981E2,4.4635504E2,4.3621588E2,6.402667E1,0E0,2.650366E2,1.1009184E2,1.2924872E2,4.1924878E2,2.6756775E2,6.3806274E2,0E0,0E0,0E0,0E0,0E0,0E0,0E0,0E0,0E0,0E0,0E0,0E0,0E0,0E0],"parents":[2147483647,0,0,1,1,2,2,3,3,4,4,5,5,6,6,7,7,9,9,10,10,11,11,12,12,13,13,14,14],"right_children":[2,4,6,8,10,12,14,16,-1,18,20,22,24,26,28,-1,-1,-1,-1,-1,-1,-1,-1,-1,-1,-1,-1,-1,-1],"split_conditions":[1.947E2,4.1822723E-1,1.776E2,6.1005366E-1,1.63E2,6E0,1E-1,2.135E2,4.6294364E-1,1.6E2,7E0,3.161E2,5.72E2,7.586E2,3.9993554E-1,-5.8477205E-1,-1.3677007E0,-4.4387236E-1,-6.568581E-2,-4.8799494E-1,1.1292422E-1,2.273688E0,7.775804E-1,1.44368E-1,7.7603734E-1,5.2225478E-2,-2.1262626E-1,4.2478302E-1,-1.1168849E-1],"split_indices":[0,14,3,10,1,4,10,3,0,0,7,0,8,6,12,0,0,0,0,0,0,0,0,0,0,0,0,0,0],"split_type":[0,0,0,0,0,0,0,0,0,0,0,0,0,0,0,0,0,0,0,0,0,0,0,0,0,0,0,0,0],"sum_hessian":[8.69E2,2.26E2,6.43E2,4.1E1,1.85E2,2.4E2,4.03E2,3.8E1,3E0,1.24E2,6.1E1,1.4E1,2.26E2,2.64E2,1.39E2,3.6E1,2E0,4.9E1,7.5E1,5E0,5.6E1,1E0,1.3E1,2.08E2,1.8E1,9.1E1,1.73E2,6.9E1,7E1],"tree_param":{"num_deleted":"0","num_feature":"22","num_nodes":"29","size_leaf_vector":"1"}},{"base_weights":[-1.7965803E-2,-1.3397427E0,5.912751E-1,-1.6931877E0,1.3984356E0,2.5246186E0,3.135784E-2,-1.1114818E0,-1.6218524E0,3.5477448E0,-1.9135953E0,1.7982726E0,9.009932E0,3.7461507E-1,-3.5449407E0,-2.296295E-1,7.5891964E-2,6.9191515E-1,8.075281E-2,-3.4278062E-1,-1.3963899E-1,2.7221772E-1,-1.0304245E0,1.5224323E0,4.4382286E-1,-1.5059929E-1,1.13873094E-1,-3.8491762E-1,-6.91051E-1],"categories":[],"categories_nodes":[],"categories_segments":[],"categories_sizes":[],"default_left":[0,0,0,0,0,0,0,0,0,0,0,0,0,0,0,0,0,0,0,0,0,0,0,0,0,0,0,0,0],"id":21,"left_children":[1,3,5,7,9,11,13,-1,15,17,19,21,23,25,27,-1,-1,-1,-1,-1,-1,-1,-1,-1,-1,-1,-1,-1,-1],"loss_changes":[7.017782E2,2.6716922E2,6.4138525E2,1.0972241E2,2.2541391E2,6.1179913E2,5.6405676E2,0E0,1.1271472E2,1.0160837E2,2.9701347E0,4.3994373E2,1.9817224E2,3.53196E2,2.4564087E1,0E0,0E0,0E0,0E0,0E0,0E0,0E0,0E0,0E0,0E0,0E0,0E0,0E0,0E0],"parents":[2147483647,0,0,1,1,2,2,3,3,4,4,5,5,6,6,8,8,9,9,10,10,11,11,12,12,13,13,14,14],"right_children":[2,4,6,8,10,12,14,-1,16,18,20,22,24,26,28,-1,-1,-1,-1,-1,-1,-1,-1,-1,-1,-1,-1,-1,-1],"split_conditions":[5.2915025E0,5.34E2,1.656E2,1.7320508E0,2.45E1,1.53E2,3.5519126E-1,-1.1114818E0,3.899E2,1.892E2,2.723668E0,1.372E2,1.892E2,4.1822723E-1,1.94E2,-2.296295E-1,7.5891964E-2,6.9191515E-1,8.075281E-2,-3.4278062E-1,-1.3963899E-1,2.7221772E-1,-1.0304245E0,1.5224323E0,4.4382286E-1,-1.5059929E-1,1.13873094E-1,-3.8491762E-1,-6.91051E-1],"split_indices":[18,8,3,18,2,1,11,0,0,1,15,1,1,14,2,0,0,0,0,0,0,0,0,0,0,0,0,0,0],"split_type":[0,0,0,0,0,0,0,0,0,0,0,0,0,0,0,0,0,0,0,0,0,0,0,0,0,0,0,0,0],"sum_hessian":[8.7E2,2.75E2,5.95E2,2.44E2,3.1E1,1.33E2,4.62E2,2E0,2.42E2,1.9E1,1.2E1,1.2E2,1.3E1,4.22E2,4E1,2.22E2,2E1,1.1E1,8E0,5E0,7E0,1.16E2,4E0,8E0,5E0,1.06E2,3.16E2,3.3E1,7E0],"tree_param":{"num_deleted":"0","num_feature":"22","num_nodes":"29","size_leaf_vector":"1"}},{"base_weights":[2.7785962E-2,-2.1317277E0,3.291981E-1,-4.244257E0,-1.018103E0,-9.651696E-1,1.0408903E0,-5.7478743E0,-3.6059698E-1,3.6094537E0,-1.494776E0,-1.287766E0,6.131799E-1,1.1978997E0,-3.3991957E0,-2.427878E-3,-7.5993896E-1,7.1294725E-1,-1.8770397E-2,-2.543375E-1,2.391012E-1,2.608887E-1,-1.745949E-1,-1.0740594E-1,2.5106376E-1,-6.829518E-1,1.6386816E-1,-5.1167727E-1,-6.147116E-3],"categories":[],"categories_nodes":[],"categories_segments":[],"categories_sizes":[],"default_left":[0,0,0,0,0,0,0,0,0,0,0,0,0,0,0,0,0,0,0,0,0,0,0,0,0,0,0,0,0],"id":22,"left_children":[1,3,5,7,9,11,13,15,-1,17,19,21,23,25,27,-1,-1,-1,-1,-1,-1,-1,-1,-1,-1,-1,-1,-1,-1],"loss_changes":[5.488868E2,2.359021E2,6.8492957E2,5.948297E1,1.4915356E2,1.3494981E2,3.3309808E2,2.1032898E1,0E0,5.4674927E1,1.12926285E2,7.507443E1,9.156967E1,3.248205E2,3.1843307E1,0E0,0E0,0E0,0E0,0E0,0E0,0E0,0E0,0E0,0E0,0E0,0E0,0E0,0E0],"parents":[2147483647,0,0,1,1,2,2,3,3,4,4,5,5,6,6,7,7,9,9,10,10,11,11,12,12,13,13,14,14],"right_children":[2,4,6,8,10,12,14,16,-1,18,20,22,24,26,28,-1,-1,-1,-1,-1,-1,-1,-1,-1,-1,-1,-1,-1,-1],"split_conditions":[1.6E2,3.5283458E-1,2.8E1,1.6926E3,3.803132E-1,3.899E2,6.602143E0,1.357E2,-3.6059698E-1,1.668E2,6.1005366E-1,3.9526436E-1,7E0,1.378E2,1.949E2,-2.427878E-3,-7.5993896E-1,7.1294725E-1,-1.8770397E-2,-2.543375E-1,2.391012E-1,2.608887E-1,-1.745949E-1,-1.0740594E-1,2.5106376E-1,-6.829518E-1,1.6386816E-1,-5.1167727E-1,-6.147116E-3],"split_indices":[0,10,7,13,10,0,15,0,0,1,10,14,7,3,3,0,0,0,0,0,0,0,0,0,0,0,0,0,0],"split_type":[0,0,0,0,0,0,0,0,0,0,0,0,0,0,0,0,0,0,0,0,0,0,0,0,0,0,0,0,0],"sum_hessian":[8.46E2,1.03E2,7.43E2,3.5E1,6.8E1,2.63E2,4.8E2,1.6E1,1.9E1,6E0,6.2E1,2.19E2,4.4E1,4.64E2,1.6E1,1E0,1.5E1,4E0,2E0,5.4E1,8E0,6E0,2.13E2,2.1E1,2.3E1,7E0,4.57E2,1.3E1,3E0],"tree_param":{"num_deleted":"0","num_feature":"22","num_nodes":"29","size_leaf_vector":"1"}},{"base_weights":[3.2434978E-2,-2.5395036E-1,1.9046915E0,4.300807E-1,-9.246179E-1,-1.0307521E0,2.3576138E0,5.661109E-2,4.1855516E0,-5.282077E-1,-2.8143423E0,-1.653425E0,-0E0,1.143906E0,4.13456E0,1.4392392E-1,-1.0322273E-1,3.287729E-1,1.5448482E0,-2.721311E-2,-3.3710864E-1,-2.9244685E-1,-1.1911821E0,-2.2528096E-1,-0E0,5.075619E-1,7.490407E-2,2.0305906E-1,5.9222764E-1],"categories":[],"categories_nodes":[],"categories_segments":[],"categories_sizes":[],"default_left":[0,0,0,0,0,0,0,0,0,0,0,0,0,0,0,0,0,0,0,0,0,0,0,0,0,0,0,0,0],"id":23,"left_children":[1,3,5,7,9,11,13,15,17,19,21,23,-1,25,27,-1,-1,-1,-1,-1,-1,-1,-1,-1,-1,-1,-1,-1,-1],"loss_changes":[4.6535992E2,3.4435062E2,1.5518655E2,5.143447E2,2.7994424E2,9.012861E0,2.0911407E2,3.2310303E2,3.9881494E2,2.075741E2,1.9343988E2,1.2222481E0,0E0,8.97121E1,4.9894165E1,0E0,0E0,0E0,0E0,0E0,0E0,0E0,0E0,0E0,0E0,0E0,0E0,0E0,0E0],"parents":[2147483647,0,0,1,1,2,2,3,3,4,4,5,5,6,6,7,7,8,8,9,9,10,10,11,11,13,13,14,14],"right_children":[2,4,6,8,10,12,14,16,18,20,22,24,-1,26,28,-1,-1,-1,-1,-1,-1,-1,-1,-1,-1,-1,-1,-1,-1],"split_conditions":[9.1E1,4.6104065E-1,6.13E2,1.8401E3,7.9E0,3.814E2,1.5E1,1.10486895E-1,9.47E1,6.721854E-1,4.094E2,2.382E2,-0E0,7.54E2,9.274E2,1.4392392E-1,-1.0322273E-1,3.287729E-1,1.5448482E0,-2.721311E-2,-3.3710864E-1,-2.9244685E-1,-1.1911821E0,-2.2528096E-1,-0E0,5.075619E-1,7.490407E-2,2.0305906E-1,5.9222764E-1],"split_indices":[7,9,6,13,4,0,1,11,1,9,8,1,0,6,5,0,0,0,0,0,0,0,0,0,0,0,0,0,0],"split_type":[0,0,0,0,0,0,0,0,0,0,0,0,0,0,0,0,0,0,0,0,0,0,0,0,0,0,0,0,0],"sum_hessian":[8.64E2,7.49E2,1.15E2,3.7E2,3.79E2,1.5E1,1E2,3.37E2,3.3E1,3.14E2,6.5E1,9E0,6E0,6E1,4E1,1.51E2,1.86E2,2.8E1,5E0,2.75E2,3.9E1,6.1E1,4E0,8E0,1E0,9E0,5.1E1,8E0,3.2E1],"tree_param":{"num_deleted":"0","num_feature":"22","num_nodes":"29","size_leaf_vector":"1"}},{"base_weights":[6.4838186E-2,-1.8943064E-1,2.3118043E0,-1.9817524E0,6.3157424E-2,3.7904413E0,7.320708E-2,-1.4332224E0,-3.9465804E0,1.4293697E0,-2.418338E-1,1.7838184E0,4.9896603E0,-1.1547418E0,5.035657E0,-2.1696703E-1,4.5413043E-2,-3.8318142E-1,-6.333305E-1,-6.27182E-1,2.3050919E-1,-5.555153E-2,2.4023205E-1,-3.233713E-3,3.8487643E-1,4.0176064E-1,9.770384E-1,-8.56126E-2,-1.3419458E0,-1.5617658E-1,9.693274E-1],"categories":[],"categories_nodes":[],"categories_segments":[],"categories_sizes":[],"default_left":[0,0,0,0,0,0,0,0,0,0,0,0,0,0,0,0,0,0,0,0,0,0,0,0,0,0,0,0,0,0,0],"id":24,"left_children":[1,3,5,7,9,11,13,15,17,19,21,23,25,27,29,-1,-1,-1,-1,-1,-1,-1,-1,-1,-1,-1,-1,-1,-1,-1,-1],"loss_changes":[4.8997794E2,3.4909164E2,2.8419363E2,9.530264E1,2.8110687E2,1.1606024E2,2.2016623E2,4.135414E1,7.4199524E0,3.1915445E2,2.3511426E2,5.0282127E1,1.4319098E2,1.1270653E2,1.306543E2,0E0,0E0,0E0,0E0,0E0,0E0,0E0,0E0,0E0,0E0,0E0,0E0,0E0,0E0,0E0,0E0],"parents":[2147483647,0,0,1,1,2,2,3,3,4,4,5,5,6,6,7,7,8,8,9,9,10,10,11,11,12,12,13,13,14,14],"right_children":[2,4,6,8,10,12,14,16,18,20,22,24,26,28,30,-1,-1,-1,-1,-1,-1,-1,-1,-1,-1,-1,-1,-1,-1,-1,-1],"split_conditions":[5.4E2,2.0794415E0,7.1E1,1.299E2,1.619E2,2.7080503E0,4.5976272E-1,9.47E1,1.927E2,1.378E2,2.28E2,5.72E2,1.6927E3,2.2E1,2.7080503E0,-2.1696703E-1,4.5413043E-2,-3.8318142E-1,-6.333305E-1,-6.27182E-1,2.3050919E-1,-5.555153E-2,2.4023205E-1,-3.233713E-3,3.8487643E-1,4.0176064E-1,9.770384E-1,-8.56126E-2,-1.3419458E0,-1.5617658E-1,9.693274E-1],"split_indices":[8,17,2,1,3,17,14,1,3,3,3,8,13,4,17,0,0,0,0,0,0,0,0,0,0,0,0,0,0,0,0],"split_type":[0,0,0,0,0,0,0,0,0,0,0,0,0,0,0,0,0,0,0,0,0,0,0,0,0,0,0,0,0,0,0],"sum_hessian":[8.53E2,7.66E2,8.7E1,9.5E1,6.71E2,5.2E1,3.5E1,7.5E1,2E1,1.23E2,5.48E2,2E1,3.2E1,2.8E1,7E0,6.5E1,1E1,1.2E1,8E0,7E0,1.16E2,5.02E2,4.6E1,8E0,1.2E1,2E1,1.2E1,2.7E1,1E0,2E0,5E0],"tree_param":{"num_deleted":"0","num_feature":"22","num_nodes":"31","size_leaf_vector":"1"}},{"base_weights":[-8.418856E-2,-3.9009976E-1,1.5922995E0,-6.348642E-1,1.2073072E0,8.9129186E-1,6.5280433E0,-6.608633E-1,1.523706E0,-1.4407268E0,1.5660495E0,-1.1696087E0,1.0967778E0,5.4276853E0,2.3029943E0,-2.134531E-1,-5.6039542E-2,-2.226233E-1,-1.8072003E-2,8.3808295E-2,3.869936E-1,8.4475964E-2,5.3327686E-1,8.0831397E-1,-7.390388E-2],"categories":[],"categories_nodes":[],"categories_segments":[],"categories_sizes":[],"default_left":[0,0,0,0,0,0,0,0,0,0,0,0,0,0,0,0,0,0,0,0,0,0,0,0,0],"id":25,"left_children":[1,3,5,7,9,11,13,15,-1,17,19,-1,21,23,-1,-1,-1,-1,-1,-1,-1,-1,-1,-1,-1],"loss_changes":[4.399189E2,2.842254E2,4.4776508E2,1.9836581E2,9.2001724E1,2.3633917E2,1.6283588E2,1.3815167E2,0E0,2.5772552E0,1.1130002E2,0E0,1.4636563E2,9.9546234E1,0E0,0E0,0E0,0E0,0E0,0E0,0E0,0E0,0E0,0E0,0E0],"parents":[2147483647,0,0,1,1,2,2,3,3,4,4,5,5,6,6,7,7,9,9,10,10,12,12,13,13],"right_children":[2,4,6,8,10,12,14,16,-1,18,20,-1,22,24,-1,-1,-1,-1,-1,-1,-1,-1,-1,-1,-1],"split_conditions":[3.899E2,9.1E1,1.749E3,1.145E3,6.13E2,8.11E2,2.2988506E-2,4.1373885E-1,1.523706E0,3.6E2,1.5E1,-1.1696087E0,1.176E2,4.6775818E-1,2.3029943E0,-2.134531E-1,-5.6039542E-2,-2.226233E-1,-1.8072003E-2,8.3808295E-2,3.869936E-1,8.4475964E-2,5.3327686E-1,8.0831397E-1,-7.390388E-2],"split_indices":[0,7,13,5,6,5,16,14,0,7,1,0,1,9,0,0,0,0,0,0,0,0,0,0,0],"split_type":[0,0,0,0,0,0,0,0,0,0,0,0,0,0,0,0,0,0,0,0,0,0,0,0,0],"sum_hessian":[8.6E2,7.28E2,1.32E2,6.32E2,9.6E1,1.16E2,1.6E1,6.31E2,1E0,1.1E1,8.5E1,2E0,1.14E2,1.5E1,1E0,1.07E2,5.24E2,8E0,3E0,5.4E1,3.1E1,1.01E2,1.3E1,1.3E1,2E0],"tree_param":{"num_deleted":"0","num_feature":"22","num_nodes":"25","size_leaf_vector":"1"}},{"base_weights":[-5.2529075E-3,5.21079E-1,-7.878659E-1,-8.062393E-2,2.401542E0,1.471724E0,-8.3536494E-1,1.234222E0,-5.421691E-1,1.4392488E0,5.4164357E0,-1.9303344E0,-3.6264664E-1,3.4181467E-1,-1.015342E-1,-8.504768E-1,-5.5714257E-2,-0E0,5.623763E-1,9.1527677E-1,3.8994685E-2,-0E0,-4.023843E-1,5.783714E-1,-6.01241E-2],"categories":[],"categories_nodes":[],"categories_segments":[],"categories_sizes":[],"default_left":[0,0,0,0,0,0,0,0,0,0,0,0,0,0,0,0,0,0,0,0,0,0,0,0,0],"id":26,"left_children":[1,3,5,7,9,-1,11,13,15,17,19,21,23,-1,-1,-1,-1,-1,-1,-1,-1,-1,-1,-1,-1],"loss_changes":[3.4689417E2,5.709254E2,1.910559E2,2.3008095E2,3.4511298E2,0E0,1.7229846E2,3.0084283E2,1.6456558E2,4.1227734E2,2.6964233E2,2.508425E2,1.3235458E2,0E0,0E0,0E0,0E0,0E0,0E0,0E0,0E0,0E0,0E0,0E0,0E0],"parents":[2147483647,0,0,1,1,2,2,3,3,4,4,6,6,7,7,8,8,9,9,10,10,11,11,12,12],"right_children":[2,4,6,8,10,-1,12,14,16,18,20,22,24,-1,-1,-1,-1,-1,-1,-1,-1,-1,-1,-1,-1],"split_conditions":[3.967099E-1,3.8E1,2.849614E-1,7.543E2,4E0,1.471724E0,4.2424738E-1,1.10486895E-1,3.187251E0,3.1678486E-1,7.855E2,4.135135E-1,6.57E2,3.4181467E-1,-1.015342E-1,-8.504768E-1,-5.5714257E-2,-0E0,5.623763E-1,9.1527677E-1,3.8994685E-2,-0E0,-4.023843E-1,5.783714E-1,-6.01241E-2],"split_indices":[12,1,9,6,15,0,14,11,15,10,6,14,6,0,0,0,0,0,0,0,0,0,0,0,0],"split_type":[0,0,0,0,0,0,0,0,0,0,0,0,0,0,0,0,0,0,0,0,0,0,0,0,0],"sum_hessian":[8.41E2,5.02E2,3.39E2,3.8E2,1.22E2,1E0,3.38E2,9.8E1,2.82E2,9.3E1,2.9E1,1.01E2,2.37E2,5.7E1,4.1E1,4E0,2.78E2,6.3E1,3E1,2.1E1,8E0,4E1,6.1E1,5E0,2.32E2],"tree_param":{"num_deleted":"0","num_feature":"22","num_nodes":"25","size_leaf_vector":"1"}},{"base_weights":[-3.370737E-3,2.0240028E0,-2.1406017E-1,-3.376151E0,2.819373E0,-1.0340315E0,1.68447E-1,-6.3700943E0,9.357616E-1,3.8001028E-1,4.1414003E0,-9.68717E-1,-9.686858E-1,6.093702E-1,-7.4761117E-1,-1.0227737E0,-2.3611909E-1,2.743258E-1,6.281993E-3,1.5478788E-1,-3.42075E-1,8.199603E-1,1.9577228E-1,-1.3225558E-1,3.4503734E-1,5.22632E-2,4.2053053E-1,-4.9255058E-1,-7.4912785E-3],"categories":[],"categories_nodes":[],"categories_segments":[],"categories_sizes":[],"default_left":[0,0,0,0,0,0,0,0,0,0,0,0,0,0,0,0,0,0,0,0,0,0,0,0,0,0,0,0,0],"id":27,"left_children":[1,3,5,7,9,11,13,15,17,19,21,-1,23,25,27,-1,-1,-1,-1,-1,-1,-1,-1,-1,-1,-1,-1,-1,-1],"loss_changes":[3.6417654E2,3.4582788E2,2.4479065E2,1.3919626E2,2.2092468E2,9.685007E1,2.1368886E2,3.4773422E1,2.0781467E0,6.564244E1,2.6724316E2,0E0,7.5590225E1,1.8505301E2,3.6916934E2,0E0,0E0,0E0,0E0,0E0,0E0,0E0,0E0,0E0,0E0,0E0,0E0,0E0,0E0],"parents":[2147483647,0,0,1,1,2,2,3,3,4,4,5,5,6,6,7,7,8,8,9,9,10,10,12,12,13,13,14,14],"right_children":[2,4,6,8,10,12,14,16,18,20,22,-1,24,26,28,-1,-1,-1,-1,-1,-1,-1,-1,-1,-1,-1,-1,-1,-1],"split_conditions":[1.548E2,1.378E2,2.8E1,8.1E0,2.8E1,3E0,1.06E2,5.6E1,1.4E1,1.252E2,1.21E1,-9.68717E-1,2.16E2,2.8035045E-2,1.175E2,-1.0227737E0,-2.3611909E-1,2.743258E-1,6.281993E-3,1.5478788E-1,-3.42075E-1,8.199603E-1,1.9577228E-1,-1.3225558E-1,3.4503734E-1,5.22632E-2,4.2053053E-1,-4.9255058E-1,-7.4912785E-3],"split_indices":[3,3,7,4,7,7,2,7,7,2,4,0,3,16,2,0,0,0,0,0,0,0,0,0,0,0,0,0,0],"split_type":[0,0,0,0,0,0,0,0,0,0,0,0,0,0,0,0,0,0,0,0,0,0,0,0,0,0,0,0,0],"sum_hessian":[8.57E2,8E1,7.77E2,1E1,7E1,2.48E2,5.29E2,6E0,4E0,2.5E1,4.5E1,2E0,2.46E2,3.58E2,1.71E2,4E0,2E0,1E0,3E0,2E1,5E0,2.3E1,2.2E1,2.41E2,5E0,3.35E2,2.3E1,3E1,1.41E2],"tree_param":{"num_deleted":"0","num_feature":"22","num_nodes":"29","size_leaf_vector":"1"}},{"base_weights":[-5.7975527E-2,-1.524441E0,1.620054E-1,-1.1127145E0,-3.112825E0,9.804627E-1,-3.1275848E-1,-1.2643263E0,1.7416176E0,-3.636091E0,-1.4589976E0,1.5396857E0,-7.386653E-1,-1.56098185E-2,-2.5446584E0,-1.6962993E-1,1.9829333E-1,8.0327754E-4,6.418284E-1,-5.443096E-1,-3.4028807E-1,-0E0,-2.1953559E-1,3.050901E-1,-5.6178965E-2,-5.739159E-1,-5.7647012E-2,-1.3245328E-1,5.5281844E-2,-4.125751E-1,1.9399053E-1],"categories":[],"categories_nodes":[],"categories_segments":[],"categories_sizes":[],"default_left":[0,0,0,0,0,0,0,0,0,0,0,0,0,0,0,0,0,0,0,0,0,0,0,0,0,0,0,0,0,0,0],"id":28,"left_children":[1,3,5,7,9,11,13,15,17,19,21,23,25,27,29,-1,-1,-1,-1,-1,-1,-1,-1,-1,-1,-1,-1,-1,-1,-1,-1],"loss_changes":[2.7490994E2,6.718912E1,2.8689606E2,3.851439E1,1.2306946E1,2.6188055E2,3.0559784E2,2.1002716E1,1.8735903E1,1.0528564E-2,2.688778E0,3.6490833E2,6.477132E1,1.9542967E2,1.6694525E2,0E0,0E0,0E0,0E0,0E0,0E0,0E0,0E0,0E0,0E0,0E0,0E0,0E0,0E0,0E0,0E0],"parents":[2147483647,0,0,1,1,2,2,3,3,4,4,5,5,6,6,7,7,8,8,9,9,10,10,11,11,12,12,13,13,14,14],"right_children":[2,4,6,8,10,12,14,16,18,20,22,24,26,28,30,-1,-1,-1,-1,-1,-1,-1,-1,-1,-1,-1,-1,-1,-1,-1,-1],"split_conditions":[7E0,1.927E2,1.779E2,4.653273E-1,2.45E1,3.4937E-1,2.1129327E-2,4.91E2,1.1E1,2.37E2,1.954E2,1.21E1,3.9876193E-1,4.1597444E-1,1.839E2,-1.6962993E-1,1.9829333E-1,8.0327754E-4,6.418284E-1,-5.443096E-1,-3.4028807E-1,-0E0,-2.1953559E-1,3.050901E-1,-5.6178965E-2,-5.739159E-1,-5.7647012E-2,-1.3245328E-1,5.5281844E-2,-4.125751E-1,1.9399053E-1],"split_indices":[7,3,3,11,2,11,16,0,1,0,3,4,9,14,1,0,0,0,0,0,0,0,0,0,0,0,0,0,0,0,0],"split_type":[0,0,0,0,0,0,0,0,0,0,0,0,0,0,0,0,0,0,0,0,0,0,0,0,0,0,0,0,0,0,0],"sum_hessian":[8.47E2,1.11E2,7.36E2,8.9E1,2.2E1,2.71E2,4.65E2,8.5E1,4E0,1.6E1,6E0,2.05E2,6.6E1,4.11E2,5.4E1,8.3E1,2E0,3E0,1E0,8E0,8E0,1E0,5E0,1.42E2,6.3E1,4E0,6.2E1,1.26E2,2.85E2,4.6E1,8E0],"tree_param":{"num_deleted":"0","num_feature":"22","num_nodes":"31","size_leaf_vector":"1"}},{"base_weights":[6.688229E-2,2.2389138E0,-8.286819E-2,-4.6143362E-1,4.6851277E0,-8.8415813E-1,2.7348924E-1,-4.555606E0,7.443593E-1,5.77349E0,-1.7953237E0,-8.29385E-1,-8.268367E-1,4.6972677E-1,-1.8358871E0,-7.740845E-1,2.7761516E-1,2.3031574E-1,-3.1142518E-2,1.3574886E-1,9.4254404E-1,-0E0,-3.2852617E-1,-8.211174E-2,-2.7792874E-1,4.6661934E-1,3.89453E-2,-3.2257906E-1,8.615728E-2],"categories":[],"categories_nodes":[],"categories_segments":[],"categories_sizes":[],"default_left":[0,0,0,0,0,0,0,0,0,0,0,0,0,0,0,0,0,0,0,0,0,0,0,0,0,0,0,0,0],"id":29,"left_children":[1,3,5,7,9,11,13,15,17,19,21,-1,23,25,27,-1,-1,-1,-1,-1,-1,-1,-1,-1,-1,-1,-1,-1,-1],"loss_changes":[2.7838882E2,3.699409E2,2.2724353E2,1.344246E2,2.1267749E2,7.076326E1,2.2554308E2,7.4771484E1,2.3737978E1,1.9309985E2,8.371095E0,0E0,5.4797226E1,2.5542166E2,8.7793976E1,0E0,0E0,0E0,0E0,0E0,0E0,0E0,0E0,0E0,0E0,0E0,0E0,0E0,0E0],"parents":[2147483647,0,0,1,1,2,2,3,3,4,4,5,5,6,6,7,7,8,8,9,9,10,10,12,12,13,13,14,14],"right_children":[2,4,6,8,10,12,14,16,18,20,22,-1,24,26,28,-1,-1,-1,-1,-1,-1,-1,-1,-1,-1,-1,-1,-1,-1],"split_conditions":[1.514E2,1.433E2,2.8E1,8.1E0,8.998E2,3E0,1.21E1,4.8E2,8.426E2,1.4E1,7E0,-8.29385E-1,5.999261E-1,3.049522E-1,1.53E2,-7.740845E-1,2.7761516E-1,2.3031574E-1,-3.1142518E-2,1.3574886E-1,9.4254404E-1,-0E0,-3.2852617E-1,-8.211174E-2,-2.7792874E-1,4.6661934E-1,3.89453E-2,-3.2257906E-1,8.615728E-2],"split_indices":[3,3,7,4,6,7,4,0,6,7,7,0,10,9,1,0,0,0,0,0,0,0,0,0,0,0,0,0,0],"split_type":[0,0,0,0,0,0,0,0,0,0,0,0,0,0,0,0,0,0,0,0,0,0,0,0,0,0,0,0,0],"sum_hessian":[8.48E2,5.5E1,7.93E2,2.6E1,2.9E1,2.45E2,5.48E2,6E0,2E1,2.5E1,4E0,2E0,2.43E2,5.02E2,4.6E1,5E0,1E0,1E1,1E1,7E0,1.8E1,1E0,3E0,2.17E2,2.6E1,2.3E1,4.79E2,3.6E1,1E1],"tree_param":{"num_deleted":"0","num_feature":"22","num_nodes":"29","size_leaf_vector":"1"}},{"base_weights":[4.447807E-2,9.046162E-1,-4.0529475E-1,2.153453E0,3.3475226E-1,4.657623E0,-4.8273245E-1,-1.6171119E-1,4.1534195E0,5.412153E0,8.654189E-2,-0E0,6.1749434E0,-5.0963706E-1,1.3693589E0,-9.8471874E-1,2.9151449E-2,5.9044576E-1,-2.0778273E-1,-1.1975487E-1,9.251496E-1,-3.2140267E-1,5.0450258E-2,1.1293732E0,3.2739216E-1,-1.8752299E-1,-2.6823431E-2],"categories":[],"categories_nodes":[],"categories_segments":[],"categories_sizes":[],"default_left":[0,0,0,0,0,0,0,0,0,0,0,0,0,0,0,0,0,0,0,0,0,0,0,0,0,0,0],"id":30,"left_children":[1,3,5,7,9,11,13,15,17,19,21,-1,23,25,-1,-1,-1,-1,-1,-1,-1,-1,-1,-1,-1,-1,-1],"loss_changes":[3.2994907E2,2.0567705E2,2.14551E2,4.2700336E2,2.484617E2,5.8627502E1,1.5779527E2,1.366412E2,1.6129694E2,1.23175415E2,1.5875159E2,0E0,4.428183E1,1.5786566E2,0E0,0E0,0E0,0E0,0E0,0E0,0E0,0E0,0E0,0E0,0E0,0E0,0E0],"parents":[2147483647,0,0,1,1,2,2,3,3,4,4,5,5,6,6,7,7,8,8,9,9,10,10,12,12,13,13],"right_children":[2,4,6,8,10,12,14,16,18,20,22,-1,24,26,-1,-1,-1,-1,-1,-1,-1,-1,-1,-1,-1,-1,-1],"split_conditions":[1.755E2,7.282996E-2,3.049522E-1,9.362E2,8.849E2,7E0,1.1343E3,8.11E2,1.1343E3,1.4E1,7.21E2,-0E0,3.26E2,4.1373885E-1,1.3693589E0,-9.8471874E-1,2.9151449E-2,5.9044576E-1,-2.0778273E-1,-1.1975487E-1,9.251496E-1,-3.2140267E-1,5.0450258E-2,1.1293732E0,3.2739216E-1,-1.8752299E-1,-2.6823431E-2],"split_indices":[3,11,9,5,5,7,5,5,5,7,6,0,0,14,0,0,0,0,0,0,0,0,0,0,0,0,0],"split_type":[0,0,0,0,0,0,0,0,0,0,0,0,0,0,0,0,0,0,0,0,0,0,0,0,0,0,0],"sum_hessian":[8.51E2,2.93E2,5.58E2,9.1E1,2.02E2,8E0,5.5E2,4.2E1,4.9E1,9E0,1.93E2,2E0,6E0,5.49E2,1E0,2E0,4E1,4.5E1,4E0,2E0,7E0,2E1,1.73E2,3E0,3E0,1.26E2,4.23E2],"tree_param":{"num_deleted":"0","num_feature":"22","num_nodes":"27","size_leaf_vector":"1"}},{"base_weights":[-7.144671E-2,1.3661776E-1,-1.202793E0,6.789882E-1,-4.833313E-1,-9.7941995E-1,-3.8286927E0,5.108601E-1,5.0765142E0,-1.7176015E0,-1.13283314E-1,3.094275E0,-1.0930625E0,-2.8545353E-1,-5.743897E-1,-1.6560781E-1,9.722067E-2,-0E0,9.896738E-1,1.10131934E-1,-2.7158716E-1,3.5059243E-2,-2.1253155E-1,-1.522639E-2,1.1797062E0,-1.5997826E-1,-0E0],"categories":[],"categories_nodes":[],"categories_segments":[],"categories_sizes":[],"default_left":[0,0,0,0,0,0,0,0,0,0,0,0,0,0,0,0,0,0,0,0,0,0,0,0,0,0,0],"id":31,"left_children":[1,3,5,7,9,11,13,15,17,19,21,23,25,-1,-1,-1,-1,-1,-1,-1,-1,-1,-1,-1,-1,-1,-1],"loss_changes":[2.0632657E2,2.4749844E2,7.3631E1,2.8380438E2,1.5416956E2,5.6841682E1,1.85495E0,1.8203767E2,2.0527222E2,9.200035E1,1.6534607E2,7.573434E1,2.5030304E1,0E0,0E0,0E0,0E0,0E0,0E0,0E0,0E0,0E0,0E0,0E0,0E0,0E0,0E0],"parents":[2147483647,0,0,1,1,2,2,3,3,4,4,5,5,6,6,7,7,8,8,9,9,10,10,11,11,12,12],"right_children":[2,4,6,8,10,12,14,16,18,20,22,24,26,-1,-1,-1,-1,-1,-1,-1,-1,-1,-1,-1,-1,-1,-1],"split_conditions":[5.7580695E0,1.10486895E-1,8.0444443E-1,2.45E1,7.466E2,7.343E2,8.220339E-1,7E0,2.8E1,1.534E3,1.886E2,1.556E2,9.1E1,-2.8545353E-1,-5.743897E-1,-1.6560781E-1,9.722067E-2,-0E0,9.896738E-1,1.10131934E-1,-2.7158716E-1,3.5059243E-2,-2.1253155E-1,-1.522639E-2,1.1797062E0,-1.5997826E-1,-0E0],"split_indices":[15,11,9,2,6,6,9,7,7,13,3,0,7,0,0,0,0,0,0,0,0,0,0,0,0,0,0],"split_type":[0,0,0,0,0,0,0,0,0,0,0,0,0,0,0,0,0,0,0,0,0,0,0,0,0,0,0],"sum_hessian":[8.71E2,7.35E2,1.36E2,3.93E2,3.42E2,1.26E2,1E1,3.79E2,1.4E1,7.8E1,2.64E2,3E0,1.23E2,4E0,6E0,4.7E1,3.32E2,5E0,9E0,1.1E1,6.7E1,2.11E2,5.3E1,2E0,1E0,1.06E2,1.7E1],"tree_param":{"num_deleted":"0","num_feature":"22","num_nodes":"27","size_leaf_vector":"1"}},{"base_weights":[-2.1388635E-2,9.077683E-2,-1.8139247E0,-8.7544405E-1,3.2207623E-1,-1.4779232E0,-5.046339E-1,-2.21915E0,-3.627946E-1,6.042135E-1,-6.667239E-1,-1.0261205E0,-2.2028813E0,-4.5416605E-1,2.9368384E-2,8.686325E-2,-9.97509E-2,-7.7898186E-1,8.327504E-2,1.12237185E-1,-2.8149697E-1,-0E0,-1.5423095E-1,-1.9559196E-1,-3.7786657E-1],"categories":[],"categories_nodes":[],"categories_segments":[],"categories_sizes":[],"default_left":[0,0,0,0,0,0,0,0,0,0,0,0,0,0,0,0,0,0,0,0,0,0,0,0,0],"id":32,"left_children":[1,3,5,7,9,11,-1,13,15,17,19,21,23,-1,-1,-1,-1,-1,-1,-1,-1,-1,-1,-1,-1],"loss_changes":[1.747531E2,1.8004984E2,3.040767E1,1.0380124E2,1.8224174E2,1.0654968E1,0E0,1.4857262E2,5.169843E1,1.9784612E2,3.5608936E2,5.733734E0,2.250267E0,0E0,0E0,0E0,0E0,0E0,0E0,0E0,0E0,0E0,0E0,0E0,0E0],"parents":[2147483647,0,0,1,1,2,2,3,3,4,4,5,5,7,7,8,8,9,9,10,10,11,11,12,12],"right_children":[2,4,6,8,10,12,-1,14,16,18,20,22,24,-1,-1,-1,-1,-1,-1,-1,-1,-1,-1,-1,-1],"split_conditions":[6.477981E0,1.703E2,8.220339E-1,4.2424738E-1,1.952E2,8.65E2,-5.046339E-1,1.02E1,4.3790406E-1,1.572E3,1.6026E3,6.602143E0,5.6E1,-4.5416605E-1,2.9368384E-2,8.686325E-2,-9.97509E-2,-7.7898186E-1,8.327504E-2,1.12237185E-1,-2.8149697E-1,-0E0,-1.5423095E-1,-1.9559196E-1,-3.7786657E-1],"split_indices":[15,0,9,14,3,6,0,4,14,13,13,15,7,0,0,0,0,0,0,0,0,0,0,0,0],"split_type":[0,0,0,0,0,0,0,0,0,0,0,0,0,0,0,0,0,0,0,0,0,0,0,0,0],"sum_hessian":[8.59E2,8.08E2,5.1E1,1.55E2,6.53E2,4.5E1,6E0,4.2E1,1.13E2,5.09E2,1.44E2,2.9E1,1.6E1,2.7E1,1.5E1,3.2E1,8.1E1,4E0,5.05E2,7.2E1,7.2E1,5E0,2.4E1,1E1,6E0],"tree_param":{"num_deleted":"0","num_feature":"22","num_nodes":"25","size_leaf_vector":"1"}},{"base_weights":[2.7489912E-2,4.2663327E-1,-4.6871117E-1,-1.1390859E-1,1.5909386E0,-1.8927947E0,-1.3855869E-1,1.2088052E0,-6.383599E-1,2.6094036E0,2.4751788E-1,-2.962737E0,-8.391845E-1,-2.5145492E-1,3.1283615E0,1.9816171E-2,4.509036E-1,-3.75138E-1,-5.4967068E-2,6.885859E-2,5.245758E-1,5.430391E-1,-3.755306E-2,-2.235825E-1,-7.7128965E-1,7.4277006E-2,-2.2066964E-1,-1.0383892E-1,1.7850623E-2,-0E0,9.8025817E-1],"categories":[],"categories_nodes":[],"categories_segments":[],"categories_sizes":[],"default_left":[0,0,0,0,0,0,0,0,0,0,0,0,0,0,0,0,0,0,0,0,0,0,0,0,0,0,0,0,0,0,0],"id":33,"left_children":[1,3,5,7,9,11,13,15,17,19,21,23,25,27,29,-1,-1,-1,-1,-1,-1,-1,-1,-1,-1,-1,-1,-1,-1,-1,-1],"loss_changes":[1.7254044E2,3.064612E2,1.796785E2,2.2857239E2,2.0759589E2,7.6546265E1,1.1313481E2,2.2881393E2,1.0765775E2,2.7569543E2,1.5452005E2,1.2101758E2,5.0369965E1,6.988603E1,1.5624193E2,0E0,0E0,0E0,0E0,0E0,0E0,0E0,0E0,0E0,0E0,0E0,0E0,0E0,0E0,0E0,0E0],"parents":[2147483647,0,0,1,1,2,2,3,3,4,4,5,5,6,6,7,7,8,8,9,9,10,10,11,11,12,12,13,13,14,14],"right_children":[2,4,6,8,10,12,14,16,18,20,22,24,26,28,30,-1,-1,-1,-1,-1,-1,-1,-1,-1,-1,-1,-1,-1,-1,-1,-1],"split_conditions":[1.10486895E-1,2.5E0,7.34E2,6.96E2,7.92E2,1.214E2,5.22E2,4.008873E0,7.2E2,7.243E2,3.6E0,2.1814007E-2,2.966805E-1,9.68E2,1E0,1.9816171E-2,4.509036E-1,-3.75138E-1,-5.4967068E-2,6.885859E-2,5.245758E-1,5.430391E-1,-3.755306E-2,-2.235825E-1,-7.7128965E-1,7.4277006E-2,-2.2066964E-1,-1.0383892E-1,1.7850623E-2,-0E0,9.8025817E-1],"split_indices":[11,4,6,6,6,2,8,15,6,6,4,16,11,5,21,0,0,0,0,0,0,0,0,0,0,0,0,0,0,0,0],"split_type":[0,0,0,0,0,0,0,0,0,0,0,0,0,0,0,0,0,0,0,0,0,0,0,0,0,0,0,0,0,0,0],"sum_hessian":[8.71E2,4.84E2,3.87E2,3.3E2,1.54E2,7.2E1,3.15E2,9.3E1,2.37E2,8.7E1,6.7E1,3.5E1,3.7E1,3.05E2,1E1,6.5E1,2.8E1,1.8E1,2.19E2,3.8E1,4.9E1,8E0,5.9E1,2.6E1,9E0,1.4E1,2.3E1,1.25E2,1.8E2,6E0,4E0],"tree_param":{"num_deleted":"0","num_feature":"22","num_nodes":"31","size_leaf_vector":"1"}},{"base_weights":[-5.041692E-2,-1.2153107E0,1.1763257E-1,-1.5496E0,-0E0,3.0507382E-2,2.4131753E0,-6.9060236E-1,-1.4287975E0,-1.2189037E0,1.1902702E0,1.369158E-2,1.161048E0,-8.7130636E-1,3.6163757E0,-9.909508E-2,-2.8155184E-1,-3.8317415E-1,-5.3992055E-2,3.122103E-1,-5.404488E-2,1.569458E-2,-1.54054E-1,-3.5817525E-1,5.1429182E-2,3.0867922E-1,7.4941903E-1],"categories":[],"categories_nodes":[],"categories_segments":[],"categories_sizes":[],"default_left":[0,0,0,0,0,0,0,0,0,0,0,0,0,0,0,0,0,0,0,0,0,0,0,0,0,0,0],"id":34,"left_children":[1,3,5,7,9,11,13,-1,15,17,19,21,-1,23,25,-1,-1,-1,-1,-1,-1,-1,-1,-1,-1,-1,-1],"loss_changes":[1.7104639E2,4.423149E1,1.4863705E2,3.158496E1,3.5429237E1,1.0252148E2,1.11301056E2,0E0,3.995842E1,1.3397179E1,2.8181717E1,9.936002E1,0E0,2.1300533E1,4.2386414E1,0E0,0E0,0E0,0E0,0E0,0E0,0E0,0E0,0E0,0E0,0E0,0E0],"parents":[2147483647,0,0,1,1,2,2,3,3,4,4,5,5,6,6,8,8,9,9,10,10,11,11,13,13,14,14],"right_children":[2,4,6,8,10,12,14,-1,16,18,20,22,-1,24,26,-1,-1,-1,-1,-1,-1,-1,-1,-1,-1,-1,-1],"split_conditions":[7E0,1.8401E3,5.78E2,3E0,3.368E2,1.145E3,8.6E0,-6.9060236E-1,3.5454544E-1,1.62E2,3.1791907E-2,1.21E1,1.161048E0,1.4E1,1.78E2,-9.909508E-2,-2.8155184E-1,-3.8317415E-1,-5.3992055E-2,3.122103E-1,-5.404488E-2,1.569458E-2,-1.54054E-1,-3.5817525E-1,5.1429182E-2,3.0867922E-1,7.4941903E-1],"split_indices":[7,13,8,7,8,5,4,0,12,3,16,4,0,7,1,0,0,0,0,0,0,0,0,0,0,0,0],"split_type":[0,0,0,0,0,0,0,0,0,0,0,0,0,0,0,0,0,0,0,0,0,0,0,0,0,0,0],"sum_hessian":[8.67E2,1.1E2,7.57E2,8.6E1,2.4E1,7.3E2,2.7E1,2E0,8.4E1,1.2E1,1.2E1,7.29E2,1E0,7E0,2E1,4.8E1,3.6E1,3E0,9E0,7E0,5E0,6.7E2,5.9E1,3E0,4E0,1.4E1,6E0],"tree_param":{"num_deleted":"0","num_feature":"22","num_nodes":"27","size_leaf_vector":"1"}},{"base_weights":[6.5906397E-3,-6.1514336E-1,3.0347764E-1,2.1542196E0,-7.004797E-1,-8.0558485E-1,5.2647525E-1,-1.377514E-1,3.5113212E-1,-8.832727E-1,2.9890025E-1,9.38813E-1,-1.6062526E0,-1.7598765E0,6.953577E-1,-3.703577E-1,-9.7314544E-2,2.6997992E-1,-2.2808876E-2,-6.6130586E-2,4.1731167E-1,-2.8730336E-1,1.9067012E-1,-1.1975884E-1,-7.531647E-1,1.888568E-2,1.953614E-1],"categories":[],"categories_nodes":[],"categories_segments":[],"categories_sizes":[],"default_left":[0,0,0,0,0,0,0,0,0,0,0,0,0,0,0,0,0,0,0,0,0,0,0,0,0,0,0],"id":35,"left_children":[1,3,5,7,9,11,13,-1,-1,15,17,19,21,23,25,-1,-1,-1,-1,-1,-1,-1,-1,-1,-1,-1,-1],"loss_changes":[1.6381688E2,6.629115E1,1.4895312E2,1.966838E1,5.1544113E1,1.4103004E2,1.9333841E2,0E0,0E0,4.826097E1,3.984567E1,1.12517105E2,1.4877425E2,1.0774635E2,2.1787114E2,0E0,0E0,0E0,0E0,0E0,0E0,0E0,0E0,0E0,0E0,0E0,0E0],"parents":[2147483647,0,0,1,1,2,2,3,3,4,4,5,5,6,6,9,9,10,10,11,11,12,12,13,13,14,14],"right_children":[2,4,6,8,10,12,14,-1,-1,16,18,20,22,24,26,-1,-1,-1,-1,-1,-1,-1,-1,-1,-1,-1,-1],"split_conditions":[2.8E1,6.13E2,1.59E2,7E0,3.899E2,1.436E2,1.572E3,-1.377514E-1,3.5113212E-1,3.0103093E-1,4.24E2,1.396E2,6.00038E-1,1.5581E3,1.2616469E-1,-3.703577E-1,-9.7314544E-2,2.6997992E-1,-2.2808876E-2,-6.6130586E-2,4.1731167E-1,-2.8730336E-1,1.9067012E-1,-1.1975884E-1,-7.531647E-1,1.888568E-2,1.953614E-1],"split_indices":[7,6,0,7,0,0,13,0,0,9,0,0,10,13,10,0,0,0,0,0,0,0,0,0,0,0,0],"split_type":[0,0,0,0,0,0,0,0,0,0,0,0,0,0,0,0,0,0,0,0,0,0,0,0,0,0,0],"sum_hessian":[8.89E2,2.86E2,6.03E2,8E0,2.78E2,1E2,5.03E2,1E0,7E0,2.36E2,4.2E1,3.1E1,6.9E1,3.4E1,4.69E2,1.1E1,2.25E2,9E0,3.3E1,1.9E1,1.2E1,5.7E1,1.2E1,2.9E1,5E0,2.88E2,1.81E2],"tree_param":{"num_deleted":"0","num_feature":"22","num_nodes":"27","size_leaf_vector":"1"}},{"base_weights":[4.5933668E-2,-2.979998E-2,1.6875043E0,-5.3191084E-1,1.1208173E-3,2.644214E0,-3.0154535E-1,9.254748E-2,-1.3267645E0,-1.1055367E-1,3.5198019E0,-1.5123153E0,7.3539233E-1,-3.372479E-1,1.7061852E-2,-8.765088E-3,-2.0147267E-1,-0E0,-5.044986E-2,7.0870495E-1,2.789609E-1,-1.8500324E-2,-3.0451927E-1,-1.1350672E-1,1.6396621E-1],"categories":[],"categories_nodes":[],"categories_segments":[],"categories_sizes":[],"default_left":[0,0,0,0,0,0,0,0,0,0,0,0,0,0,0,0,0,0,0,0,0,0,0,0,0],"id":36,"left_children":[1,3,5,-1,7,9,11,13,15,17,19,21,23,-1,-1,-1,-1,-1,-1,-1,-1,-1,-1,-1,-1],"loss_changes":[1.0772598E2,1.1054945E2,7.5543144E1,0E0,9.6615074E1,6.718236E1,1.6441658E1,8.8033905E1,1.5896652E1,6.0256404E-1,4.4138657E1,4.716278E0,6.4982576E0,0E0,0E0,0E0,0E0,0E0,0E0,0E0,0E0,0E0,0E0,0E0,0E0],"parents":[2147483647,0,0,1,1,2,2,4,4,5,5,6,6,7,7,8,8,9,9,10,10,11,11,12,12],"right_children":[2,4,6,-1,8,10,12,14,16,18,20,22,24,-1,-1,-1,-1,-1,-1,-1,-1,-1,-1,-1,-1],"split_conditions":[5.78E2,2.796225E0,3.0795848E-1,-5.3191084E-1,6.477981E0,7E0,1.4E1,1.378E2,1.8262E3,1.5934E3,3.93E2,7E0,2.468E2,-3.372479E-1,1.7061852E-2,-8.765088E-3,-2.0147267E-1,-0E0,-5.044986E-2,7.0870495E-1,2.789609E-1,-1.8500324E-2,-3.0451927E-1,-1.1350672E-1,1.6396621E-1],"split_indices":[8,15,9,0,15,7,7,3,13,13,0,7,0,0,0,0,0,0,0,0,0,0,0,0,0],"split_type":[0,0,0,0,0,0,0,0,0,0,0,0,0,0,0,0,0,0,0,0,0,0,0,0,0],"sum_hessian":[8.51E2,8.13E2,3.8E1,6E0,8.07E2,2.6E1,1.2E1,7.56E2,5.1E1,6E0,2E1,6E0,6E0,1.1E1,7.45E2,1E1,4.1E1,2E0,4E0,7E0,1.3E1,3E0,3E0,1E0,5E0],"tree_param":{"num_deleted":"0","num_feature":"22","num_nodes":"25","size_leaf_vector":"1"}},{"base_weights":[-4.786366E-2,-1.0295163E0,9.994239E-2,-1.1449016E0,1.7452571E0,2.5116363E-1,-9.194543E-1,-6.8544525E-1,-1.999537E0,4.081554E-1,-0E0,-2.744308E-1,7.2326934E-1,-1.1199875E-1,-1.650629E0,-6.070719E-1,-6.743964E-2,-2.7609795E-1,-0E0,-8.449677E-3,2.6395326E-2,5.0764766E-2,-1.5243629E-1,5.4005466E-2,5.924029E-1,-3.6788234E-1,2.7226962E-2,-2.4329348E-1,-0E0],"categories":[],"categories_nodes":[],"categories_segments":[],"categories_sizes":[],"default_left":[0,0,0,0,0,0,0,0,0,0,0,0,0,0,0,0,0,0,0,0,0,0,0,0,0,0,0,0,0],"id":37,"left_children":[1,3,5,7,9,11,13,15,17,-1,19,21,23,25,27,-1,-1,-1,-1,-1,-1,-1,-1,-1,-1,-1,-1,-1,-1],"loss_changes":[1.25457794E2,3.597281E1,1.1400779E2,3.9534668E1,1.047988E1,1.6164485E2,5.415944E1,3.783663E1,1.6471512E1,0E0,5.8726184E-2,1.9612016E2,3.9569418E2,4.600593E1,2.4236649E1,0E0,0E0,0E0,0E0,0E0,0E0,0E0,0E0,0E0,0E0,0E0,0E0,0E0,0E0],"parents":[2147483647,0,0,1,1,2,2,3,3,4,4,5,5,6,6,7,7,8,8,10,10,11,11,12,12,13,13,14,14],"right_children":[2,4,6,8,10,12,14,16,18,-1,20,22,24,26,28,-1,-1,-1,-1,-1,-1,-1,-1,-1,-1,-1,-1,-1,-1],"split_conditions":[7E0,4.653273E-1,3.5519126E-1,3.9683044E-1,4.5E0,4.117481E0,2.3419203E-2,3E0,1.72E2,4.081554E-1,1.668E2,3.4370832E0,3.971E2,3.8864627E-1,5.99271E0,-6.070719E-1,-6.743964E-2,-2.7609795E-1,-0E0,-8.449677E-3,2.6395326E-2,5.0764766E-2,-1.5243629E-1,5.4005466E-2,5.924029E-1,-3.6788234E-1,2.7226962E-2,-2.4329348E-1,-0E0],"split_indices":[7,11,11,12,4,15,16,7,2,0,0,15,8,9,15,0,0,0,0,0,0,0,0,0,0,0,0,0,0],"split_type":[0,0,0,0,0,0,0,0,0,0,0,0,0,0,0,0,0,0,0,0,0,0,0,0,0,0,0,0,0],"sum_hessian":[8.57E2,1.13E2,7.44E2,1.09E2,4E0,6.49E2,9.5E1,7.2E1,3.7E1,2E0,2E0,3.06E2,3.43E2,4.6E1,4.9E1,2E0,7E1,3.4E1,3E0,1E0,1E0,1.77E2,1.29E2,3.2E2,2.3E1,5E0,4.1E1,4.2E1,7E0],"tree_param":{"num_deleted":"0","num_feature":"22","num_nodes":"29","size_leaf_vector":"1"}},{"base_weights":[4.0267013E-2,-9.4091916E-1,1.9758661E-1,-4.413016E-1,-1.4095402E0,1.2095114E0,-1.3219115E-2,-5.379486E-1,-2.6858854E-1,-1.5308483E0,4.6958253E-1,2.071605E0,-1.6006467E-1,2.3147137E-1,-1.1098114E0,-1.6252032E-1,3.4362037E-2,-3.3348042E-1,-1.23834E-1,5.949146E-1,1.4269596E-1,-4.2886016E-1,1.2514204E-1,-9.005322E-1,3.3489227E-2,-3.174137E-1,-2.9961577E-2],"categories":[],"categories_nodes":[],"categories_segments":[],"categories_sizes":[],"default_left":[0,0,0,0,0,0,0,0,0,0,0,0,0,0,0,0,0,0,0,0,0,0,0,0,0,0,0],"id":38,"left_children":[1,3,5,7,9,11,13,-1,15,17,-1,19,21,23,25,-1,-1,-1,-1,-1,-1,-1,-1,-1,-1,-1,-1],"loss_changes":[1.3119965E2,2.520105E1,1.5884239E2,3.3181644E1,3.5634094E1,1.5362381E2,1.6478954E2,0E0,3.2472992E1,3.0959381E1,0E0,1.8963315E2,1.8858E2,1.2195845E2,1.352428E2,0E0,0E0,0E0,0E0,0E0,0E0,0E0,0E0,0E0,0E0,0E0,0E0],"parents":[2147483647,0,0,1,1,2,2,3,3,4,4,5,5,6,6,8,8,9,9,11,11,12,12,13,13,14,14],"right_children":[2,4,6,8,10,12,14,-1,16,18,-1,20,22,24,26,-1,-1,-1,-1,-1,-1,-1,-1,-1,-1,-1,-1],"split_conditions":[7E0,1.5E1,1.619E2,3E0,1.72E2,1.21E1,2.2075055E-2,-5.379486E-1,3.322E2,9.47E1,4.6958253E-1,3.0617908E-1,1.42E1,8.11E2,9.261E2,-1.6252032E-1,3.4362037E-2,-3.3348042E-1,-1.23834E-1,5.949146E-1,1.4269596E-1,-4.2886016E-1,1.2514204E-1,-9.005322E-1,3.3489227E-2,-3.174137E-1,-2.9961577E-2],"split_indices":[7,1,3,7,2,4,16,0,8,1,0,12,4,5,5,0,0,0,0,0,0,0,0,0,0,0,0],"split_type":[0,0,0,0,0,0,0,0,0,0,0,0,0,0,0,0,0,0,0,0,0,0,0,0,0,0,0],"sum_hessian":[8.55E2,1.17E2,7.38E2,5.8E1,5.9E1,1.28E2,6.1E2,2E0,5.6E1,5.8E1,1E0,7.9E1,4.9E1,4.98E2,1.12E2,2E1,3.6E1,1.8E1,4E1,2E1,5.9E1,1.3E1,3.6E1,2E0,4.96E2,4.2E1,7E1],"tree_param":{"num_deleted":"0","num_feature":"22","num_nodes":"27","size_leaf_vector":"1"}},{"base_weights":[-2.9160703E-2,1.2851756E0,-1.3419366E-1,-5.220399E-1,2.603947E0,-3.9190196E-2,-1.491292E0,-3.330741E0,3.317865E-1,3.177524E0,-1.507731E0,9.2933553E-1,-2.1365136E-1,-2.1065972E0,3.159526E-1,-5.543419E-1,1.2090799E-1,1.0800477E-1,-1.1340919E-1,5.2859884E-2,5.325844E-1,-0E0,-3.595826E-1,-1.2301361E-2,3.1426552E-1,-2.5978875E-1,-3.2812748E-3,-2.9176217E-1,4.7570232E-1,-2.1748115E-1,1.08532935E-1],"categories":[],"categories_nodes":[],"categories_segments":[],"categories_sizes":[],"default_left":[0,0,0,0,0,0,0,0,0,0,0,0,0,0,0,0,0,0,0,0,0,0,0,0,0,0,0,0,0,0,0],"id":39,"left_children":[1,3,5,7,9,11,13,15,17,19,21,23,25,27,29,-1,-1,-1,-1,-1,-1,-1,-1,-1,-1,-1,-1,-1,-1,-1,-1],"loss_changes":[1.1250272E2,1.4614728E2,9.676976E1,6.40997E1,8.592526E1,1.2007283E2,5.6899055E1,3.364428E1,1.2629831E1,8.567258E1,8.5161085E0,1.7756277E2,2.0875183E2,4.748471E1,1.3012921E1,0E0,0E0,0E0,0E0,0E0,0E0,0E0,0E0,0E0,0E0,0E0,0E0,0E0,0E0,0E0,0E0],"parents":[2147483647,0,0,1,1,2,2,3,3,4,4,5,5,6,6,7,7,8,8,9,9,10,10,11,11,12,12,13,13,14,14],"right_children":[2,4,6,8,10,12,14,16,18,20,22,24,26,28,30,-1,-1,-1,-1,-1,-1,-1,-1,-1,-1,-1,-1,-1,-1,-1,-1],"split_conditions":[1.539E2,1.433E2,1.21E1,8.1E0,8.998E2,6.797E2,1.53E2,4.8E2,4.75E2,1.4E1,2.8E1,6.51E2,4.1373885E-1,1E2,1.4E1,-5.543419E-1,1.2090799E-1,1.0800477E-1,-1.1340919E-1,5.2859884E-2,5.325844E-1,-0E0,-3.595826E-1,-1.2301361E-2,3.1426552E-1,-2.5978875E-1,-3.2812748E-3,-2.9176217E-1,4.7570232E-1,-2.1748115E-1,1.08532935E-1],"split_indices":[3,3,4,4,6,6,1,0,0,7,7,6,14,7,7,0,0,0,0,0,0,0,0,0,0,0,0,0,0,0,0],"split_type":[0,0,0,0,0,0,0,0,0,0,0,0,0,0,0,0,0,0,0,0,0,0,0,0,0,0,0,0,0,0,0],"sum_hessian":[8.24E2,6E1,7.64E2,2.5E1,3.5E1,7.15E2,4.9E1,6E0,1.9E1,3.1E1,4E0,1.08E2,6.07E2,3.7E1,1.2E1,5E0,1E0,1.4E1,5E0,9E0,2.2E1,2E0,2E0,6.5E1,4.3E1,5.5E1,5.52E2,3.6E1,1E0,2E0,1E1],"tree_param":{"num_deleted":"0","num_feature":"22","num_nodes":"31","size_leaf_vector":"1"}},{"base_weights":[-5.0977353E-2,6.702598E-1,-2.1409096E-1,3.6285478E-1,3.2317576E0,-1.589331E-2,-1.0311E0,1.4193426E0,-1.6646689E-1,1.0538952E0,4.0821857E0,-7.97621E-1,7.1450947E-3,-3.7031054E-1,-2.8546355E0,-7.240922E-1,2.4617082E-1,-1.1277856E-1,2.0586672E-1,-0E0,1.9102398E-1,5.548382E-1,-0E0,2.7681723E-1,-9.747805E-3,4.4783307E-3,-2.530453E-1,-4.1267118E-1,1.6273941E-1],"categories":[],"categories_nodes":[],"categories_segments":[],"categories_sizes":[],"default_left":[0,0,0,0,0,0,0,0,0,0,0,0,0,0,0,0,0,0,0,0,0,0,0,0,0,0,0,0,0],"id":40,"left_children":[1,3,5,7,9,11,13,15,17,19,21,-1,23,25,27,-1,-1,-1,-1,-1,-1,-1,-1,-1,-1,-1,-1,-1,-1],"loss_changes":[9.9295135E1,1.1786794E2,1.1105221E2,7.9325966E1,2.3266388E1,8.88409E1,1.5781664E2,1.8118301E2,1.2118075E2,3.9435453E0,1.2347046E1,0E0,1.0616915E2,6.8482414E1,6.6023254E1,0E0,0E0,0E0,0E0,0E0,0E0,0E0,0E0,0E0,0E0,0E0,0E0,0E0,0E0],"parents":[2147483647,0,0,1,1,2,2,3,3,4,4,5,5,6,6,7,7,8,8,9,9,10,10,12,12,13,13,14,14],"right_children":[2,4,6,8,10,12,14,16,18,20,22,-1,24,26,28,-1,-1,-1,-1,-1,-1,-1,-1,-1,-1,-1,-1,-1,-1],"split_conditions":[1.619E2,1.594E2,2.1129327E-2,2.4675736E-2,2.8E1,8.11E2,2.978E2,2.7969348E-1,3.7584964E-2,2.135E2,2.81E2,-7.97621E-1,8.35E2,1.844E2,1E0,-7.240922E-1,2.4617082E-1,-1.1277856E-1,2.0586672E-1,-0E0,1.9102398E-1,5.548382E-1,-0E0,2.7681723E-1,-9.747805E-3,4.4783307E-3,-2.530453E-1,-4.1267118E-1,1.6273941E-1],"split_indices":[3,3,16,16,7,5,0,9,16,0,0,0,5,3,20,0,0,0,0,0,0,0,0,0,0,0,0,0,0],"split_type":[0,0,0,0,0,0,0,0,0,0,0,0,0,0,0,0,0,0,0,0,0,0,0,0,0,0,0,0,0],"sum_hessian":[8.48E2,1.55E2,6.93E2,1.39E2,1.6E1,5.59E2,1.34E2,4.7E1,9.2E1,5E0,1.1E1,2E0,5.57E2,9.9E1,3.5E1,3E0,4.4E1,6.6E1,2.6E1,1E0,4E0,1E1,1E0,2.1E1,5.36E2,7.9E1,2E1,3.2E1,3E0],"tree_param":{"num_deleted":"0","num_feature":"22","num_nodes":"29","size_leaf_vector":"1"}},{"base_weights":[-8.2047984E-2,-1.7794382E-2,-1.971832E0,-1.5501662E-1,7.472643E-1,-1.5194198E0,-4.105575E-1,-2.9754853E-2,-1.9737062E0,2.5306836E-1,3.2072895E0,-8.721263E-2,-1.83559E0,-8.049879E-3,1.2002697E0,-1.867256E-1,-9.739858E-1,-7.0680094E-1,4.924665E-2,2.9653975E-1,1.9084033E0,-2.6917917E-1,-3.61853E-2],"categories":[],"categories_nodes":[],"categories_segments":[],"categories_sizes":[],"default_left":[0,0,0,0,0,0,0,0,0,0,0,0,0,0,0,0,0,0,0,0,0,0,0],"id":41,"left_children":[1,3,5,7,9,11,-1,13,15,17,19,-1,21,-1,-1,-1,-1,-1,-1,-1,-1,-1,-1],"loss_changes":[1.00351776E2,8.524589E1,9.466194E0,1.5607811E2,1.4566986E2,2.3825035E0,0E0,2.0352118E2,1.11582535E2,7.879301E1,1.7761188E2,0E0,3.8509789E0,0E0,0E0,0E0,0E0,0E0,0E0,0E0,0E0,0E0,0E0],"parents":[2147483647,0,0,1,1,2,2,3,3,4,4,5,5,7,7,8,8,9,9,10,10,12,12],"right_children":[2,4,6,8,10,12,-1,14,16,18,20,-1,22,-1,-1,-1,-1,-1,-1,-1,-1,-1,-1],"split_conditions":[7.529412E-1,3.899E2,8.220339E-1,3.76E2,3.5990992E0,1.54E2,-4.105575E-1,1.113E3,4.711044E0,8.11E2,2.2988506E-2,-8.721263E-2,1.933E2,-8.049879E-3,1.2002697E0,-1.867256E-1,-9.739858E-1,-7.0680094E-1,4.924665E-2,2.9653975E-1,1.9084033E0,-2.6917917E-1,-3.61853E-2],"split_indices":[9,0,9,0,15,0,0,5,15,5,16,0,3,0,0,0,0,0,0,0,0,0,0],"split_type":[0,0,0,0,0,0,0,0,0,0,0,0,0,0,0,0,0,0,0,0,0,0,0],"sum_hessian":[8.45E2,8.18E2,2.7E1,6.95E2,1.23E2,2.1E1,6E0,6.51E2,4.4E1,1.03E2,2E1,7E0,1.4E1,6.49E2,2E0,4.1E1,3E0,2E0,1.01E2,1.9E1,1E0,1.1E1,3E0],"tree_param":{"num_deleted":"0","num_feature":"22","num_nodes":"23","size_leaf_vector":"1"}},{"base_weights":[5.408043E-2,1.9057968E0,-3.148209E-3,-5.0146264E-1,3.7289968E0,1.7555854E-1,-5.3414124E-1,-2.8068662E-1,4.9189366E-2,-0E0,5.0069118E0,1.4251769E-1,6.1474805E0,-2.6686947E0,-1.8319064E-1,-1.3880774E-1,1.2276251E-1,-0E0,1.6284559E-2,7.781705E-1,1.6196766E-1,5.2262407E-2,-4.9602E-2,2.539569E-1,9.18425E-1,-1.890831E-2,-4.9229315E-1,-2.0298399E-1,6.088544E-2],"categories":[],"categories_nodes":[],"categories_segments":[],"categories_sizes":[],"default_left":[0,0,0,0,0,0,0,0,0,0,0,0,0,0,0,0,0,0,0,0,0,0,0,0,0,0,0,0,0],"id":42,"left_children":[1,3,5,7,9,11,13,-1,15,17,19,21,23,25,27,-1,-1,-1,-1,-1,-1,-1,-1,-1,-1,-1,-1,-1,-1],"loss_changes":[9.269384E1,1.19088036E2,7.90188E1,1.32097645E1,6.9485825E1,1.14623764E2,1.54115E2,0E0,8.867079E0,2.0274967E-2,3.9282898E1,9.047467E1,1.688385E0,8.717354E1,1.748255E2,0E0,0E0,0E0,0E0,0E0,0E0,0E0,0E0,0E0,0E0,0E0,0E0,0E0,0E0],"parents":[2147483647,0,0,1,1,2,2,3,3,4,4,5,5,6,6,8,8,9,9,10,10,11,11,12,12,13,13,14,14],"right_children":[2,4,6,8,10,12,14,-1,16,18,20,22,24,26,28,-1,-1,-1,-1,-1,-1,-1,-1,-1,-1,-1,-1,-1,-1],"split_conditions":[2.7748227E0,8.6E0,1.39E2,3.161E2,2.0794415E0,1.37E2,1.453E2,-2.8068662E-1,2.7080503E0,1.84E2,1.05E1,5.5014324E-1,8.782E2,1.7E0,4.1517803E-1,-1.3880774E-1,1.2276251E-1,-0E0,1.6284559E-2,7.781705E-1,1.6196766E-1,5.2262407E-2,-4.9602E-2,2.539569E-1,9.18425E-1,-1.890831E-2,-4.9229315E-1,-2.0298399E-1,6.088544E-2],"split_indices":[15,4,1,0,17,1,1,0,17,3,4,9,5,4,14,0,0,0,0,0,0,0,0,0,0,0,0,0,0],"split_type":[0,0,0,0,0,0,0,0,0,0,0,0,0,0,0,0,0,0,0,0,0,0,0,0,0,0,0,0,0],"sum_hessian":[8.54E2,2.6E1,8.28E2,1.1E1,1.5E1,6.18E2,2.1E2,3E0,8E0,4E0,1.1E1,6.15E2,3E0,2.9E1,1.81E2,3E0,5E0,3E0,1E0,8E0,3E0,4.09E2,2.06E2,1E0,2E0,1E1,1.9E1,5.8E1,1.23E2],"tree_param":{"num_deleted":"0","num_feature":"22","num_nodes":"29","size_leaf_vector":"1"}},{"base_weights":[-3.6289677E-2,-4.9878278E-1,1.6309592E-1,3.962401E-2,-1.0168427E0,-1.7324062E-1,6.3828236E-1,6.296208E-1,-9.0627617E-1,-7.2135305E-1,-2.3746092E0,2.2895531E-1,-1.1607805E0,1.5523504E0,8.824033E-2,1.2164752E-1,-1.07269906E-1,-1.3878988E-1,3.5407284E-1,-1.6347829E-1,-2.1235209E-2,-2.0519584E-1,-1.100288E0,5.1332537E-2,-4.3670985E-1,-2.002086E-1,1.5862246E-1,-6.0376173E-1,2.2455037E-1,-1.3991311E-1,1.13892816E-1],"categories":[],"categories_nodes":[],"categories_segments":[],"categories_sizes":[],"default_left":[0,0,0,0,0,0,0,0,0,0,0,0,0,0,0,0,0,0,0,0,0,0,0,0,0,0,0,0,0,0,0],"id":43,"left_children":[1,3,5,7,9,11,13,15,17,19,21,23,25,27,29,-1,-1,-1,-1,-1,-1,-1,-1,-1,-1,-1,-1,-1,-1,-1,-1],"loss_changes":[7.98156E1,7.398109E1,9.6480095E1,7.0793365E1,4.995749E1,1.4021495E2,1.2389727E2,4.0102383E1,3.4333878E1,3.389903E1,9.499417E1,1.6202324E2,1.0802548E2,1.3767288E2,1.5461093E2,0E0,0E0,0E0,0E0,0E0,0E0,0E0,0E0,0E0,0E0,0E0,0E0,0E0,0E0,0E0,0E0],"parents":[2147483647,0,0,1,1,2,2,3,3,4,4,5,5,6,6,7,7,8,8,9,9,10,10,11,11,12,12,13,13,14,14],"right_children":[2,4,6,8,10,12,14,16,18,20,22,24,26,28,30,-1,-1,-1,-1,-1,-1,-1,-1,-1,-1,-1,-1,-1,-1,-1,-1],"split_conditions":[2.8E1,3.0618665E-1,9.776E2,1.9E2,1.05E1,2.1129327E-2,4.6965427E0,1.8607E3,2.16E2,4.257454E-1,1.593E2,9.739E2,1.624E2,1.433E2,7.853E2,1.2164752E-1,-1.07269906E-1,-1.3878988E-1,3.5407284E-1,-1.6347829E-1,-2.1235209E-2,-2.0519584E-1,-1.100288E0,5.1332537E-2,-4.3670985E-1,-2.002086E-1,1.5862246E-1,-6.0376173E-1,2.2455037E-1,-1.3991311E-1,1.13892816E-1],"split_indices":[7,12,5,3,4,16,15,13,3,14,3,5,1,3,6,0,0,0,0,0,0,0,0,0,0,0,0,0,0,0,0],"split_type":[0,0,0,0,0,0,0,0,0,0,0,0,0,0,0,0,0,0,0,0,0,0,0,0,0,0,0,0,0,0,0],"sum_hessian":[8.61E2,2.61E2,6E2,1.27E2,1.34E2,3.5E2,2.5E2,7.9E1,4.8E1,1.11E2,2.3E1,2.48E2,1.02E2,9.3E1,1.57E2,6.5E1,1.4E1,4.6E1,2E0,5.3E1,5.8E1,2.1E1,2E0,2.37E2,1.1E1,8.7E1,1.5E1,3E0,9E1,6.3E1,9.4E1],"tree_param":{"num_deleted":"0","num_feature":"22","num_nodes":"31","size_leaf_vector":"1"}},{"base_weights":[-1.3502018E-2,-3.6480212E-1,2.3278248E-1,-3.912552E-1,7.9396415E-1,1.6068766E-1,5.6540256E0,-1.3842543E0,-2.0626238E-1,6.5999895E-1,-1.622469E-1,-0E0,6.8167086E0,-2.78815E-1,1.3738577E-1,-8.960485E-3,-2.0758523E-1,-1.725264E-2,2.2040169E-1,-2.0302725E-1,9.0239635E-3,2.9967323E-1,9.3988323E-1],"categories":[],"categories_nodes":[],"categories_segments":[],"categories_sizes":[],"default_left":[0,0,0,0,0,0,0,0,0,0,0,0,0,0,0,0,0,0,0,0,0,0,0],"id":44,"left_children":[1,3,5,7,-1,9,11,13,15,17,19,-1,21,-1,-1,-1,-1,-1,-1,-1,-1,-1,-1],"loss_changes":[7.243009E1,5.496695E1,1.8437985E2,6.153959E1,0E0,7.850473E1,4.3524918E1,1.1189497E2,5.5029037E1,1.6874957E2,1.01232155E2,0E0,3.9453125E-1,0E0,0E0,0E0,0E0,0E0,0E0,0E0,0E0,0E0,0E0],"parents":[2147483647,0,0,1,1,2,2,3,3,5,5,6,6,7,7,8,8,9,9,10,10,12,12],"right_children":[2,4,6,8,-1,10,12,14,16,18,20,-1,22,-1,-1,-1,-1,-1,-1,-1,-1,-1,-1],"split_conditions":[2.468E2,1.1343E3,4.653273E-1,4.1517803E-1,7.9396415E-1,4.303646E-1,7E0,6.00038E-1,6.477981E0,4.161027E-1,4.4443747E-1,-0E0,1.4E1,-2.78815E-1,1.3738577E-1,-8.960485E-3,-2.0758523E-1,-1.725264E-2,2.2040169E-1,-2.0302725E-1,9.0239635E-3,2.9967323E-1,9.3988323E-1],"split_indices":[0,5,12,14,0,14,7,10,15,14,14,0,7,0,0,0,0,0,0,0,0,0,0],"split_type":[0,0,0,0,0,0,0,0,0,0,0,0,0,0,0,0,0,0,0,0,0,0,0],"sum_hessian":[8.35E2,3.46E2,4.89E2,3.45E2,1E0,4.83E2,6E0,5.3E1,2.92E2,1.91E2,2.92E2,1E0,5E0,4E1,1.3E1,2.68E2,2.4E1,1.1E2,8.1E1,4.1E1,2.51E2,1E0,4E0],"tree_param":{"num_deleted":"0","num_feature":"22","num_nodes":"23","size_leaf_vector":"1"}},{"base_weights":[-2.5170358E-2,-4.3295956E-1,1.9215396E-1,-1.457573E-2,-1.4369338E0,1.1325487E0,-1.9875611E-1,-1.349994E-1,2.5197723E0,-1.9915844E0,1.1412307E0,1.732504E0,-2.9488137E-1,-1.229737E-1,-4.723854E0,-4.77555E-2,1.168525E-1,1.2051523E0,1.6045918E-1,-4.0628567E-2,-3.719988E-1,3.4544414E-1,-7.0967756E-2,1.8582149E-1,8.611935E-1,-3.9115375E-1,7.859084E-2,1.416495E-2,-1.4192916E-1,-3.353029E-1,-9.6499664E-1],"categories":[],"categories_nodes":[],"categories_segments":[],"categories_sizes":[],"default_left":[0,0,0,0,0,0,0,0,0,0,0,0,0,0,0,0,0,0,0,0,0,0,0,0,0,0,0,0,0,0,0],"id":45,"left_children":[1,3,5,7,9,11,13,15,17,19,21,23,25,27,29,-1,-1,-1,-1,-1,-1,-1,-1,-1,-1,-1,-1,-1,-1,-1,-1],"loss_changes":[7.608254E1,1.2401991E2,2.0557912E2,6.211326E1,1.2614368E2,1.423717E2,1.288454E2,5.2506886E1,6.597709E1,1.1284589E2,4.4548454E1,1.3919818E2,1.2832065E2,9.284766E1,2.167247E1,0E0,0E0,0E0,0E0,0E0,0E0,0E0,0E0,0E0,0E0,0E0,0E0,0E0,0E0,0E0,0E0],"parents":[2147483647,0,0,1,1,2,2,3,3,4,4,5,5,6,6,7,7,8,8,9,9,10,10,11,11,12,12,13,13,14,14],"right_children":[2,4,6,8,10,12,14,16,18,20,22,24,26,28,30,-1,-1,-1,-1,-1,-1,-1,-1,-1,-1,-1,-1,-1,-1,-1,-1],"split_conditions":[3.8701298E0,3.4520833E0,4.6827445E0,5.4E2,1.214E2,1.357E2,3.76E2,3.2884614E0,1.0406E3,3.824092E-1,4.47E2,3.0846775E-1,3.8174275E-1,1.93E2,3.795E2,-4.77555E-2,1.168525E-1,1.2051523E0,1.6045918E-1,-4.0628567E-2,-3.719988E-1,3.4544414E-1,-7.0967756E-2,1.8582149E-1,8.611935E-1,-3.9115375E-1,7.859084E-2,1.416495E-2,-1.4192916E-1,-3.353029E-1,-9.6499664E-1],"split_indices":[15,15,15,0,2,1,0,15,5,9,8,10,10,3,0,0,0,0,0,0,0,0,0,0,0,0,0,0,0,0,0],"split_type":[0,0,0,0,0,0,0,0,0,0,0,0,0,0,0,0,0,0,0,0,0,0,0,0,0,0,0,0,0,0,0],"sum_hessian":[8.55E2,2.99E2,5.56E2,2.12E2,8.7E1,1.64E2,3.92E2,2.03E2,9E0,7.2E1,1.5E1,1.16E2,4.8E1,3.86E2,6E0,1.66E2,3.7E1,1E0,8E0,2.7E1,4.5E1,8E0,7E0,1.11E2,5E0,1.2E1,3.6E1,3.12E2,7.4E1,4E0,2E0],"tree_param":{"num_deleted":"0","num_feature":"22","num_nodes":"31","size_leaf_vector":"1"}},{"base_weights":[3.0045765E-3,9.635997E-1,-6.5443225E-2,-2.4984337E-1,1.7902066E0,1.2587854E-2,-1.139173E0,1.514603E-1,-5.7792324E-1,2.297671E0,-1.7910507E0,8.4596884E-1,1.5330032E-4,-1.5484986E0,-6.400525E-2,-1.0644629E-1,1.4574617E-1,-3.211874E-2,4.2539933E-1,-0E0,-3.330476E-1,-4.649781E-2,2.2192085E-2,-5.782642E-2,-2.7282405E-1,1.0781045E-1,-9.237261E-2],"categories":[],"categories_nodes":[],"categories_segments":[],"categories_sizes":[],"default_left":[0,0,0,0,0,0,0,0,0,0,0,0,0,0,0,0,0,0,0,0,0,0,0,0,0,0,0],"id":46,"left_children":[1,3,5,7,9,11,13,15,-1,17,19,-1,21,23,25,-1,-1,-1,-1,-1,-1,-1,-1,-1,-1,-1,-1],"loss_changes":[5.7465626E1,6.023381E1,6.833337E1,4.5737274E1,6.541136E1,5.459826E1,2.243541E1,2.1925655E1,0E0,9.049243E1,9.043338E0,0E0,4.8430843E1,2.3379791E1,1.0023194E1,0E0,0E0,0E0,0E0,0E0,0E0,0E0,0E0,0E0,0E0,0E0,0E0],"parents":[2147483647,0,0,1,1,2,2,3,3,4,4,5,5,6,6,7,7,9,9,10,10,12,12,13,13,14,14],"right_children":[2,4,6,8,10,12,14,16,-1,18,20,-1,22,24,26,-1,-1,-1,-1,-1,-1,-1,-1,-1,-1,-1,-1],"split_conditions":[1.535E2,1.433E2,1.21E1,1.176E2,8.998E2,2.849614E-1,1.175E2,4.22E1,-5.7792324E-1,1.4E1,7E0,8.4596884E-1,3.8701298E0,8.605E2,2.966805E-1,-1.0644629E-1,1.4574617E-1,-3.211874E-2,4.2539933E-1,-0E0,-3.330476E-1,-4.649781E-2,2.2192085E-2,-5.782642E-2,-2.7282405E-1,1.0781045E-1,-9.237261E-2],"split_indices":[3,3,4,1,6,9,2,1,0,7,7,0,15,5,11,0,0,0,0,0,0,0,0,0,0,0,0],"split_type":[0,0,0,0,0,0,0,0,0,0,0,0,0,0,0,0,0,0,0,0,0,0,0,0,0,0,0],"sum_hessian":[8.58E2,5.8E1,8E2,2.3E1,3.5E1,7.45E2,5.5E1,2.1E1,2E0,3.1E1,4E0,1E0,7.44E2,3.9E1,1.6E1,1E1,1.1E1,9E0,2.2E1,1E0,3E0,2.38E2,5.06E2,1.5E1,2.4E1,6E0,1E1],"tree_param":{"num_deleted":"0","num_feature":"22","num_nodes":"27","size_leaf_vector":"1"}},{"base_weights":[2.5853065E-3,-3.07987E-1,2.0568298E-1,6.5039194E-1,-5.173228E-1,1.2690841E0,-1.4815731E-1,-4.660904E-1,1.3438202E0,-6.180885E-1,2.2948968E0,1.046211E0,4.884675E0,6.83843E-2,-9.557919E-1,9.00539E-2,-2.4913952E-1,6.990699E-1,1.138995E-1,-1.2227274E-1,-3.954854E-3,1.0845181E0,1.4650333E-1,2.5083992E-1,6.263234E-2,3.2306293E-1,7.7091664E-1,3.926913E-2,-1.2204082E-1,-2.834935E-2,-2.7606457E-1],"categories":[],"categories_nodes":[],"categories_segments":[],"categories_sizes":[],"default_left":[0,0,0,0,0,0,0,0,0,0,0,0,0,0,0,0,0,0,0,0,0,0,0,0,0,0,0,0,0,0,0],"id":47,"left_children":[1,3,5,7,9,11,13,15,17,19,21,23,25,27,29,-1,-1,-1,-1,-1,-1,-1,-1,-1,-1,-1,-1,-1,-1,-1,-1],"loss_changes":[5.371363E1,6.7167786E1,1.963058E2,4.6968822E1,7.664961E1,9.709877E1,6.89183E1,4.1592007E1,6.022616E1,5.4527473E1,5.2599438E1,6.1082092E1,7.671295E0,7.681488E1,7.256955E1,0E0,0E0,0E0,0E0,0E0,0E0,0E0,0E0,0E0,0E0,0E0,0E0,0E0,0E0,0E0,0E0],"parents":[2147483647,0,0,1,1,2,2,3,3,4,4,5,5,6,6,7,7,8,8,9,9,10,10,11,11,12,12,13,13,14,14],"right_children":[2,4,6,8,10,12,14,16,18,20,22,24,26,28,30,-1,-1,-1,-1,-1,-1,-1,-1,-1,-1,-1,-1,-1,-1,-1,-1],"split_conditions":[4.113743E0,2.9879262E0,4.6827445E0,1.5781E3,5.4E2,1.8155E3,1.927E2,1.39E2,8.35E2,7.569E2,1.0406E3,2.64637E-1,1E0,1.0762E3,9.739E2,9.00539E-2,-2.4913952E-1,6.990699E-1,1.138995E-1,-1.2227274E-1,-3.954854E-3,1.0845181E0,1.4650333E-1,2.5083992E-1,6.263234E-2,3.2306293E-1,7.7091664E-1,3.926913E-2,-1.2204082E-1,-2.834935E-2,-2.7606457E-1],"split_indices":[15,15,15,13,0,13,3,1,5,6,5,12,21,5,5,0,0,0,0,0,0,0,0,0,0,0,0,0,0,0,0],"split_type":[0,0,0,0,0,0,0,0,0,0,0,0,0,0,0,0,0,0,0,0,0,0,0,0,0,0,0,0,0,0,0],"sum_hessian":[8.53E2,3.35E2,5.18E2,5.9E1,2.76E2,1.3E2,3.88E2,2.2E1,3.7E1,2.67E2,9E0,1.23E2,7E0,3.05E2,8.3E1,1.2E1,1E1,3E0,3.4E1,1.65E2,1.02E2,1E0,8E0,4.4E1,7.9E1,3E0,4E0,2.48E2,5.7E1,5.3E1,3E1],"tree_param":{"num_deleted":"0","num_feature":"22","num_nodes":"31","size_leaf_vector":"1"}},{"base_weights":[-3.300467E-2,-4.323585E-1,1.510223E-1,1.8335536E0,-5.162507E-1,-6.686432E-1,3.7661713E-1,-4.8192155E-2,3.2891363E-1,-1.8029798E0,-3.5526863E-1,9.304466E-2,-1.6107961E0,3.0376513E0,2.3771669E-1,-1.5820815E-1,-9.513787E-1,-5.1789112E-2,4.274649E-1,2.7402332E-1,-6.704848E-2,-3.2571653E-1,1.252469E-1,2.990148E-1,1.6490133E0,-2.5106193E-2,9.545494E-2],"categories":[],"categories_nodes":[],"categories_segments":[],"categories_sizes":[],"default_left":[0,0,0,0,0,0,0,0,0,0,0,0,0,0,0,0,0,0,0,0,0,0,0,0,0,0,0],"id":48,"left_children":[1,3,5,7,9,11,13,-1,-1,15,17,19,21,23,25,-1,-1,-1,-1,-1,-1,-1,-1,-1,-1,-1,-1],"loss_changes":[6.281783E1,5.0056446E1,1.070061E2,1.877479E1,5.15111E1,9.089696E1,1.6473552E2,0E0,0E0,7.642644E1,4.6817112E1,9.139201E1,1.4628857E2,1.2313869E2,9.9871506E1,0E0,0E0,0E0,0E0,0E0,0E0,0E0,0E0,0E0,0E0,0E0,0E0],"parents":[2147483647,0,0,1,1,2,2,3,3,4,4,5,5,6,6,9,9,10,10,11,11,12,12,13,13,14,14],"right_children":[2,4,6,8,10,12,14,-1,-1,16,18,20,22,24,26,-1,-1,-1,-1,-1,-1,-1,-1,-1,-1,-1,-1],"split_conditions":[2.8E1,6.13E2,4.1822723E-1,7E0,3.0103093E-1,1.372E2,4.2307693E-1,-4.8192155E-2,3.2891363E-1,2.9894853E-1,4.798033E-1,3.7086093E-1,2.43E2,4.018E2,4.22E1,-1.5820815E-1,-9.513787E-1,-5.1789112E-2,4.274649E-1,2.7402332E-1,-6.704848E-2,-3.2571653E-1,1.252469E-1,2.990148E-1,1.6490133E0,-2.5106193E-2,9.545494E-2],"split_indices":[7,6,14,7,9,1,14,0,0,9,11,9,1,0,1,0,0,0,0,0,0,0,0,0,0,0,0],"split_type":[0,0,0,0,0,0,0,0,0,0,0,0,0,0,0,0,0,0,0,0,0,0,0,0,0,0,0],"sum_hessian":[8.5E2,2.7E2,5.8E2,9E0,2.61E2,1.24E2,4.56E2,2E0,7E0,2.8E1,2.33E2,6.8E1,5.6E1,2.2E1,4.34E2,2.6E1,2E0,2.3E2,3E0,1.6E1,5.2E1,4.1E1,1.5E1,2.1E1,1E0,2.35E2,1.99E2],"tree_param":{"num_deleted":"0","num_feature":"22","num_nodes":"27","size_leaf_vector":"1"}},{"base_weights":[8.798745E-3,4.727494E-2,-1.9370064E0,1.10854045E-1,-8.134014E-1,-2.6010358E0,-0E0,-3.212553E0,1.3000955E-1,-2.3564801E0,-5.65833E-1,-0E0,-3.9448726E-1,1.3783562E-3,-0E0,-0E0,-5.3766537E-1,-5.895131E-2,2.7623333E-2,-1.09784575E-2,-4.6470335E-1,-1.3761394E-2,-1.6380028E-1],"categories":[],"categories_nodes":[],"categories_segments":[],"categories_sizes":[],"default_left":[0,0,0,0,0,0,0,0,0,0,0,0,0,0,0,0,0,0,0,0,0,0,0],"id":49,"left_children":[1,3,5,7,9,11,13,15,17,19,21,-1,-1,-1,-1,-1,-1,-1,-1,-1,-1,-1,-1],"loss_changes":[6.263793E1,4.5686344E1,2.1775276E1,4.7001575E1,1.8243526E1,1.8063698E1,3.8602538E-4,1.5323647E1,4.2190918E1,1.7567726E1,1.5265343E1,0E0,0E0,0E0,0E0,0E0,0E0,0E0,0E0,0E0,0E0,0E0,0E0],"parents":[2147483647,0,0,1,1,2,2,3,3,4,4,5,5,6,6,7,7,8,8,9,9,10,10],"right_children":[2,4,6,8,10,12,14,16,18,20,22,-1,-1,-1,-1,-1,-1,-1,-1,-1,-1,-1,-1],"split_conditions":[6.7785233E-1,6.477981E0,9.24E2,8.11E2,1.802E2,1.33E2,1.436E2,3.31E2,2.0794415E0,3.3672957E0,8.65E2,-0E0,-3.9448726E-1,1.3783562E-3,-0E0,-0E0,-5.3766537E-1,-5.895131E-2,2.7623333E-2,-1.09784575E-2,-4.6470335E-1,-1.3761394E-2,-1.6380028E-1],"split_indices":[12,15,5,5,3,0,0,0,17,17,6,0,0,0,0,0,0,0,0,0,0,0,0],"split_type":[0,0,0,0,0,0,0,0,0,0,0,0,0,0,0,0,0,0,0,0,0,0,0],"sum_hessian":[8.65E2,8.49E2,1.6E1,7.92E2,5.7E1,1.2E1,4E0,4E0,7.88E2,7E0,5E1,2E0,1E1,3E0,1E0,1E0,3E0,1.01E2,6.87E2,3E0,4E0,3.2E1,1.8E1],"tree_param":{"num_deleted":"0","num_feature":"22","num_nodes":"23","size_leaf_vector":"1"}},{"base_weights":[2.9417582E-2,-1.5748088E-1,4.1438502E-1,7.6261044E-1,-3.952545E-1,1.7853162E-1,2.0356076E0,-2.543951E0,9.877574E-1,-1.6957892E0,-2.394374E-1,1.0019999E0,-2.1716107E-1,-3.6607492E-1,3.3299391E0,-4.5594296E-1,-0E0,4.3398723E-1,6.506377E-2,-5.5922323E-1,-6.377652E-2,-2.6208763E-3,-9.361189E-2,5.2873872E-2,4.3257526E-1,-0E0,-2.612695E-1,-1.16432026E-1,5.961831E-2,6.4272255E-1,2.821092E-1],"categories":[],"categories_nodes":[],"categories_segments":[],"categories_sizes":[],"default_left":[0,0,0,0,0,0,0,0,0,0,0,0,0,0,0,0,0,0,0,0,0,0,0,0,0,0,0,0,0,0,0],"id":50,"left_children":[1,3,5,7,9,11,13,15,17,19,21,23,25,27,29,-1,-1,-1,-1,-1,-1,-1,-1,-1,-1,-1,-1,-1,-1,-1,-1],"loss_changes":[6.198252E1,1.2548296E2,1.0530574E2,8.599904E1,9.056116E1,8.149049E1,1.1307643E2,2.1945427E1,1.228292E2,1.5170906E2,4.4467056E1,1.1050042E2,6.658744E1,6.3610826E0,3.4172455E1,0E0,0E0,0E0,0E0,0E0,0E0,0E0,0E0,0E0,0E0,0E0,0E0,0E0,0E0,0E0,0E0],"parents":[2147483647,0,0,1,1,2,2,3,3,4,4,5,5,6,6,7,7,8,8,9,9,10,10,11,11,12,12,13,13,14,14],"right_children":[2,4,6,8,10,12,14,16,18,20,22,24,26,28,30,-1,-1,-1,-1,-1,-1,-1,-1,-1,-1,-1,-1,-1,-1,-1,-1],"split_conditions":[3.188E2,1.649E2,3.019267E-1,1.378E2,3.985582E-1,4.2389846E-1,1.4E1,5.6E1,2.6103646E-1,4.0005895E-1,1.075E2,4.1597444E-1,2.013E2,3.74E2,1.6459E3,-4.5594296E-1,-0E0,4.3398723E-1,6.506377E-2,-5.5922323E-1,-6.377652E-2,-2.6208763E-3,-9.361189E-2,5.2873872E-2,4.3257526E-1,-0E0,-2.612695E-1,-1.16432026E-1,5.961831E-2,6.4272255E-1,2.821092E-1],"split_indices":[0,3,10,3,9,14,7,7,11,12,2,14,3,0,13,0,0,0,0,0,0,0,0,0,0,0,0,0,0,0,0],"split_type":[0,0,0,0,0,0,0,0,0,0,0,0,0,0,0,0,0,0,0,0,0,0,0,0,0,0,0,0,0,0,0],"sum_hessian":[8.57E2,5.75E2,2.82E2,1.17E2,4.58E2,2.47E2,3.5E1,7E0,1.1E2,4.8E1,4.1E2,8.1E1,1.66E2,1.2E1,2.3E1,5E0,2E0,1.7E1,9.3E1,1.4E1,3.4E1,2.88E2,1.22E2,6.6E1,1.5E1,1.49E2,1.7E1,8E0,4E0,8E0,1.5E1],"tree_param":{"num_deleted":"0","num_feature":"22","num_nodes":"31","size_leaf_vector":"1"}},{"base_weights":[-1.1047168E-2,8.089568E-1,-7.6461285E-2,-3.912344E-1,1.827105E0,1.3447824E-1,-4.4700366E-1,-1.8599626E0,2.575845E-1,5.466859E0,1.4044431E0,-7.983672E-2,7.958787E-1,-5.771465E-1,1.3428444E0,-2.9267892E-1,8.8967144E-2,1.348417E-1,-1.694823E-2,8.6414504E-1,1.2599336E-1,2.3658663E-1,-5.713178E-1,7.747768E-2,-3.881969E-2,5.608168E-2,4.320807E-1,-1.3956483E-1,-9.988296E-3,9.742904E-2,3.8394982E-1],"categories":[],"categories_nodes":[],"categories_segments":[],"categories_sizes":[],"default_left":[0,0,0,0,0,0,0,0,0,0,0,0,0,0,0,0,0,0,0,0,0,0,0,0,0,0,0,0,0,0,0],"id":51,"left_children":[1,3,5,7,9,11,13,15,17,19,21,23,25,27,29,-1,-1,-1,-1,-1,-1,-1,-1,-1,-1,-1,-1,-1,-1,-1,-1],"loss_changes":[4.5264553E1,7.7801025E1,6.2680363E1,2.880675E1,4.319523E1,7.2584045E1,6.711874E1,1.3299963E1,7.250685E0,9.79039E0,8.767262E1,6.054358E1,1.10915955E2,7.093454E1,1.3806881E1,0E0,0E0,0E0,0E0,0E0,0E0,0E0,0E0,0E0,0E0,0E0,0E0,0E0,0E0,0E0,0E0],"parents":[2147483647,0,0,1,1,2,2,3,3,4,4,5,5,6,6,7,7,8,8,9,9,10,10,11,11,12,12,13,13,14,14],"right_children":[2,4,6,8,10,12,14,16,18,20,22,24,26,28,30,-1,-1,-1,-1,-1,-1,-1,-1,-1,-1,-1,-1,-1,-1,-1,-1],"split_conditions":[1.514E2,1.433E2,8E0,8.1E0,6E0,5.5E0,5.78E2,9E1,1.4E1,1.8768E3,4.736813E-1,6.96E2,2.89E2,1.04E1,1E0,-2.9267892E-1,8.8967144E-2,1.348417E-1,-1.694823E-2,8.6414504E-1,1.2599336E-1,2.3658663E-1,-5.713178E-1,7.747768E-2,-3.881969E-2,5.608168E-2,4.320807E-1,-1.3956483E-1,-9.988296E-3,9.742904E-2,3.8394982E-1],"split_indices":[3,3,4,4,4,4,8,7,7,13,14,6,0,4,21,0,0,0,0,0,0,0,0,0,0,0,0,0,0,0,0],"split_type":[0,0,0,0,0,0,0,0,0,0,0,0,0,0,0,0,0,0,0,0,0,0,0,0,0,0,0,0,0,0,0],"sum_hessian":[8.59E2,6.2E1,7.97E2,2.8E1,3.4E1,5.06E2,2.91E2,9E0,1.9E1,3E0,3.1E1,3.81E2,1.25E2,2.72E2,1.9E1,8E0,1E0,7E0,1.2E1,2E0,1E0,2.9E1,2E0,9.3E1,2.88E2,1.11E2,1.4E1,1.3E2,1.42E2,1.5E1,4E0],"tree_param":{"num_deleted":"0","num_feature":"22","num_nodes":"31","size_leaf_vector":"1"}},{"base_weights":[2.1571647E-2,-6.9260724E-2,6.10338E-1,1.6745517E-1,-3.4982565E-1,1.7061245E0,2.9703793E-1,-1.924925E-2,1.2294011E0,-1.4293565E-1,-1.0868165E0,-3.6993992E-1,2.7421315E0,5.4164037E-2,1.7943872E0,-8.71731E-2,4.3968923E-2,4.3542498E-1,-1.3307336E-2,5.6460228E-2,-9.122108E-2,-8.276797E-2,-4.5792854E-1,1.5421072E-2,-5.2701235E-1,3.7657666E-1,-2.6807193E-2,-4.0229194E-2,1.0400327E-1,-3.0128656E-2,2.9015037E-1],"categories":[],"categories_nodes":[],"categories_segments":[],"categories_sizes":[],"default_left":[0,0,0,0,0,0,0,0,0,0,0,0,0,0,0,0,0,0,0,0,0,0,0,0,0,0,0,0,0,0,0],"id":52,"left_children":[1,3,5,7,9,11,13,15,17,19,21,23,25,27,29,-1,-1,-1,-1,-1,-1,-1,-1,-1,-1,-1,-1,-1,-1,-1,-1],"loss_changes":[4.6843147E1,4.984534E1,3.7847492E1,8.132969E1,5.1047775E1,5.7131477E1,3.1402851E1,8.569385E1,1.8671634E2,9.373238E1,7.58412E1,2.0220356E1,1.6302902E1,2.3868382E1,1.5271194E1,0E0,0E0,0E0,0E0,0E0,0E0,0E0,0E0,0E0,0E0,0E0,0E0,0E0,0E0,0E0,0E0],"parents":[2147483647,0,0,1,1,2,2,3,3,4,4,5,5,6,6,7,7,8,8,9,9,10,10,11,11,12,12,13,13,14,14],"right_children":[2,4,6,8,10,12,14,16,18,20,22,24,26,28,30,-1,-1,-1,-1,-1,-1,-1,-1,-1,-1,-1,-1,-1,-1,-1,-1],"split_conditions":[9.1E1,1.10486895E-1,4.0226987E-1,1.04E1,2.998E2,9.274E2,4.7357106E-1,1.858E2,1.17E1,4.6104065E-1,3.7340908E0,8.87E2,2.035E2,2.7E2,1.7E0,-8.71731E-2,4.3968923E-2,4.3542498E-1,-1.3307336E-2,5.6460228E-2,-9.122108E-2,-8.276797E-2,-4.5792854E-1,1.5421072E-2,-5.2701235E-1,3.7657666E-1,-2.6807193E-2,-4.0229194E-2,1.0400327E-1,-3.0128656E-2,2.9015037E-1],"split_indices":[7,11,9,4,0,5,14,3,4,9,15,5,1,7,4,0,0,0,0,0,0,0,0,0,0,0,0,0,0,0,0],"split_type":[0,0,0,0,0,0,0,0,0,0,0,0,0,0,0,0,0,0,0,0,0,0,0,0,0,0,0,0,0,0,0],"sum_hessian":[8.64E2,7.47E2,1.17E2,4.03E2,3.44E2,2.5E1,9.2E1,3.42E2,6.1E1,2.7E2,7.4E1,8E0,1.7E1,8E1,1.2E1,1.22E2,2.2E2,2.3E1,3.8E1,1.33E2,1.37E2,6.4E1,1E1,7E0,1E0,1.6E1,1E0,5.3E1,2.7E1,2E0,1E1],"tree_param":{"num_deleted":"0","num_feature":"22","num_nodes":"31","size_leaf_vector":"1"}},{"base_weights":[-4.8679378E-2,-1.14056E-1,8.6428154E-1,